1084 150
('에','Josa') -0.14820638 -0.050879553 -0.04371139 0.16345409 -0.17255 -0.20357838 0.31038094 -0.43787047 0.2038271 0.43934116 0.23115812 -0.108874135 -0.5292146 -0.23145689 0.0863065 0.14791745 -0.07487725 -0.05636442 0.096902676 0.34427625 0.05885538 -0.16306333 0.086531855 -0.20482886 0.35402438 -0.00068255723 -0.21039686 -0.011053516 -0.19678529 -0.019415654 0.40719515 0.03367433 0.2558433 -0.040413175 -0.09470479 -0.24679045 -0.27089158 -0.23179065 -0.3088241 0.1929627 -0.050326724 0.272893 -0.08874366 0.045940578 0.35557 -0.03636336 -0.068561934 -0.16134928 0.02781111 -0.055815674 0.5115048 0.09110077 0.33406973 -0.49206796 0.39570108 0.42204657 0.32223624 0.021918345 -0.29611617 0.18910325 -0.27994227 0.011908457 0.18223979 -0.20142305 0.17350566 -0.123129785 -0.23778504 -0.46430263 0.04841522 0.29675427 -0.25005722 0.08327918 0.15907632 -0.23862244 -0.48054707 -0.3844068 0.017509378 0.04946307 0.064483285 -0.085569754 -0.14906734 0.115449354 -0.34641728 0.2290101 -0.20859088 0.46481964 -0.110709004 -0.28537017 0.020004507 -0.07274137 0.3333373 0.3185018 -0.34480646 0.24746352 -0.099380605 -0.095048845 0.039933857 -0.18640365 -0.11630636 -0.113686204 -0.13790773 -0.051547088 -0.23118772 0.0012187758 0.31135008 -0.01661643 -0.048101876 -0.008128008 0.20058918 -0.061886318 -0.34232304 0.20586166 -0.03223793 0.17918554 -0.08995217 0.29562396 0.06443628 -0.20606838 -0.02297001 0.38198376 -0.058365814 0.053230442 -0.32839355 0.15794793 0.2287795 -0.18448013 0.32524252 -0.28723785 0.30000743 0.023471016 -0.28330818 -0.018669799 0.27052507 0.12736359 0.21616103 0.0863987 0.08962767 0.018960327 -0.08337101 0.39814982 0.04077162 -0.14132796 0.12828393 0.28357372 -0.1868305 -0.32290056 -0.13350473 0.34002298 0.18988234 0.3212058
('을','Josa') -0.054412257 0.049530398 0.03719403 0.3410063 -0.055587374 0.1102069 0.26429033 -0.0282528 0.03841973 0.040291548 0.1664999 0.18583553 -0.36284977 0.034958452 0.38382605 0.09694989 -0.08858115 -0.13630956 0.08620753 0.06762902 -0.17217608 -0.4629924 -0.008706864 0.22519636 0.098959155 -0.017710883 0.11400871 0.19226108 -0.015624039 0.10820549 -0.11503957 -0.117438294 -0.41227752 -0.029684842 0.12669975 -0.31122375 -0.14913782 -0.22332753 -0.09197117 0.17339185 -0.26550338 0.12837467 0.14829399 0.40987408 -0.40209475 0.10460629 -0.08117766 -0.25740105 -0.14417905 -0.3113611 -0.57855445 0.25415656 0.3775302 0.14546457 0.31989545 0.12970413 -0.2862244 0.05689326 0.09013515 -0.14603785 0.106034644 0.1582347 -0.0725902 -0.02974499 0.057530418 0.13724716 0.08870835 0.15179846 0.042811837 0.41429514 0.33405337 -0.15091816 -0.09315807 -0.33995116 0.1294791 -0.10092011 0.21928853 -0.17870048 0.11234147 0.06684492 -0.26095238 -0.055170015 0.14127485 -0.07220499 0.2901179 0.19158423 -0.24465132 -0.13460064 0.18086173 -0.0025434974 -0.07603795 0.49846596 0.39195287 -0.0032905578 -0.044316 -0.16731578 0.07538499 -0.37121132 -0.14209172 -0.3089354 -0.15496527 -0.14885849 -0.46882677 -0.18008189 -0.14990611 0.3184071 -0.014988116 -0.04198519 0.25315025 0.20391244 -0.16543284 0.026618626 -0.46916145 -0.4697947 -0.34220076 -0.43636304 -0.23692885 -0.10345768 -0.34887365 0.07289955 -0.20075636 -0.21429585 -0.25432083 0.39371347 -0.27663028 -0.2225641 -0.08320547 0.51072425 -0.096572876 -0.24221593 -0.083011605 -0.4222687 -0.13200301 -0.19765647 -0.16395402 0.3237365 -0.16705316 0.17486589 0.0587194 0.04897935 -0.025887627 0.3468341 0.066444606 0.046674572 0.24530345 -0.07260421 -0.08868736 0.3452744 0.27214605 -0.054347344
('이','Josa') -0.057025153 -0.09538104 -0.08367127 -0.025546622 -0.23875244 -0.12011775 0.3266995 0.14173433 -0.34016368 0.3726596 -0.33876777 0.25021058 0.08442186 0.28780216 0.24610345 0.09050803 0.17968924 0.018762212 0.15694162 0.178034 0.17524053 0.07889736 -0.30895504 -0.22736397 -0.28124893 -0.3553884 0.13061878 0.14798562 0.003159496 -0.08681967 -0.006012815 0.34567836 -0.30854768 -0.10864771 -0.35458717 0.021066468 -0.14943424 0.24333906 -0.2525856 -0.047897313 0.53748643 0.41041648 -0.113538116 0.13151738 0.1153291 0.18937074 -0.22152056 -0.14729998 -0.1350995 -0.4423322 0.07296941 0.21318515 0.19617288 0.08992354 -0.29639235 -0.011768167 -0.005794319 0.031432737 -0.36840713 0.08287708 0.1854636 0.14852867 0.26869336 0.14510833 0.017242758 -0.42476037 -0.22736827 0.13745803 0.11396921 -0.13006225 0.120268084 -0.037091352 -0.61184657 -0.16650784 0.17787282 0.26033467 -0.13385162 -0.22805214 -0.16724305 0.30197978 -0.20706177 -0.37163657 0.30493206 0.07823353 0.017857304 -0.041177943 -0.40702394 -0.14556395 -0.30724636 0.0041630575 -0.29669803 0.026318982 0.011230852 -0.13917436 -0.046495464 0.21342057 0.32709366 -0.14925317 0.34255207 -0.35501105 -0.080887444 0.36412948 0.14987119 -0.31429124 0.17307377 -0.10907826 -0.20416006 -0.05338762 -0.095970884 0.19969484 0.27891967 -0.22875103 0.32471815 -0.24726705 -0.13245587 -0.14576273 0.22914164 0.0072711 0.116728574 -0.28452528 0.16103928 0.03670977 0.050346535 -0.09971488 0.18080735 0.28501067 -0.044627372 0.22351669 0.1116314 0.33274043 0.119142935 -0.39374167 0.19214414 0.17229617 -0.41007513 0.39475462 0.19761008 0.027563473 -0.444788 0.3483916 -0.1275326 -0.16608743 0.026521865 -0.2899282 0.3284999 -0.07082414 0.1940976 -0.09080543 0.21673219 0.09992548
('가','Josa') -0.254838 -0.004946963 -0.049607784 0.14651619 -0.45100898 -0.22680119 -0.30304608 0.13098592 -0.08347377 -0.21136205 -0.1123499 0.39357594 -0.043908607 -0.3540323 0.29832563 -0.45394582 0.22187439 0.45295775 -0.38057694 0.07261721 0.14663821 0.010820944 -0.053488486 0.06311735 0.50017935 0.107878864 0.09658523 -0.41205648 -0.052444514 0.27881885 0.1583851 0.080926426 -0.046736073 0.104204364 -0.09780121 -0.3908773 0.46809343 0.22586371 -0.16395499 -0.03344702 0.02834237 0.3131002 0.20060374 -0.15408516 -0.27326977 0.32644334 0.15280782 0.41547465 -0.20870751 -0.055457097 -0.022124514 0.13555504 0.36494842 0.10836382 0.13505366 -0.30562606 0.43117774 0.34224835 0.18524374 -0.118243024 0.21653803 0.73602176 -0.13998938 0.27239695 -0.18196353 -0.4766052 -0.37174276 0.15223595 0.12306739 0.019785615 0.34393674 -0.21871145 -0.27881095 0.3423193 0.14895383 0.675985 0.29137307 -0.0300908 -0.1325471 0.28009465 -0.02988975 -0.49267715 0.05057217 -0.53970695 0.3353687 0.3186565 0.0881905 -0.29675242 -0.110156916 0.42075688 -0.50403184 0.4539789 0.05331828 -0.14637604 0.02668493 0.32320073 -0.1519108 -0.053899374 0.16061445 0.191963 0.21271025 0.0858414 0.07318552 -0.3020771 0.041957136 0.014875216 -0.001078909 0.1462696 0.18488958 0.11787972 0.17986579 0.20462495 0.09806469 -0.12389537 0.37052426 -0.6763519 -0.22847557 0.39819705 0.45592415 0.44884425 0.08128445 -0.040830407 0.1911044 0.58026737 0.22206657 0.41462973 0.31553683 -0.086604096 -0.025532147 0.2985665 0.3224603 0.29287773 -0.37155846 -0.3837415 0.041031092 0.14648119 0.036481723 -0.58266294 -0.1122839 0.1937886 -0.20598903 -0.4681585 0.107284516 -0.08626459 0.29408264 -0.34441695 0.3128752 0.47500935 0.19571277 0.41370815
('도','Josa') 0.16401324 -0.33298206 -0.16451535 -0.67772424 0.17076275 0.21940555 -0.005460858 0.58779186 -0.04694067 -0.6077529 0.44355285 -0.086498745 0.015728328 0.3127786 0.60565037 -0.26671776 0.12178368 -0.03017131 0.49960098 0.51742756 -0.2276775 0.2342356 0.25826702 -0.21167316 0.761321 -0.4958872 -0.080935575 0.20044404 0.45466068 0.6015565 0.25027004 0.26821575 0.10703657 -0.023736058 0.018152172 -0.55600244 0.18740475 -0.09506742 -0.11383866 -0.1827305 -0.16846828 -0.17260556 0.5230755 0.13971189 0.37890795 0.17277497 -0.067720205 0.11623427 -0.5236964 -0.15303081 0.043885097 0.11749978 0.49429366 -0.006796963 0.11450456 0.09920664 0.38534614 0.40346855 -0.68570906 0.16107157 -0.060833186 -0.49214962 0.23810859 0.23716311 -0.26778135 -0.07874372 0.18290944 -0.23846784 0.23000424 0.37821528 -0.04093656 -0.21828198 0.124893546 0.19357172 -0.12609087 -0.18390046 0.28011262 -0.18373172 -0.19163215 0.40896338 0.34289265 -0.27314138 0.29036793 -0.104615316 -0.25808305 0.22908911 0.5010256 -0.43785867 0.05785862 -0.07351018 0.24360451 -0.31610224 -0.030467575 0.089043334 -0.7272325 0.5608465 -0.27814758 0.43074194 0.04963965 0.39980415 -0.39421862 0.17581883 -0.28135583 -0.3555231 0.0800747 -0.025881248 0.24936193 0.3630859 0.18996562 0.06880365 0.0029700818 -0.13181727 0.14158687 -0.029560464 -0.19337563 0.052388955 -0.43689296 -0.12129639 -0.027336225 0.070798814 -0.026936602 0.12445403 -0.4936172 -0.5749119 -0.028952781 -0.0060449643 -0.26895013 0.04720451 -0.028379261 -0.25033736 0.28374285 -0.5326548 -0.108084664 -0.39342895 -0.23211922 0.16020769 -0.22867319 0.39690864 -0.7164247 -0.54112273 0.32139096 -0.05387367 0.0022413628 -0.42486405 0.33542976 0.20646372 -0.08213926 0.017801568 -0.27503437 0.12284633
('를','Josa') 0.48161194 0.067953914 0.20705993 -0.4785372 -0.049647935 -0.2985003 -0.4813097 -0.093800485 -0.48923644 -0.3409446 -0.24693076 0.22028205 -0.31997904 0.44611302 -0.445914 -0.45940587 0.3077411 -0.3779907 0.3366673 -0.5866336 -0.24337837 -0.15310487 -0.1885934 -0.2977312 0.69818056 -0.36492142 -0.059814513 -0.24570711 -0.49107826 -0.5067409 -0.13608399 -0.42424622 0.28669888 -0.408225 0.047209095 -0.12300406 -0.39067575 -0.28303096 0.15954101 -0.64065427 -0.21421428 -0.24026757 0.12919496 0.20680602 -0.18678072 0.2562451 0.39536953 0.5992531 0.113130994 0.29170954 0.11804196 -0.12620263 0.023858096 -0.42131928 0.39084545 -0.42866433 -0.53395194 0.2631951 -0.33402106 -0.5325289 -0.52208865 0.31485066 -0.1130369 -0.19430444 -0.2900685 0.13679004 0.42011157 0.57210547 -0.15282115 0.26670575 0.69733226 0.2104587 0.36271894 -0.37309283 0.23939496 0.56797177 -0.4168285 0.26934206 0.22143634 -0.24854885 -0.38904554 -0.406403 0.03532405 0.17520034 -0.559787 -0.42239872 -0.2264293 -0.38298538 0.122199096 -0.15000355 0.3063544 -0.25458777 -0.22256994 -0.11965902 -0.36684027 0.36231962 0.21726307 -0.018935552 -0.5361761 -0.17580521 0.48505557 0.6292252 -0.05802639 -0.49804482 -0.54376376 -0.33470878 0.14259721 -0.15852682 -0.0605593 -0.45714313 0.3732552 -0.22884314 -0.020221496 -0.14595273 0.25875977 0.13511267 0.279525 0.12529895 -0.86644477 -0.21150258 0.0464087 0.22758575 -0.08770001 -0.25449458 -0.3458677 0.46510935 0.046425484 0.029588796 -0.22832794 -0.23513462 -0.1557202 0.118323974 0.4427049 -0.09632981 0.42703998 0.06704198 0.1978173 -0.13493536 -0.101811126 -0.7091991 -0.18487161 -0.09490037 0.75077647 0.06794451 -0.20417042 0.15225443 0.11061401 0.24246942 0.044668425 0.040576525
('은','Josa') -0.00653405 0.061820228 -0.033197787 0.12384524 -0.07378284 0.015613261 -0.19270468 0.23477526 0.4614092 0.17302121 0.023540147 -0.6416973 -0.43750554 0.31153637 -0.0008318445 -0.4671991 0.38698947 -0.024574736 0.06391268 0.026909472 0.23910493 -0.31689757 -0.35322002 -0.47972062 -0.3818504 0.013323287 -0.02366071 0.40906376 -0.04085517 0.29062456 -0.14439945 -0.30706808 0.2354113 -0.32247573 0.08268922 -0.12355975 -0.025033845 0.031652458 -0.13269277 -0.47275797 -0.110824406 -0.3181516 0.06262576 0.005037224 0.1374456 0.17162348 -0.06804407 -0.08133391 0.42882988 -0.35542703 -0.42707074 -0.23767689 0.2719959 0.24506454 0.38401386 -0.34739873 0.34938586 -0.13803248 0.08395961 -0.4601758 0.14907661 0.03844449 0.15730418 -0.37196448 -0.0853389 -0.46928138 0.17400368 -0.36048418 0.27680686 -0.55591774 -0.13314734 0.14014733 -0.30936933 -0.23701876 0.39886343 -0.37484574 0.106325224 -0.050558098 0.25499412 0.39813802 -0.4455841 -0.26877752 0.12295095 -0.44199815 0.19541122 0.47144207 0.35348096 -0.27055663 -0.24442747 -0.45691505 0.074483804 -0.2051688 -0.14818889 -0.21329044 -0.53864855 -0.057217497 0.23086943 -0.14859498 0.05285357 -0.19958965 -0.329878 0.46025956 0.3062617 0.07252217 0.18573236 0.43881983 0.14931896 -0.05879096 -0.28662622 0.38856372 0.04525082 -0.19912215 -0.57797337 -0.14677015 0.299124 -0.13006969 0.14082599 0.21765387 0.26592094 0.22112899 0.45228276 0.39936155 -0.15465051 -0.504139 0.0075844247 0.092811674 0.16119303 0.2163471 -0.004269488 0.056915194 0.27461115 -0.22601952 0.56968844 0.3857129 -0.20171131 0.3091809 -0.17212443 0.32281837 -0.30579722 -0.3426676 -0.20235401 -0.44925115 0.33045396 -0.5706902 0.35653993 -0.16798404 0.7518456 0.4996634 0.24780272 -0.1367552
('는','Josa') 0.27536815 -0.41308033 -0.043680888 0.05693336 -0.11435253 -0.009592347 0.4431909 0.010030917 0.13977699 -0.11852325 0.73655844 -0.31194997 -0.037106764 0.20868199 -0.045641515 -0.58806944 0.19919601 0.4115146 -0.06874114 0.39744475 0.360113 0.78597987 -0.02511246 -0.09372783 -0.07519664 -0.06648481 0.08463368 -0.049564485 -0.39310816 -0.07570075 0.040694006 0.41756305 -0.20072082 -0.09717936 -0.42636508 0.0047487845 0.37526336 -0.2688633 0.41413963 0.072498694 0.49644235 -0.22987048 -0.018707061 0.04792818 0.48856226 -0.15018639 0.4671406 -0.23947076 0.55472326 -0.20885767 0.33817163 0.23272845 0.32989007 -0.1088959 -0.3269648 -0.004319206 0.22884025 0.56291336 -0.09865322 0.20814899 0.41956624 -0.009652403 0.039526176 0.24172786 -0.04229369 0.40708748 -0.18866056 -0.04800971 0.02187116 -0.17366198 -0.064345025 -0.30989373 0.45065132 0.47130346 0.07338019 -0.12141349 0.2899301 -0.75758684 -0.49042225 0.09435262 0.1043961 -0.27225175 0.35364044 -0.81866527 0.044187814 0.4475421 -0.4848153 0.0018721614 0.07331819 0.3816259 0.26841325 0.0034339968 -0.00034585618 -0.3838317 0.10933424 0.709252 0.38734108 -0.4371133 0.20551784 0.1857993 0.18267126 0.41941822 0.09094716 0.633659 -0.194009 0.35195115 -0.36608618 0.41370806 0.3281183 0.46426967 -0.25217614 0.38954598 -0.00012227404 -0.124589525 0.13869995 0.29096708 -0.07699783 -0.13003083 -0.022569513 0.3291386 -0.18059805 0.1862478 -0.18757862 -0.12614986 0.32503122 0.23689024 0.21499363 -0.10791655 -0.586624 -0.21428744 0.05729 -0.6096345 0.2693732 -0.4134983 -0.3162267 0.10430934 0.5169151 0.012105919 -0.23882695 0.30532417 0.2543998 0.24633008 0.12315961 -0.0037993086 0.31753197 -0.19611886 -0.4207282 -0.5708209 0.13381964 -0.1656802
('수업','Noun') -0.14194295 -0.059954874 0.4232301 0.4814296 0.5031012 -0.49445078 0.41665757 -0.57142836 -0.27830642 -0.53844994 0.53696287 0.6814218 0.5624071 -0.34609815 -0.5230145 -0.17317942 -0.019197686 -0.052233722 0.17257078 -0.4534136 -0.1696007 0.015070101 0.3770875 -0.08137106 -0.03607186 0.15683547 0.31748006 -0.47764015 -0.14532453 -0.048311397 -0.5646609 0.07946587 0.3022617 -0.35276607 -0.6363004 -0.22862516 -0.11754135 0.41015303 0.39603615 -0.45790535 -0.123946995 -0.6185401 -0.5722834 0.30872488 0.052069217 -0.45578563 0.26966637 0.16076188 -0.03201391 -0.06998391 -0.39632303 0.21326588 -0.7763964 -0.19897315 0.47922543 0.3002561 0.0023164507 -0.15105341 -0.19467929 0.44839588 -0.16062832 -0.028930487 -0.6706518 0.0736362 0.3726701 0.36018327 -0.24382359 0.25160986 0.37128142 -0.039150324 0.23487441 -0.3105695 0.29700673 -0.37989205 -0.0018970441 -0.3859639 -0.23277739 0.16623783 -0.5551737 -0.21578425 -0.41461298 0.24036846 0.24836826 0.149327 -0.7514858 0.13048188 -0.38977382 -0.22722766 0.27922696 -0.43604127 -0.5401248 0.16260041 0.28414357 -0.51835096 -0.18190669 -0.25344962 -0.000257624 -0.3612175 -0.2650563 -0.27719486 0.23922521 -0.10039072 0.10785058 0.0945682 -0.68486655 0.036721535 0.88305676 0.3395197 0.51816326 -0.3343901 0.33967066 0.24639808 -0.282153 -0.84596074 -0.5160259 0.0052330988 0.6035925 -0.040338576 0.3042343 -0.009424025 0.14078082 0.12560762 -0.03502166 -0.38912955 0.0845978 -0.2361145 -0.10834986 0.495215 0.10371218 -0.14957456 0.14149326 0.40118104 -0.3586891 0.48334876 0.28431895 -0.3884941 -0.007720768 0.39741364 0.31978992 -0.2972593 -0.5315037 0.14771998 0.08822663 0.22446 0.5187947 -0.49238434 0.2212525 0.15595214 0.20490532 0.1649536
('님','Suffix') 0.83773255 -0.52041507 0.56489754 -0.319514 0.79806197 0.90402997 -0.4191294 -0.11624554 -0.006651825 0.24939558 -0.017854787 0.16786803 -0.08487111 -0.5410407 1.0761609 0.045150366 -0.52420217 -0.56132215 -0.47495714 0.3052159 -0.059345677 0.33029854 0.36614874 -0.010073964 -0.37037495 0.2901124 -0.52646995 0.6102876 0.45314372 0.02156287 0.9069829 -0.18516271 -0.24758415 -0.46073157 0.29996127 0.5659785 -0.05808863 0.8139777 0.1660662 0.40124 -0.69933534 0.42835617 0.14692454 -0.14714983 0.42037916 0.047685616 0.45612553 -0.3585662 0.08768823 -0.21588022 -0.54838055 0.059504937 -0.43199715 -0.21175602 -0.6310849 0.60479367 0.46037 -0.06328116 -0.6067009 0.33799866 -0.10414497 -0.08838634 -0.11792373 -0.23049113 0.16606897 0.051005915 0.07578062 -0.31419253 -0.4847137 0.12151256 -0.41619208 0.46223712 0.48807043 0.07296792 -0.23328343 -0.06285571 -0.62180364 -0.43380043 0.03137919 0.47168517 0.023623211 -0.2986 0.43051958 -0.19683093 0.4273953 0.4198638 -0.16908059 0.22533418 -0.72766846 0.6010855 0.14506574 -0.6683255 0.63485014 0.22438383 -0.4126555 -0.06026992 0.6710747 -0.27998224 -0.39653584 0.056665685 0.29975164 0.1626054 -1.0584558 0.3957481 -0.5239593 -0.20644012 0.75253433 -0.28802028 -0.07152993 -0.09133073 0.26652735 0.27401802 0.38330057 0.53480434 -0.55627567 0.24844706 0.36959255 0.23803711 0.27781075 0.636947 0.2847217 0.43433467 -0.07639012 -0.18514441 0.31808472 -0.6624828 -0.004512592 0.9184628 -0.6474994 -0.25850698 -0.1514593 -0.28352025 0.3951175 0.023936415 0.1353866 -0.65946734 -0.27868712 0.502584 -0.11366172 0.7861007 -0.46122646 0.38755676 0.23522392 -0.31226218 0.25204653 -0.4118119 0.42998037 0.15580618 -0.3484486 -0.10968164
('의','Josa') 0.09484869 0.62615764 0.024125664 0.56879354 -0.31227905 0.12169665 0.5615669 0.24028242 0.7971588 -0.64584655 -0.548957 -0.4378568 -0.65246236 0.22134477 -0.49106544 0.046807803 0.10735535 -0.029240284 0.120763145 -0.10120268 -0.24920274 0.11438263 0.3929545 -0.33620766 -0.38373062 0.06593951 -0.5638265 0.29463723 0.24027592 -0.4837714 0.6794938 0.26219472 -0.58504665 -0.5108639 -0.048651733 0.38973606 0.28913033 0.28565618 -0.15427077 0.10825821 -0.7514722 0.7040358 0.036375724 -0.49942026 0.12632227 0.76727945 -0.44455948 0.04387145 0.40004125 -0.5361386 -0.054088123 -0.17946778 0.36530066 -0.16717023 0.6568174 -0.40252167 0.47032902 0.48574656 0.3898353 -0.24219008 0.51600325 0.5575294 -0.69438285 0.90588623 -0.075100966 -0.1637023 0.21971045 -0.5388264 -0.0799176 0.32763243 0.7008814 -0.026189432 0.6573805 0.17569333 0.48590052 -0.31254125 0.8225967 0.5678774 -0.6683261 0.19556202 0.20848185 0.11572893 0.4538993 -0.16419217 -0.19067177 -0.0012801447 -0.7475247 -0.36232468 -0.34170374 -0.8090033 0.13369516 -0.23471786 -0.25162894 0.3943328 -0.019218076 -0.32466567 0.29700005 0.30873725 0.19460498 0.5062657 0.2566374 0.43426824 0.14522977 1.1570637 0.1588624 -0.06624943 -0.9177142 0.55314076 0.47251004 0.66010565 -0.9502576 -0.7423327 -0.117132306 0.07461256 -0.5247554 0.060118727 0.38230038 -0.21353517 -0.39801425 0.5247022 -0.21439636 0.2465966 0.2989237 -0.21787502 0.21991733 -0.55916125 -0.8553426 0.376092 0.42189696 0.10680128 0.61825794 0.58163244 0.28403053 0.2634616 0.45849773 -0.4746086 -0.87837124 -0.2931697 0.66964334 0.46973297 0.22346798 0.23828803 0.5695897 0.5182706 -0.31528258 0.46110162 0.524857 -0.32882547 -0.08047247 0.1374933
('들','Suffix') 0.39174756 0.92333627 -0.6334233 0.5219477 -0.1285583 0.5352682 -0.49045825 -0.095690295 0.55336726 -0.33439562 0.35368842 -0.047071755 0.23280302 -0.53736395 0.196677 -0.94599086 -0.92295766 -0.20349228 0.017078497 -0.7184914 0.41139567 -0.26911 -0.29883397 0.21906616 0.5854553 -0.56615937 0.06369454 0.053859685 -0.6430247 0.41260496 0.6856276 0.16135688 0.43149173 0.8140583 -0.09523704 0.28641546 0.5278738 0.71082723 -0.17666534 0.75060236 -0.3097612 0.19905643 0.6158519 -0.26786295 0.32772994 -0.28679526 0.9008723 -0.16085128 -0.26833802 0.5897031 0.7113685 -0.0015130236 -0.12375655 -0.620597 0.5229576 -0.39136136 -0.15507291 0.4090088 -0.28009364 0.09348936 0.59743875 0.13468772 0.29301548 -0.25629446 -0.3089462 0.3955905 -0.5929964 -0.38610935 -0.5245715 0.19198936 0.15070358 0.15416008 -0.0027149306 -0.41775328 0.47005165 0.26372936 0.5235693 -0.019288268 -0.51640636 0.33192202 -0.5431761 0.33237264 -0.48973334 0.082127795 -0.36144167 -0.30382523 0.43878984 -0.55895555 -0.6966197 -0.015848765 0.34309468 0.4273964 -0.15903252 0.1446139 0.0556025 0.55305934 0.18250157 0.17999128 0.20090953 0.44805154 -0.030949712 0.84288466 -0.89510465 -0.26269472 0.17439559 -0.3719727 0.5833742 0.77044195 0.31670678 0.0007143039 -0.55610096 -0.66239196 0.500903 0.42478356 -0.44222638 -0.013141546 0.29469505 -0.06565888 -0.44074237 0.62338024 -0.44466227 -0.6990425 0.49168548 0.16557616 0.47031277 -0.03993257 0.5998582 -0.14727463 -0.41453433 -0.4657544 -0.40882638 0.5258725 0.06959746 -0.62020713 0.6627179 -0.23472512 -0.09617193 -0.09871211 -0.5509444 0.66874933 0.5716352 -0.19388475 0.3363833 -0.3692935 0.5574583 0.42769042 0.26405507 0.8669762 -0.2081328 0.01573479
('로','Josa') -0.32346225 -0.17313111 0.7609066 0.646544 0.90126896 -0.23666897 0.3046118 0.6964001 -0.46593684 -0.39802048 0.86745065 0.234553 -0.48097005 -0.39046434 0.15109149 -0.57116383 0.2667572 -0.42427003 -0.46642208 -0.13530241 -0.3196774 -0.6291549 0.0007842276 -0.41063118 0.18454833 0.032595366 0.003983622 0.0003358235 -0.488134 -0.28297523 -0.67582375 0.222899 0.7119622 0.7385795 0.41984016 -0.24076144 0.95679194 -0.57014227 0.71562946 0.019802455 -0.6987946 0.70040864 0.45123902 0.19304769 0.08640193 -0.410582 0.8333306 0.6692492 0.12701128 0.11804924 0.33877036 0.6069679 0.31321138 0.10759494 -0.5430071 0.008311119 0.33132368 0.015254599 -0.7780097 -0.7085701 0.26848394 0.6420315 0.0031817537 -0.09510665 -0.23104528 0.61675584 0.4826508 -0.30121318 0.58296484 0.59808743 -0.16308065 -0.3226627 -0.023647238 0.8571539 -0.17311461 -0.33622178 0.074462675 0.48168007 -0.18466482 -0.72994304 0.2912094 -0.3773469 0.39716282 -0.114052355 0.20715971 -0.48983213 0.59072745 0.6557715 -0.019011747 -0.5610677 -0.5876625 -0.35183638 0.28411064 -0.42701584 -0.6921402 -0.5532626 -0.6652506 0.36412483 -0.29311955 -0.1571637 -0.07233295 0.7789251 -0.2400351 -0.19802716 -0.18988717 0.18002525 -0.63667274 0.05602677 -0.7651875 0.124048315 -0.4079779 -0.75315547 0.078043714 -0.12796034 0.22391786 0.094084024 0.68428457 0.43640012 0.5357406 0.48237377 0.34361002 0.25208813 -0.42004707 0.08238893 -0.51801145 -0.28592768 -0.9944297 -0.12316887 -0.40721694 -0.8938031 -0.7936798 0.06115869 -0.36605853 -0.10290515 0.7840696 -0.07787477 -0.6872957 0.020164665 -0.3561833 -0.4868844 0.2652017 -0.16826887 -0.048070386 0.5479995 0.04150656 -0.16326274 0.3313068 -0.28849113 -0.13932964 -0.23190644
('것','Noun') -0.14162403 0.23717684 0.28832304 0.5238476 0.21015783 -0.28333643 -0.30056852 0.046083026 -0.13510145 -0.32756782 -0.021703446 -0.34884626 -0.1875231 -0.92997354 0.066670716 -0.39610586 0.31988814 0.3399249 0.6065204 -0.42601326 0.22143415 -0.8418132 0.12857297 -0.0024863717 -0.39017227 0.56051344 0.35104212 -0.31825778 0.21968909 -9.3726325e-05 -0.86070114 -0.31935245 0.31934887 -0.26605037 -0.22904295 -0.25166535 -0.09001683 -0.7102455 0.589993 0.53304136 0.323815 -0.36572704 -0.40765762 -0.6952022 -0.31276038 0.3246831 -0.12861672 0.32540575 -0.22466357 -0.52311057 0.53690743 0.38925546 0.25725418 -0.22769001 0.93597555 -0.18363532 -0.6779839 -0.4154664 -0.1439133 -0.2963351 0.41222945 -0.5330658 -0.11960282 -0.066586114 0.3966591 -0.22126515 -0.1900692 0.18101525 -0.76770645 0.1877815 0.44597867 -0.24259584 0.27869487 0.45203167 0.26820582 -0.1882554 -0.51080185 0.34955513 0.019800022 0.07439921 0.42119595 0.6462381 0.2526765 0.3762881 0.38033834 -0.24409728 -0.6957071 -0.44803894 0.25095016 -0.30733562 -0.30131236 -0.292142 -0.39157024 0.16134834 -0.36704957 0.11239848 -0.0076764184 0.16544428 -0.56074643 0.24443929 0.63990915 0.20230232 0.7454583 -0.48117644 -0.09742005 -0.24353316 0.19299307 0.27399024 0.92791855 -0.034344967 0.14173368 0.7398679 -0.3224965 -0.14853145 -0.7826812 -0.44572955 0.66658074 -0.043818235 0.3158966 0.2891718 0.11525883 -0.39545795 -0.46715766 0.63864875 -0.09207857 -0.26821274 -0.26122567 0.28244123 1.0281714 -0.60929674 0.18821286 0.3932258 0.29741052 0.4989209 0.5882294 -0.21437167 -0.54917026 -0.4642727 -0.7283718 0.11165357 0.32589656 0.4217409 -0.26808992 0.4529957 0.3949895 -0.9243328 0.0588144 0.6215477 0.2446409 0.5136553
('강의','Noun') -0.9752907 -0.11928002 0.36984408 0.1291995 0.06508762 0.19031975 0.5100375 0.27661344 -0.41450542 -0.17181468 -0.5524013 0.24128075 0.27856287 -0.12723728 0.106019266 -0.03503989 -0.14883906 -1.1016837 -0.097662635 0.62011087 0.15241787 0.1687464 -0.29995573 -0.7105636 0.40809917 -0.668401 0.10179604 -0.46539712 0.18591349 -0.95277417 -0.13564023 -0.3534632 0.3068739 -0.69085884 -0.5143079 0.33385223 0.1694466 0.2794006 0.3904774 0.11292445 -0.9869822 0.20037036 0.5675977 0.36216682 -0.37707433 -0.4440972 -0.49803218 -0.033078823 -0.07356849 0.14594346 -0.0057959193 0.036374334 -0.38682076 -0.5647385 -0.14776878 0.65130734 0.12552942 -0.4890775 -0.65156937 0.49550506 0.7339869 -0.25611514 0.2906522 0.30082723 0.37345937 -0.8128903 -0.6046819 0.64162505 -0.21402748 -0.30683365 -0.5927571 0.18012787 0.19136779 -0.3366676 -0.069914795 0.24907741 0.6480595 0.25291616 0.013114471 -1.0444313 -0.8183233 0.07497951 -0.13829921 0.30613676 0.6109956 0.5762988 -0.48019883 0.03172769 0.89831114 -0.052625183 -0.457548 0.6233025 0.3962153 0.5615934 -0.13758226 -0.84653735 -0.5357853 0.09379093 -0.59196246 -0.104090765 0.19164465 -0.28985912 0.6562256 -0.073533 -0.5650668 -0.4580807 0.9065848 -0.20723969 0.4517871 0.6349014 0.19313261 -0.26328257 -0.31212404 -0.0717945 -0.4751059 -0.11010607 -0.17329597 -0.59159315 -0.61636746 -0.23415488 -0.7556123 -0.44618097 -0.40808743 0.069921575 0.34278175 -0.40397128 -0.27673456 -0.034596145 -0.25235724 0.07630141 0.46636662 -0.2053214 -0.8543981 0.020981027 0.26904628 -0.3201524 -0.76377994 -0.35291743 -0.5243197 0.006998025 -0.15388454 -0.56913424 0.05375431 -0.30214489 0.630656 -0.32965475 0.41286144 0.31748998 0.8997704 -0.2905571
('으로','Josa') 0.2177905 -0.69952357 -0.6532556 0.8092487 -0.5593041 -0.19071795 0.6623677 -0.68113685 -0.4967737 0.785555 -0.1945257 0.3845419 0.1792339 0.21268061 0.49692327 0.52870977 0.79368037 0.47613564 0.1394447 -0.35865104 0.6465601 0.03003782 0.15290304 -0.011178421 -0.29298416 0.27235153 0.24158452 -0.33226648 0.5385516 -0.21058601 -0.15882726 0.5176828 -0.19968812 -0.49834096 0.6719544 -0.6297161 -0.62798464 -0.66893655 0.2893561 0.69655144 -0.46163017 -0.32749662 0.48010296 -0.07311985 0.16418704 0.34902167 -0.5320354 0.089820184 0.91904414 -1.0435756 0.16163355 0.25221077 -0.63003266 0.5055731 -0.487772 -0.035295535 -0.45370913 -0.39556536 0.15470602 0.28641132 0.5415663 0.0004014312 0.39286378 0.53242046 0.1746878 -0.6278038 -0.09208137 -0.6442202 0.24232878 -0.4106856 0.0011556742 -0.6893706 0.766042 0.09003216 -0.2767416 -0.5418212 -0.44386303 -0.69381905 0.4320597 0.14024936 -0.6402027 0.57912314 -0.06758277 -0.24296528 -0.6024504 -0.18622524 0.6794909 -0.4667809 -0.23404266 0.043303136 0.4403332 -0.637936 0.19971256 -0.28688937 -0.70279396 -0.81684226 -0.1761329 0.34575677 -0.76710206 -0.5014576 -0.6900196 0.035795517 -0.10284116 0.50553226 0.24149287 0.076488584 0.6867166 0.9043187 0.8943179 -0.01695447 0.1289776 -0.17400764 -0.8040671 -0.5422888 -0.71540177 0.41653803 0.19299679 0.35305393 -0.61294496 0.2889101 -0.01591239 -0.36927977 -0.5321361 -0.53883904 -0.3115409 0.46903464 -0.70455056 0.105245054 -0.0040544346 0.26020578 0.09711993 0.5429768 -0.36244842 -0.32508507 -0.13872856 -0.7105027 0.8030005 0.16233116 -0.019024236 0.7076871 -0.7426892 -0.43622142 0.36458215 0.4637955 -0.31097734 -0.30644432 0.29904333 -0.34619418 -0.025138253 -0.00258598
('문제','Noun') -0.19066824 -0.51684797 -0.06913727 0.18728735 0.031303182 -0.63266057 0.34953684 -0.530836 0.23501296 0.11440121 -0.2601588 0.11627509 -0.13462323 0.41199496 -0.44822213 0.1466503 0.9722258 0.20557308 -0.24806048 -0.553403 -0.23392814 0.1544323 0.44361904 0.45268977 -0.46062133 0.22194514 -0.47334874 -0.15014389 -0.39401555 -0.74339145 -0.49402937 -0.054164797 0.5077843 0.31359702 -0.42450908 0.3689626 -0.47444743 0.30093864 -0.028458733 0.7448117 -0.34965467 0.13978489 -0.70265377 -0.35915413 -0.41115043 -0.6574667 0.28118432 0.8277456 0.39626148 -0.5749073 0.5491475 0.37527218 -0.5185138 0.12002977 0.35157144 0.857431 -0.6987402 0.66518825 0.27118415 0.5343391 0.67904305 0.38966125 -0.6641461 0.107126296 0.42244917 0.20350027 0.76144135 0.19330904 -0.28655338 0.12255607 0.29698995 -0.10650494 0.25483248 -0.4158999 -0.6993644 -0.59834594 0.12792072 -0.67159945 0.71149504 0.3533275 -0.4511834 0.60624295 0.21168618 0.86626124 -0.056329194 -0.3617045 0.69612825 0.25109652 0.7340381 -0.85311073 0.08713256 0.70249987 -0.48596635 0.26257804 -0.023443857 -0.8253922 -0.28555155 0.15738086 -0.784546 0.44225597 -0.16707604 -0.34985957 0.4271964 -0.706288 0.40363017 -0.6711893 0.04774249 0.049961917 1.0254167 0.0083222315 0.43261698 -0.12400203 -0.22176011 -0.4167271 -1.316669 -0.768135 -0.2695634 -0.669281 -0.088454366 0.09166926 0.46714202 -0.09918848 -0.15962316 0.46693468 -0.38646972 -0.29167628 0.2595279 -0.26784042 0.75648546 -0.9712323 1.0150208 0.33681104 -0.43007278 0.62394613 1.0169963 0.14003256 -0.26378578 -0.07704484 0.25061902 0.25543496 0.35173112 0.31056044 -0.03574849 -0.22090058 0.04745164 0.09342564 0.15939376 -0.33681974 -0.38134447 -0.2150135
('학생','Noun') 0.34207192 -0.73180646 0.37569806 1.014058 -0.099526465 -0.34093902 0.24331126 -0.3490006 -0.8249538 0.40382522 -0.32673603 -0.15802796 0.083675146 -0.47282934 -0.6540554 0.66433793 0.799611 0.20573488 0.5645911 0.3188763 0.20825297 0.2973595 -0.10560177 -0.28880927 0.76709074 0.35155675 -0.13668297 0.044470977 0.5042036 -0.31708115 -0.9465271 -0.21711622 -0.2904211 0.12315787 -0.20830566 -0.5654632 0.7615817 -0.17648396 0.25165603 -1.058433 -0.20232117 -0.29282686 -0.3422926 0.008344072 0.12758854 0.08383718 0.3328216 -0.59322625 0.69044256 0.25081423 0.043982897 -0.37495485 -0.5734475 0.03039917 0.3061633 0.16125743 0.83664143 -0.5625037 -0.38291717 0.48459226 0.57901907 -0.88759303 0.53054863 -0.3875281 0.22465733 -0.20448428 -0.4678529 -0.4355593 -0.22303952 -0.22914116 -0.08953725 0.1681128 1.0468984 0.17802471 -1.0396407 0.59379786 0.5045917 -0.60624003 0.18977866 -0.5324676 0.46451294 0.41004932 0.4855139 0.29709464 0.66296065 0.21734661 0.3359426 -0.30966493 -0.051856156 0.38796422 0.27877983 0.9209888 0.6006551 0.4015753 0.085230574 -0.35395116 -0.044433586 -0.9586975 -0.427043 0.80215985 -0.34972295 -0.5474051 0.873253 -0.5649264 -0.2415013 0.0011001611 1.0050383 -0.692831 0.51824504 -0.49587506 -0.10408509 0.03948899 -0.57236314 -1.4265525 0.3238163 0.41586018 -0.35752708 0.124498434 -0.33660963 0.30332035 0.12899986 0.6082802 -1.0034517 0.25605452 0.14742413 -0.14620411 -0.99214345 -0.0034810093 0.38306373 0.51791537 1.0698323 0.57228786 0.5829075 0.3165438 -0.29459804 -0.5928172 -0.4361946 -0.53456193 0.48473164 -0.61609447 -0.60022783 0.3307389 0.37427798 -0.62206006 -0.2632952 -0.82497746 0.15326187 -0.2937626 0.977326 -0.43877852
('교수','Noun') -1.0493466 0.27308398 -0.33847687 0.74378055 -0.6040388 -0.6350027 0.02972255 -0.36459482 -0.19339637 -0.5873058 0.41941476 0.5403911 0.98953944 -0.18328881 -0.62916446 -0.41313508 0.62009424 0.21460654 0.7682086 -0.16766818 -0.048326883 -0.8862939 -0.41481155 0.05627981 0.64213896 0.009417875 0.6674919 -0.32979736 -0.695963 -0.8095699 -0.22242253 0.25047985 -0.048673794 0.56126946 -0.4594039 -0.14565927 0.06432161 -0.39206004 0.47968698 -0.8379108 0.04727694 0.3869452 0.3840175 -0.6241237 0.14978267 -0.42227852 -0.55222034 0.64722157 -0.17787237 -0.6252205 0.74698967 -0.098918654 0.14608528 0.62518245 0.5810865 -0.2103134 -0.47509426 0.21172363 0.37790927 0.15396504 0.87979156 -0.30191374 -0.58957005 0.35046032 -0.50419015 0.0011018054 0.022368282 0.17947796 -0.41280395 -0.71567774 0.55360585 -0.4722067 -0.4468361 0.32307208 0.14499173 0.095198296 0.25488585 0.6838043 0.1789518 -0.34820145 0.055470068 -0.08567724 -0.24071957 -0.23272426 -0.5719528 -0.3082635 0.90831953 -0.31443855 0.73157495 -0.43888998 0.055850696 0.70985943 -0.3982144 -0.5981773 -0.043836523 0.07809302 -0.3356446 -0.27096215 -0.17285907 -0.13330819 0.37581488 -0.4233361 0.8787199 -0.7064744 0.47778141 0.94978046 -0.10137751 0.15639642 0.38319445 0.36998385 -0.29994214 0.11396499 -0.8549682 -1.1447734 0.6561169 0.6463474 -0.4344497 -0.71092844 -0.6472041 -0.52728957 -0.9747978 -0.043665513 -0.39849436 0.12892033 0.7301818 0.6461895 0.16759114 -0.76172894 0.72024804 -0.18813197 0.093818724 0.10022129 -0.7855857 0.47326544 0.022184018 0.17205624 -0.35993424 -0.14495935 -0.06911148 -0.6272841 0.16659296 -0.17259166 -0.43467116 0.5250479 0.20642559 0.22678597 -0.36907613 -0.2706009 0.83825254 0.46126303
('과제','Noun') -0.17675567 -0.6215686 0.54220134 -0.19246836 0.4016099 0.2477581 0.04062605 -0.29111233 0.56448644 0.19760333 0.045684952 -0.103519544 0.75690764 -0.32429412 0.26807368 0.9606042 0.73325235 0.13805509 0.7074362 -0.23314759 0.18319598 -0.19297285 0.4353343 0.12845448 0.49996173 -0.08001912 -0.06641111 0.55923146 -0.19349962 0.13936259 0.029815534 -0.4795127 0.12091375 0.22076876 -0.45316777 0.029126044 0.3757409 -0.3864496 -0.3162377 0.6044595 -0.6673457 -0.10788584 -0.13384427 -0.7311717 0.65821385 -0.6565666 0.5594824 0.050700832 0.4693178 -0.73242253 0.22351065 0.6336009 0.033273265 -0.334175 -0.12921281 0.09026929 -0.075334005 0.14225167 0.5963994 0.35294017 0.8571769 -0.21501704 0.08777324 -0.105120815 -0.44799158 -0.77808344 0.5024947 -0.06637439 -0.109567106 0.2909284 0.09844353 0.2165682 0.34353435 -0.059003938 0.30745134 0.062209252 -0.046285346 0.32146698 -0.67066425 -0.3070584 0.21170035 0.40102792 -0.03667619 -0.68210965 0.0059441263 0.08100681 -0.10553787 -0.9199799 0.70329016 0.27906466 -0.6645855 -0.31546938 0.8053241 0.58778393 0.047925867 0.69661117 -0.34104615 0.7466045 -0.5732065 0.33217812 -0.5535868 -0.55420023 -0.66462046 -0.68356436 0.5243227 -0.15278837 -0.044448014 -0.32919124 0.07869112 -0.34198353 -0.56168604 0.24618132 -0.28017613 0.22080821 -1.0282847 0.099952035 -0.70153445 0.15581653 -0.16761382 0.14992744 -0.016225845 0.06148824 -0.58432615 0.3121075 0.34083983 0.88364446 -0.052227 0.51223195 0.24295713 0.16658078 0.0065830587 0.21230178 -0.0052168085 0.7916467 0.84016097 0.31694838 -0.21177869 0.5402626 -0.88564193 0.8485873 -0.07064792 -0.15162808 -0.04321166 0.074726544 0.7539466 -0.6803611 -0.5001082 0.20547609 0.32139543 -0.43552083
('적','Suffix') -0.48720932 -0.46554816 0.73342 -0.9040954 0.7912046 0.77654314 0.4475983 0.029853433 0.23799075 -0.15568975 -0.21002029 0.40770605 0.23991057 0.74504435 -0.35957238 -0.29392722 0.14573197 0.13992187 0.3144561 -0.24502757 0.33147007 0.9985057 0.7140702 -0.19957088 0.11614217 0.009641974 -0.23775682 0.34800723 -0.074969344 0.28544304 0.8201882 0.7435355 0.4079901 -0.6071848 -0.59186 -0.61945295 0.111915514 -0.246386 0.082459666 0.40116766 0.09198517 0.14138801 -0.5728304 0.3926426 -0.34758127 -0.25288436 0.58724755 0.7664326 -0.95023686 0.93504745 -0.39610976 -0.14594902 0.24514134 -0.118620396 -0.03315525 0.39258176 -0.7829167 0.40109783 0.6409312 -0.67555726 0.48954153 0.80066454 0.07697448 -0.30677843 0.38770255 0.4431526 0.008708077 -0.49166226 0.6925255 0.21381268 0.46232623 0.888129 -0.61346096 -0.7720323 -0.06844149 -0.57152414 -0.4102223 0.4460221 0.46512008 0.1734315 1.062498 0.49497554 0.16815783 -0.76254046 0.35425776 0.308396 -0.5911487 0.72651005 0.09954208 0.43535203 0.032269113 0.15094084 -0.017626932 0.1333723 -0.1539627 0.8957951 0.40139294 0.044152025 0.085473076 0.4624871 -0.5444818 0.15462565 -0.44214165 -0.32752693 0.58006257 -0.65915495 0.26481003 0.094186515 -0.021332776 -0.32085988 0.6725032 0.2738853 -0.6895699 -0.6949305 -0.5582638 -0.8262224 0.98652345 -0.44428623 -0.32768145 0.35703325 -0.46806973 -0.5901454 -0.3399313 -0.37275165 -0.50277627 0.075802475 0.5673378 0.22979292 0.63173634 0.006578574 -0.049559504 0.6922687 -0.07073091 0.7778313 -0.8484239 0.19526857 -0.19997235 -0.4465486 -0.4468502 -0.07166836 0.2713569 0.5793691 0.5611933 -0.2738771 -0.6823096 -0.62056875 0.3141365 0.53845483 0.43741557 -0.6630547
('과목','Noun') -0.877744 -0.60803676 -0.5404231 0.37678164 0.62779856 0.26904482 -0.044864196 0.0225573 -0.8419414 0.026911952 0.28379536 0.21102431 0.47632128 -0.49858093 -0.43700886 0.637964 0.30670992 0.25383416 -0.33288598 0.47588986 -0.09928791 0.04762525 0.26262727 0.2771512 0.43837947 0.035311673 0.51553386 -0.38572136 -0.7448295 -0.54635006 -0.06419306 -0.59319234 -0.54115194 0.09158458 -0.87320894 -0.21098384 0.16904402 -0.7624111 -0.44425684 0.049840536 -0.17772721 0.3038753 -0.24189103 -0.21657361 0.16079007 -0.2350764 -0.4940077 0.53487384 0.38441062 -0.61227286 -0.0524081 -0.31920514 0.2045631 0.36401436 -0.6816716 0.69117165 0.28123736 -0.36704943 -0.37597346 0.06147517 -0.264458 -0.22119345 0.38295227 0.22306444 -0.5888474 -0.90298337 -0.1961199 0.48522276 0.100782625 -0.85610926 -0.30747277 -0.51633894 0.21586056 0.15525721 0.50565463 0.07868767 -0.4258811 -0.6073141 0.5155946 -0.15979066 -0.79284614 -0.13683963 0.80173224 0.69223714 -0.8057951 0.50937384 0.2747504 -0.75304306 -0.042388592 0.5317956 -0.56129557 0.07393381 0.08547246 0.76941574 -0.25023997 -0.09018406 -0.28021467 0.15491451 -0.24700539 0.33351535 0.04775655 0.38741663 0.06532956 -0.7782371 0.068091005 -0.17189679 0.80504817 -0.494225 0.34085047 -0.6480123 0.23563004 0.60123867 -0.90846694 -0.848674 0.17215101 -0.44120657 0.3241445 -0.27588597 -0.4479112 -0.4312057 -0.8069295 0.00510827 -0.54425603 -0.52642155 0.49862576 0.86652726 0.053485632 -0.9863429 -0.2647248 0.26668188 0.81732386 0.2267558 -0.65468407 0.24028194 0.13797295 -0.71381444 -0.7099301 -0.26316226 -0.5779467 0.27586073 -0.014461771 0.17799611 -0.05983316 0.5505135 -0.42704725 -0.0040669767 0.53040814 0.092445076 0.16411301 -0.7134244
('에서','Josa') 0.1844593 -0.78678757 0.70027095 0.6252726 -0.5951776 -0.41223773 -0.7728317 0.26366585 0.68339276 -0.557645 -0.41832894 -0.04520201 0.46742296 0.3823588 -0.29480892 0.115493335 -0.79588336 0.61580133 0.5548964 -0.3081811 0.51770556 0.23012836 0.26603368 0.0638235 -0.75433654 -0.3217122 0.47773206 -0.683179 0.3633417 -0.6879595 -0.14616011 -0.5116082 -0.33289516 -0.6048575 0.2488971 -0.40801844 -0.83082134 -0.32997975 0.6614532 -0.7339709 -0.21129252 -0.301172 -0.2834396 0.3201565 0.5046436 0.12252492 -0.6795987 0.3606398 0.2136437 -0.17667401 -0.6640272 -0.32804754 -0.19153374 -0.04149907 0.05782089 -0.43140075 0.07192935 -0.15911597 -0.33947992 0.045278676 -0.602928 -0.33932993 0.05179984 0.77556187 0.46338397 -0.862632 0.49123454 0.2576858 -0.8078794 0.3744071 0.5360479 -0.14729226 1.0489146 -0.8515558 -0.56204504 -0.7794895 0.20552199 -0.9296711 0.77316886 -0.24299851 0.34351775 -0.5465163 0.6010068 -0.7850648 -0.19989833 -0.38087812 0.1990869 0.41571876 -0.6767571 0.35389397 -0.86952794 -0.8105287 -0.082212575 0.45406812 0.15793061 -0.47208524 0.150899 0.31522545 0.14407541 -0.062436968 0.26100498 -0.18430026 -0.30305436 -0.5651183 -0.08415307 -0.7549604 0.799276 0.09147269 0.06592338 -0.71181434 0.4008773 0.7061278 -0.17430149 -0.25177887 -0.37577042 0.33663574 -0.5600767 0.6904921 -0.22273104 -1.0391759 -0.29286453 -0.78660315 -0.14607772 -0.41123977 -0.22067389 0.6633777 -0.50309324 -0.50522184 0.38167098 0.22078143 -0.8995624 0.3122724 0.0580786 0.40082872 0.4089416 0.058629625 -0.53938806 -0.5263163 0.41540548 0.37294713 0.60308206 -0.34494892 -0.51821023 -0.69903517 0.291419 0.2815558 0.5636145 -0.39344713 -0.50497645 0.32980454
('하는','Verb') 0.077459544 -0.45344183 0.1813624 -0.073361024 -0.505395 0.097773015 0.47611666 0.079054944 -0.41920123 -0.71688294 -0.02638228 0.75081486 0.81105304 0.18205191 -0.43821576 -0.13384175 -0.42228147 0.6181275 -0.31841418 0.39759457 -0.26296863 -0.11545644 -0.76678926 0.57472813 -0.28857216 0.3762887 0.34044737 -0.097980276 0.15880494 0.047724567 -0.8894732 -0.46618184 0.09174151 0.04236787 -0.8922605 -0.2814827 -0.24704815 -0.07197442 -0.47689304 0.5171058 -0.987475 0.6594606 0.28296116 0.043971926 -0.6525792 0.049316704 0.411752 0.44141045 0.6291485 0.047948178 0.18857302 0.5120347 -0.50798774 -0.91180116 0.48297453 0.537194 0.51951116 -0.055913594 -0.03322722 0.60375315 0.52749515 -0.30821487 0.14261988 0.6491216 -0.20933263 0.22970656 0.35483962 -0.6366365 -0.058029607 -0.56615895 0.89377934 0.7346902 -0.23584414 -0.11607346 -0.69293 -0.2978076 -0.27564928 -0.051385533 -0.5388402 -0.60687 0.32461226 0.14815976 -0.11829294 0.62818944 0.41968748 -0.7672132 0.5494666 -0.73114824 0.42271894 0.5967314 0.34578398 0.99760336 -0.35878447 0.4280555 0.36610347 -0.7100363 0.68199545 0.61202455 0.34482697 -0.38910547 0.8982883 0.59380805 -0.03767995 0.58918643 -0.36065158 0.12333553 -0.32849887 0.14279562 0.595848 -0.756575 -0.34961948 -0.14665604 -0.34877717 -0.85365 -0.9761549 -0.18986684 0.5953794 0.3177635 0.32740343 -0.61358297 -0.19554156 -0.39080784 -0.0056109866 -0.21319783 -0.41798875 0.73071724 -0.323751 -0.19158721 1.0107712 -0.8404439 -0.025665984 0.25984842 0.7709127 0.24649283 -0.2531005 -0.3124594 0.6447687 0.014586585 -0.27534443 0.549131 -0.4385066 -0.45006564 0.65479726 -0.9267194 -0.2150165 -0.01602077 -0.26813078 -0.58559483 1.0164671 0.47809187
('내용','Noun') -0.27357036 -0.8299039 0.5387292 0.15669568 0.35178167 -0.4481732 0.5430513 -0.15226139 -0.28145745 -0.6063448 0.3553898 0.48259428 0.2929763 -0.5255937 -0.69657034 0.5529618 -0.037909318 -0.57300955 0.23484597 0.526337 -0.73280597 0.50729144 0.77442044 0.39492384 -0.34146607 0.7313748 0.32884735 -0.6614021 -0.3777971 -0.32531455 -0.6520237 -0.40844083 0.38712302 -0.53663063 -0.7253654 -0.37310895 0.2426155 -0.6080765 -0.54373485 0.3786659 0.18053068 0.44207177 0.408258 -0.16106696 -0.39727527 0.9871104 -0.21079694 0.13209021 0.46163452 -0.41015756 0.23908897 -0.51161546 -0.6806253 -0.54380774 -0.026495403 0.15536332 -0.5801599 -0.99471235 0.6165676 0.1170399 0.8280875 -0.36305603 -0.43600798 -0.15233687 0.41949385 0.47230417 0.42534262 0.3806614 0.5860109 -0.07072066 0.06339933 0.56182235 0.41673368 0.4573688 0.30302867 -0.1900425 -0.19693841 -0.33614686 0.09354363 -0.30378962 -0.089425065 -0.030998565 0.71488786 0.102271885 0.5317895 -0.3904086 0.22839096 0.006743388 0.9343518 -0.37035128 -0.3640191 0.4002939 -0.41975045 -0.81633633 0.25444928 -0.27511942 0.4467384 0.7575857 0.59560305 0.27260116 0.42481706 0.35870022 -0.17990011 0.12225057 0.056027833 -0.23558863 0.1347283 0.037834898 0.24813128 0.33794308 -0.24070564 0.7415271 0.51368135 -0.35667267 -0.76947385 0.5202723 -0.18695426 0.53401965 -0.6187024 -0.5128859 0.28026313 0.62473243 -0.879561 -0.6503012 0.64057374 -0.8634569 0.364112 -0.0903526 0.36298862 -1.0494986 -0.22810723 -0.33680528 0.31319338 0.43474677 -0.34410134 -0.43649715 0.34932682 -0.3091047 -0.38022724 -0.008002376 -0.37401205 -0.39664245 0.3057452 0.42117295 -0.5441888 -0.299289 0.3679496 -0.43451 -0.53497964 0.5243609
('생각','Noun') -0.85329854 0.32623476 -0.48622534 -0.102364555 0.51383847 -0.21593057 -0.058028284 -0.8671433 -0.6021228 -0.87476313 -0.3342352 -0.68018085 -0.61458075 -0.7620315 0.37532523 -0.8972299 -0.24277428 -0.80893 0.16075946 0.5483221 -0.3946552 0.024052432 0.6793167 0.8278936 -0.42157325 -0.37682626 -0.249637 -0.43407315 -0.5590223 -0.653903 -0.13095297 0.37283573 0.26851255 -0.93468106 -0.78785896 0.30556688 -0.46957448 -0.15596561 0.6695812 -0.074792065 -0.69286233 0.38580155 0.056727115 0.27709696 0.71966314 0.5399958 -0.25184065 0.44975615 0.9496604 -0.90498936 0.23144175 0.6971147 -0.17466396 0.6269739 -0.6704286 -0.1799063 -0.13526024 0.47491062 -0.24537565 0.97664744 0.17333813 0.09685983 -0.14143786 0.17063086 0.13435024 -0.26733387 0.4690457 0.43776584 0.26119202 -0.22331822 -0.34044632 -0.55822253 -0.44399372 -0.605267 -0.13808088 0.799248 -0.6956085 0.22403951 -0.49686775 -0.5376293 -0.86661917 -0.26685596 0.089373484 0.5963208 -0.42266348 -0.49102813 -0.53754157 0.08927841 -0.20317215 0.08948813 -0.5909368 0.6349966 -0.019854147 0.04426749 -0.3643122 -0.841999 -0.09716865 0.6897345 0.49402004 0.37510085 0.5631886 -0.41785738 0.24444564 0.3065608 0.03143205 0.5455748 0.95589036 -0.5185073 0.35702133 0.9125382 0.43804377 0.7832689 -0.09481683 -0.5292749 -0.5292072 -0.5013122 0.6548118 0.059132867 0.37548137 0.4396334 -0.3224732 -0.22461785 -0.68454754 -0.6395384 -0.323785 0.034538865 0.43930438 0.6551649 0.10538748 0.41612947 0.03402538 -0.07442424 0.37058386 0.6072367 -0.3879523 -0.22320122 0.44209418 -0.53682816 -0.2881588 -0.63557684 -0.2167939 -0.5095478 -0.71416444 0.46575725 1.2443866 -0.7044905 0.20662317 -0.46529743 0.1401529 0.75821334
('시험','Noun') 0.08666098 0.2759699 0.5354893 0.96105427 -0.58965355 -0.64515483 0.31190336 0.32078043 -0.80108523 0.1821519 0.3728339 -0.26563346 0.9568582 0.30291307 0.10844825 -0.40474465 -0.15637173 -0.29333645 0.9014529 0.39817894 -0.38465863 0.46292436 0.54895955 -0.37406284 -0.05467125 0.092751145 0.04848898 0.53311735 -0.008016704 -0.4961569 -0.7398699 0.67640007 0.72159684 0.62053335 0.040831648 0.07678812 -0.40164584 -0.11826604 0.35606816 0.5824552 -0.5567116 -0.76068735 -0.3970729 0.07214074 -0.56705314 0.31134647 0.09417766 -0.35547805 0.06363822 0.40201503 -0.41348308 -0.15649368 0.55064255 0.22995728 0.18609692 -0.07912907 0.13273638 -0.17351532 -0.4780169 -0.33985108 0.6691472 -0.51745874 0.82336473 -0.21086338 0.4985034 -0.70781213 0.8150338 0.6141004 -0.50012875 -0.061979588 -0.43757042 -0.36902705 0.85759234 0.14712304 -0.82316667 -0.54004747 0.67714155 -0.2507668 0.44062006 -0.18191366 -0.925313 -0.49390122 -0.34819365 0.16737813 -0.48301166 -0.1953105 0.016760785 -0.19015013 -0.59873456 -0.116309166 -0.18449421 0.8550249 -0.013605181 -0.48386538 0.44988292 -0.6304885 -0.05852571 -0.0031261556 -0.834246 0.50484383 0.06416552 0.043721195 -0.13108507 0.35895014 -0.13585402 -0.2405701 -0.1385352 0.46534598 0.46069184 0.29916725 -0.4083668 -0.11844131 0.27413318 -0.8426145 0.31682906 -0.11524789 1.0776973 -0.1208894 -0.14455955 -0.5589465 -0.4049167 0.5263663 0.33451077 0.21298108 0.4585772 0.42699447 -0.24734452 0.32910728 0.79505616 -0.28460702 0.771474 0.44148585 -0.4080901 0.68817776 0.28479773 0.4536193 -0.093390934 0.061814934 0.10942709 0.03580034 -0.5796125 -0.8317729 -0.66903937 0.04371856 0.91527784 0.16966026 0.95724225 -0.48583093 -0.2157386 0.33189887
('입니다','Adjective') -0.41863966 -0.13203794 0.79362637 0.88828486 -0.6303619 1.0902616 -0.34104106 -0.7929172 -0.5143426 -0.65623677 -0.26248607 0.5809969 0.31455195 -0.892232 0.10736877 0.68437403 -0.508151 -0.82004285 -0.75214684 -0.06970757 -0.11454544 0.20756821 0.82551444 -0.2502175 -0.17221275 -0.015499863 0.54158336 0.86483896 -1.0841402 0.1444744 0.7195872 0.57773405 0.22604424 0.5307631 0.08414033 0.6696661 0.6229461 -0.9872256 -0.73248476 -0.5612673 -0.6637246 0.4437506 0.5593409 -0.5763124 -0.28919306 -0.39906776 -0.40343863 -0.52268976 0.7297825 -0.7658881 0.71091866 0.22466572 0.4571406 -1.0895678 -0.3771363 0.057823665 0.62539905 -0.33822855 -0.5326167 -0.2938264 0.58535016 0.60501266 0.32098806 0.5394592 0.8731643 0.7985319 0.07005908 0.9375758 0.45855522 0.37077898 0.20714037 -0.29491016 0.072874956 -0.24697708 0.5407502 0.9980513 -0.6628081 0.03145493 -0.35581517 -0.95635515 -0.33068293 0.14800163 -0.4554481 0.2824242 -0.07378672 -0.65335226 -0.41769353 0.111148946 0.29258424 -0.26115754 0.92557687 0.5931687 -0.50567937 -0.6737514 0.3701648 0.7533067 0.06299131 -0.009068535 -0.62873197 -0.20448123 -0.56931573 -0.67674494 0.26943076 0.15088801 -0.0041125156 0.29531753 0.7092044 0.7719548 0.8283466 -0.2790572 0.77575755 -0.30708584 0.01480395 -0.5818333 -0.8487195 -0.32633796 0.4016259 0.14476144 0.8444949 -0.6371971 0.5520588 0.043858953 0.44498312 -0.33558962 -0.39338547 0.6938827 0.61407983 0.3757158 -0.27451128 -0.1942179 0.2400687 -0.6688557 0.9602446 0.85347253 0.80648935 -0.5043394 0.42005736 0.17738378 -0.3043289 1.0200423 -0.107697375 0.14700915 -0.54043114 -0.0029498632 0.5735469 0.0019139131 -0.31455562 0.15742567 -0.7086187 0.7921216
('이해','Noun') -0.033229675 -0.3325868 0.7244138 0.7791661 -0.02988168 -0.044256166 0.49947453 0.3247963 0.47365603 -0.69164634 -0.15423785 0.85522467 0.7326547 -0.81657195 -0.69316626 -0.60602826 -0.61227524 0.68633586 0.068987034 -0.10116618 0.78643095 -0.34401113 -0.7560039 -0.6412379 -0.6131031 0.32043624 -0.007247965 0.58781815 -0.26634228 -0.2798815 -0.82310694 0.75267154 -0.8806662 0.11467554 -0.2773188 -0.5106204 -0.042767446 -0.62786835 -0.25341704 -0.49807146 -0.7048873 -0.94020015 -0.54922706 0.2962295 -0.67831355 -0.004297805 0.8036572 0.45332053 -0.60312474 -0.4654571 -0.6237811 0.27919534 -0.64443314 0.47820485 -0.25678456 0.28814393 0.601066 0.042685386 -0.61398816 0.77762485 -0.26399988 -0.61174923 0.3765353 0.2757486 -0.6225174 -0.019811893 0.7187852 0.7572399 0.3462822 -0.23738609 -0.35288203 -0.42636728 0.6509009 0.5142341 -0.6040933 -0.517239 0.7892842 0.6706508 -1.0229833 -0.70349306 -0.039123528 -0.4066164 0.43344888 0.4106655 -0.30805516 -0.7252916 0.6616353 -0.34886467 0.6867981 -0.6411932 -0.60279953 0.44627205 -0.42288917 0.85997456 -0.7808146 -0.7859665 0.15191679 0.66025174 0.5552901 -0.10508824 -1.0385245 0.7787907 -0.13651673 -0.17960756 0.20732833 -0.5583399 -0.6132217 0.54283905 0.3261284 -0.4535004 0.7211016 0.58376926 0.39209834 -0.87053263 -0.7578101 0.76319104 -0.1884422 -0.8530615 -0.5981039 -0.46668917 -0.40619904 -0.13511832 -0.10505204 -0.8113752 -0.50546575 0.13368656 0.59263825 0.514045 -0.4493047 0.026990168 -0.023635944 -0.8303049 0.120297 -0.50837564 0.8304547 -0.1027171 -0.76535845 0.062502906 -0.22625159 -0.08254514 0.6841262 -0.8142899 0.22616455 -0.3910012 -0.12663534 0.5375704 0.19922972 -0.5896358 -0.5341666 0.43194574
('개','Noun') 0.7221689 0.7875892 0.088481605 0.37097877 0.85181403 -0.56992906 -0.96005195 0.14941385 -0.12111867 -0.6728176 0.2636016 -0.26609808 0.73843986 -0.5017051 0.37676305 0.8165783 0.22561027 -0.1595784 0.9195842 -0.8384623 0.34326854 0.62410575 0.0491125 0.1857831 0.68364775 0.45958054 0.04815787 0.6998014 0.2524609 0.4769804 0.012257964 0.16957022 0.2083046 -0.706099 -0.8012221 0.5158052 -0.3977273 0.3156448 0.63043374 0.4866093 -0.7989491 0.6158206 0.7959901 -0.05879628 0.0675305 -0.11504922 0.33990738 0.19282606 -0.7908573 0.7080958 0.44150284 -0.3146949 -0.118227325 0.17557551 -0.14360744 0.878587 -0.7008142 -0.58787197 -0.22145988 -0.59297955 0.015350828 -0.28457302 0.66142386 0.88174856 0.13188204 -0.16564924 0.9580065 0.76018715 -0.14176531 -0.08744634 -0.298254 0.7813623 0.41393372 -0.7267761 0.38421816 -0.41706902 0.25127947 -1.0142715 -0.57382286 -0.4361413 -0.6526483 0.54265356 -0.3497908 -0.61377406 0.82306725 0.49621543 -0.48794717 0.7572955 0.7684617 0.46813428 -0.42457363 0.894802 0.3196934 -0.23590016 0.11288314 0.08213653 0.696315 0.5185613 0.24537851 0.09628471 -0.35361803 -0.8586539 0.093732275 0.7829951 0.18501705 0.7369725 -0.41293576 -0.4706144 0.71090895 0.019122772 0.11847747 -0.521775 -0.62362367 0.4253002 -0.6981709 -0.026580438 0.8506833 -0.6927963 0.20996973 0.3394531 -0.16472667 0.28284466 -0.65861475 0.6915225 -0.12522438 0.37228864 0.6474021 -0.59476566 -0.4185422 -0.17168833 -0.046313286 0.2932474 0.59631467 -0.20704535 0.81190586 -0.33424225 -0.5463891 0.29094923 0.49548882 -0.073737726 -0.4372794 0.030835958 -0.6480074 -0.32377988 0.4983616 -0.38340145 0.06591139 0.5173611 0.15405473 -0.12934972
('하면','Verb') 0.5695813 0.30934787 0.87086034 0.41560254 0.07677901 -0.06917121 0.22828735 0.35155168 0.6607483 -0.6877779 -0.09103348 0.39911747 0.7152819 0.14942233 0.28295013 -0.30264407 0.9475655 -0.82359266 0.2413453 0.06602929 0.48349458 0.4837329 0.16124158 0.27322912 -0.16765727 0.28858638 0.03485548 0.2894517 -0.7448313 0.4512421 0.5394921 -0.3205969 0.4782367 0.3840217 0.3117531 0.3163625 -0.19117111 0.26151505 0.32483268 -0.6638314 0.84602785 -0.10790968 0.025910899 0.043408208 -0.44963 -0.088947415 -0.4021183 0.059228376 0.88563514 0.049772695 0.3461606 0.54616445 0.2898108 0.33557776 0.054190487 -0.2058081 0.09304058 0.46508253 -0.91954094 0.05524339 0.36580804 0.54251224 0.0012165871 0.39360553 0.95190513 0.35663688 -0.5291692 0.6347062 -0.7214086 -0.5888635 0.20402765 -0.5802383 -0.45403123 0.103601016 -0.4415746 0.9513191 -0.6083198 -0.5023991 -0.50934 0.7514287 -0.5715638 0.11814048 0.6457513 0.40668046 -0.22586359 -0.6493941 -0.2910485 -0.97174907 0.653071 -0.23071584 -0.9527979 0.37779137 -0.35231227 -0.30979767 0.18010528 0.7617941 0.08765163 0.6936285 -0.37146333 0.40634647 0.81405216 -0.77494884 -0.25766817 -0.28500006 0.5170611 -0.074339405 0.90192944 -0.4963793 0.31525072 -0.5508806 -0.40142217 -0.09801287 0.18071985 -0.48617724 -0.9671528 0.8648717 -0.5390926 0.17483653 0.032515965 -0.7106831 0.14911886 -0.42620236 -0.22107081 0.31892475 -0.3086384 0.044592246 -0.23446156 0.6120399 0.54134804 -0.16343749 0.7227277 0.6405475 -0.12446032 0.7144304 0.6539097 -0.1762389 -0.13771322 0.0034333486 0.24520347 0.9581991 0.3243956 -0.17101292 0.06920689 -0.7845258 -0.27991766 0.13429108 0.7762949 0.67952853 0.70608073 -0.2654914
('정도','Noun') -0.60679156 -0.3414197 -0.30091566 0.68745667 -0.3541853 0.49014452 0.21384382 0.8176239 -0.6230603 -1.0220656 -0.06608045 0.0138969375 0.48751268 0.16234882 0.8124788 0.12438376 0.03891659 0.17931694 0.09202626 0.40688002 0.31487608 0.1420826 0.45480475 -0.26629257 -0.7287786 0.55715567 -0.7867409 0.5912869 0.57368547 -0.019631715 -0.6583329 -0.43871564 -0.010894322 -0.7022022 -0.28770524 -0.13872814 -0.85060775 0.078659244 -0.6699019 0.48761237 0.54725987 -0.6862051 0.3981099 -0.31846 0.4204276 -0.32319596 0.68806535 -0.5300144 -0.6173363 -0.8759503 -0.9366175 0.82450366 0.47556764 -0.9446987 0.14973398 -0.33991286 -0.5283165 0.29185617 -0.62646437 0.9633026 0.6486571 -0.2714351 -0.5487657 -0.043074947 0.14746718 -0.9748861 -0.2971684 -0.6556653 -0.6145456 -0.0657314 0.43549764 -0.41429645 -0.27890337 -0.6745186 -0.65742993 0.08604144 0.22554901 -0.37889102 0.504069 -0.46863896 -0.50499153 0.10496516 0.75950927 -0.7430658 0.4262845 -0.5239169 0.6816276 -0.39007312 -0.4542693 -0.3670501 -0.11204114 -0.5542453 0.3584461 -0.39760423 -0.015874159 -0.3709275 0.5995394 0.48338032 -0.94223887 0.7017064 0.204792 -0.19337869 0.27141586 -0.70085734 -0.5596231 0.59463286 0.7149821 -0.26642194 0.8635271 0.5305832 -0.21791226 0.4307627 -0.039177686 -0.48390427 -0.32088074 0.44795153 0.46529895 -0.22605816 -0.5893454 0.7720994 -0.30651164 0.34073135 0.34659022 -0.09796109 -0.33462226 0.13024461 0.46944252 -0.26767862 -0.44458437 -0.82761234 0.97507447 0.34842512 0.7685398 -0.401423 -0.018052893 -0.26965153 0.116058506 0.18273118 -0.113915876 0.03542702 -0.28474003 -0.04282354 -0.3817809 -0.54231983 0.098039426 -0.1906984 0.3597974 0.3684329 0.84292585 -0.7868013
('과','Josa') 0.5579328 0.023736207 0.6695057 0.20302732 -0.2889507 -0.52174664 -0.52731407 0.54572576 0.39493176 1.0443223 -0.42972225 0.14056121 -0.24784864 0.29585266 -0.44654313 -0.26116255 0.23484167 -0.15374771 -0.22847196 -0.0959977 0.7818009 -0.34961298 0.20194805 -0.6870519 -0.19764121 0.33260795 0.7272018 -0.63173145 -0.068277605 -0.12197455 -0.6632719 0.5125449 0.7369823 -0.50784624 -0.07280854 1.0063314 -0.45268527 0.16303205 -0.35042346 -0.48710814 -0.32144135 -0.26848742 -0.70024735 -0.16041031 -0.64253324 0.6149767 -0.51646954 -0.71611553 0.11940477 0.46074912 -0.40084118 -0.32893944 -0.19378531 -0.011345355 0.46415463 0.044289548 0.43967712 0.5190834 0.079573296 0.46215147 0.1246245 -0.7570857 0.4859689 0.5521209 0.35245883 -0.7994025 -0.12273141 0.14462389 -0.14274292 -0.25743023 0.34092897 -0.26597503 0.4907508 -0.06288247 -0.24941249 -0.31710297 0.9370345 -0.08525105 -0.0067159827 0.30651644 -0.041901197 0.5087405 0.7015549 0.504086 0.6812897 -0.8159183 0.16932304 -0.53698176 0.5481031 -0.5473102 0.07062288 -0.17304763 -0.5898254 0.24024907 -0.45661366 0.55382663 0.3689899 0.56721526 0.81574893 -0.58208406 0.7699261 -0.89426064 -0.47957397 0.45201123 0.27496865 -0.4782324 0.17206435 0.16667594 -0.86868894 0.16438517 -0.68054944 0.65814996 -0.7697528 -0.12186093 -0.089222 0.022266814 -0.032673273 -0.015052703 -0.40365037 -0.32157278 0.67699313 -0.51045185 0.729227 -0.26259708 -0.13576718 -0.17756264 -0.4428534 0.18433952 -0.26882413 -0.5068143 -0.0954294 0.15439428 -0.38473088 -0.7814174 -0.31185 -7.595046e-05 0.86365885 0.02168954 0.30971593 0.79960614 0.59858054 0.7932698 0.4671703 0.66973835 0.685607 0.104199745 0.5372574 -0.6116783 0.3811996 -0.04797555
('공부','Noun') 0.52949923 -0.046617135 0.52570957 -0.25445753 -0.7675887 -0.52103764 0.88305146 -0.39106464 -0.6650152 0.86905944 0.27246347 0.0039387452 -0.3396397 -0.71009505 0.8134841 -0.36337936 -0.78110296 0.5596933 0.8877514 0.8586592 0.5687822 -0.007225424 -0.07860137 -0.9796008 0.6554526 0.62843347 -0.3804978 -0.53607625 -0.24180722 -0.78751457 0.14232376 -0.21799254 -0.0011962507 -0.324545 -0.4073118 0.47512516 -0.3859505 -0.7667878 -0.59742546 -0.60845655 -0.5719549 -0.06815391 -0.71963245 -0.31199715 -0.69176036 0.20640713 0.43229485 0.021313125 0.20959613 -0.5883166 0.5816711 0.7775678 -0.7772094 -0.9781731 0.9071962 0.083573416 -0.47684544 -0.4403348 0.26986286 0.8412428 0.7982343 0.24382104 0.649555 0.8644986 0.3060969 -0.3187412 -0.29835686 -0.65390015 0.59817487 -0.7848353 -0.4320957 -0.47856197 -0.0147144 0.22745396 -0.4855507 -0.037878994 -1.0186851 0.44599792 -0.61389464 -0.5512778 -0.8069094 0.4013332 -0.6057823 0.2996624 0.42523062 0.3094849 0.022864113 0.117339805 -0.3140143 0.77567893 -0.44794816 -0.09397196 -0.16172197 0.3960491 -0.37151653 0.737023 0.15880339 -0.96581554 0.043116704 0.17525348 -0.61237407 -0.12409519 -0.3177744 -1.1638362 -0.02365403 -0.56731653 -0.38672486 -0.05509033 0.3106778 0.08111437 0.2099908 0.94887286 0.2657731 0.006039829 -1.0578276 -0.14429145 -0.105428025 -0.019862244 0.014402487 0.5564174 -0.56215173 0.6117864 -0.5872205 0.019629212 0.3822991 0.56309587 -1.0982203 0.24923341 0.5445185 0.46483573 0.69602215 -0.2102391 -0.92061645 0.71067506 -0.52693874 -0.95728767 0.21046156 0.8105737 -0.58782387 -0.6493292 -0.5977223 -0.915397 -0.10552249 0.12316336 -0.32557446 -1.0160561 0.109339125 0.70842516 -0.38443542 0.43984944
('조교','Noun') 0.02105938 0.78253853 -0.43374547 0.8000908 -0.9016684 -0.965264 -0.47226977 0.22409779 -0.22251163 -1.00701 -0.062743224 0.8761623 0.84397936 0.7013026 0.09934618 0.7577975 0.69533163 0.48020408 -0.13285084 1.0268564 0.104029074 0.44119486 -0.1809038 -0.29836658 0.6268314 0.8810294 0.5588991 -0.55420184 0.15572664 -1.0270578 -0.8914109 -0.18262875 -0.5876696 -0.5402599 -0.0026119915 0.4497304 0.24626602 -0.7458913 -0.36889103 -0.62664944 -0.6176406 -0.44468513 0.44044948 -0.2660879 -0.6596182 -0.3555392 -0.096411765 0.19804063 -0.5059335 -1.3191736 0.31957376 0.14086972 -0.5788879 -0.046841 0.34697446 -0.426478 -0.66497993 0.08937331 0.42798144 0.44539455 0.59443194 -0.26983523 0.6202689 0.4387987 0.64398146 -0.026743144 -0.79124284 0.986748 0.4625089 0.58483535 -0.018358003 0.8648746 -0.56984764 -0.28543848 -0.090249024 -0.46106094 -0.31744832 0.5721471 -0.66692364 -0.1158638 0.49365163 0.10214429 0.22784345 0.032824036 0.09424316 -0.6539213 -0.41306886 0.1437035 -0.12073334 -0.031474624 -0.42906505 -0.21343106 0.3865072 -0.6703314 -0.48856488 -0.4339209 -0.579306 0.6943885 -0.13025033 -0.8121211 0.24452636 0.13648401 0.91686314 0.04442869 0.35126325 0.21848299 -0.5660075 0.889011 0.70351684 -1.0257297 0.7321574 -0.65939337 -0.41181946 -1.0918285 0.23015848 -0.44750684 0.59408563 0.25255454 -0.77244973 0.53052586 0.5849007 0.6414642 -0.7197017 -0.5738422 -0.14350635 0.80393076 0.15848787 0.88830686 -0.25303856 -0.18340996 0.31789038 -0.72178704 -0.052516516 -0.30075994 1.1088167 0.71813774 -0.19995488 0.56786674 -0.35957146 -0.48683938 0.20715092 -0.37075338 0.399096 -0.46296582 -0.36431175 -0.8526674 0.71013045 0.5317531 0.17611867 0.23875771
('때','Noun') 0.120124534 -1.0144293 -0.31807944 0.005818412 -0.93460745 0.5074475 0.30936033 0.5557151 -0.4593965 0.5385429 -0.20220874 -0.3113599 0.22327527 -0.043487564 0.08650407 0.7239344 0.415726 -0.8526384 0.27354234 0.19425786 0.23488232 -0.02720584 -0.5904859 -0.19515967 0.54867244 -0.6820805 0.4240954 0.19317022 -1.0280818 -1.035002 -0.41714117 0.5146336 0.4857424 -0.5452015 -0.24447176 0.12555705 0.30709308 0.54523283 -0.20190875 -0.72799224 -0.4805644 -0.20584927 0.1271192 -0.10861271 0.6093307 0.56570214 0.24540262 0.07004279 -0.36836255 0.35070908 0.4906462 0.78865993 0.120619535 0.40288457 0.22122039 -0.32404527 0.39542818 -0.8048471 0.563274 0.9456026 0.290272 -0.11605373 0.35352778 0.3977291 0.38872847 0.40084487 0.87510693 0.12987219 -0.5521523 -0.86858046 0.75064456 0.040959165 -0.3135957 0.46157962 -0.10537868 0.39315805 -0.16219933 0.55907685 0.2757721 -0.61455125 0.01827132 0.06707156 0.26718366 -0.39238834 -0.925085 0.21490885 0.9272129 0.29150364 0.53423923 -0.88783205 0.02677185 -0.3251611 0.6803019 -0.26828545 -0.026548307 -0.01903881 0.32279575 -0.7284929 -0.035418984 0.09151601 0.41608384 -0.40219423 -0.5508338 -0.045873776 0.5355971 -0.5886832 0.5551347 0.600344 0.08097061 0.38095042 -0.6158976 0.064588 -0.84310573 -0.36342216 -0.0660375 -0.32574496 -0.45824414 0.20443642 -0.60007983 -0.45829245 -0.497378 0.5973286 -0.3892511 0.04561433 0.60315067 0.64008874 0.06272365 0.7795847 -0.0665112 -1.0052494 0.8219309 -0.72708076 0.43962908 -0.05682765 0.6661292 -0.32504183 0.17431325 0.38312474 -0.9790509 0.40385205 0.642492 -1.0123829 0.634085 0.037285004 0.47761226 -0.41682273 -0.2028783 0.3960567 -0.31661114 0.54652804
('말','Noun') -0.75616825 -0.22079904 0.7263389 -0.08344296 0.09777395 -0.4107538 -0.1678395 0.0071906717 -0.22312059 -0.4445747 1.0747666 0.71981674 -0.20479628 -0.23969951 -0.7887484 -0.52602094 -0.21071422 -0.94477564 -1.0219736 -0.62011826 -0.47922748 -0.33754072 0.109239906 -0.14507674 0.29530862 -0.556068 -0.04476807 0.63944596 0.9091565 0.15454037 -0.76389605 -0.38674647 -0.19269986 0.6080155 -0.9648732 -0.013882553 0.2184049 -0.8701455 -0.6668705 -0.42095295 0.023557842 -0.6206277 0.6575972 0.60315585 0.25519845 -0.58491755 -0.34245417 -0.42971575 -0.17919123 -0.48410714 0.04032363 0.10925065 0.7674233 0.68038565 0.29219645 -0.009496175 -0.14468023 -0.5328471 0.57758707 0.9220325 -0.3000793 -0.44053385 -0.7364416 -0.4102508 -0.7113679 -0.597305 0.6359118 0.419337 -0.6882535 -0.24884348 0.87621105 -0.7704076 0.7339976 0.2728079 -0.059103794 0.07272319 -0.11032274 1.0068686 -0.44343218 -0.8145683 -0.018454427 0.5362946 -0.019842358 -0.601944 0.18758185 -0.60667765 -0.24857426 0.5167918 0.41878724 0.18971679 0.48422086 0.53614014 0.7435421 0.70503664 0.41614276 -0.916183 -0.33726817 0.32707968 0.25296605 0.69968003 0.60415804 -0.6947805 0.26096973 0.30953017 0.20105056 -0.35776356 0.26856244 -0.28066468 0.6480031 -0.12431309 0.55635273 0.9515221 -1.0323037 0.42893875 -0.39614117 -0.57742834 -0.029327106 -0.42288664 0.06607839 -0.11166244 0.11677756 -0.57825524 0.3199966 0.9843789 -0.43159398 0.2725195 -0.2461561 0.6825167 0.68488467 -0.9027927 0.53942436 0.5112897 0.7081219 0.09227889 0.5857599 -0.2702104 0.08631439 0.5505912 0.27818835 0.3936811 -0.16599521 -0.6117831 -0.17355798 -0.4038029 0.87396324 0.045899432 0.18296915 -0.1427928 0.14914393 -0.8937463
('숙제','Noun') -0.68039846 0.39608553 0.82329845 0.6173064 -0.7262531 -0.51126266 0.71273 -0.65234524 -0.5814703 -0.74452776 -0.72329307 0.022770964 0.22755696 -0.7961095 -0.18654904 0.2890216 -0.78626615 -0.24114855 -0.17020065 0.7320603 0.06501259 -0.86883634 0.12414748 -0.73272645 -0.26844737 0.54853576 -0.29303893 0.89441866 -0.6357669 -0.5837376 0.0046667843 -0.5038453 0.5058997 0.2706098 -0.33159187 -0.19088852 -0.5545447 -0.5034674 0.44918245 0.34734756 0.45268202 -0.097382575 0.6672742 0.57972074 -0.44277984 0.20455514 -0.74053305 -0.43727475 1.2985953 -0.5998023 0.4314795 -0.5767052 0.7154827 -0.39470342 0.73754996 -0.5549653 -0.6210659 -0.084714025 -0.8471311 0.5604025 0.4310371 0.81885856 -0.22673129 0.48936307 0.2619996 -0.61268127 0.6852033 0.46669778 0.356009 0.28932962 0.23779175 0.7216103 0.10625443 0.18852921 0.16074863 -0.12453014 -0.19436638 -0.81061715 -0.30770487 0.22169934 -0.6009962 0.4719984 0.06219748 -0.60738856 0.55870354 0.42933515 0.63083476 0.05860192 0.47780922 -0.9040903 -0.38915327 -0.59172076 -0.14399293 0.5456645 0.4225413 0.49522996 -0.16517723 -0.42572868 0.45947608 -0.52737826 0.19682658 0.5366054 0.40775883 -0.32385767 -0.57818925 0.509964 -0.1736782 -0.66609573 0.7137291 -0.7370125 -0.6710143 0.7085338 -0.8189788 -0.3287304 -0.68579125 0.12300795 0.4746762 -0.28143698 0.42174506 -0.28828034 -0.22801054 0.9504985 -0.6599924 -0.39708227 -0.5757075 -0.51364 0.050952077 0.49302235 0.49426094 -0.93687177 0.24058373 -0.3679465 -0.70876235 -0.52899724 -0.47608936 -0.15866591 -0.43463472 0.54661727 0.43394426 0.18280019 0.01008907 0.007090428 -0.2810883 0.14444627 0.73214644 -0.56496924 -0.4517103 0.5311636 0.26580796 0.6219512
('시간','Noun') -0.13186537 -0.06708405 0.39562526 0.76559967 -0.3898314 0.2032301 0.81702167 0.45844468 -0.5330449 -0.9988313 0.7724445 -0.26096666 0.03037636 -0.18053181 -0.2701887 0.20816894 0.3344287 0.34005058 -0.5768977 0.12049165 -0.6402471 0.1030198 0.96651196 0.24967472 0.8212705 -0.417138 0.41290975 -0.10103613 0.16456607 0.17562789 0.45495823 -0.0018753321 0.047828015 -0.030278746 0.026638947 0.74324906 -0.2593236 -0.56397355 0.30138448 -0.5729736 -0.81514627 0.22564955 0.019604562 0.28259915 0.47019073 0.17482248 0.50492406 -0.11005798 0.54691935 0.19604602 -0.4339286 -0.43184814 -0.072603084 -0.30480367 0.3126646 -0.32421237 -0.88260823 0.494416 0.56524104 0.13927664 -0.03722824 0.72576976 0.005188165 -0.15780218 -0.55896705 -0.77026 -0.6805424 0.32553613 -0.8071499 0.48835477 -0.1958716 -0.7847847 0.9441022 -0.4922887 0.0069305007 -0.6263463 0.00774726 0.15756842 -0.40147868 -0.44674355 -0.08524954 0.29229456 0.8287092 -0.17324427 -0.63982177 0.40484288 0.42932293 -0.121622816 0.7366464 0.32395083 -0.672665 0.41990072 0.6514527 -0.52447176 -0.69931394 -0.5818567 -0.16665418 0.6787621 0.107420675 0.37820646 -0.2291607 0.80302125 0.5083353 -1.0158156 -0.14971371 -0.85508424 0.6665174 0.9975645 -0.21584645 -0.20109026 -0.56055343 0.56175876 -0.28125638 -0.10635646 -1.1244473 -0.16728221 -0.12076258 -0.95300317 -0.585624 -0.49436235 0.2577037 0.091215156 -0.36015797 -0.38742083 0.38434345 -0.8125628 0.05994632 0.4431166 -0.25224203 0.31344 0.3249071 -0.3775351 0.12853219 0.14649183 -0.14433905 0.49338388 -0.27596322 -0.3188358 -0.84744745 0.3863715 0.91847664 0.7036151 -0.52110183 -0.15190794 0.8954009 0.3401544 -0.014354664 -0.3849799 0.67707086 -0.76523465
('전산','Noun') -0.825665 0.015694994 0.87985957 -0.068157434 -0.70244026 0.2125875 0.2048578 -0.58348197 -0.40251386 -0.88739604 0.20952022 0.629445 0.4073547 -0.8274316 0.39814317 0.6740989 -0.44770107 0.09205084 -0.30405706 1.0856693 -0.043972254 -0.8993417 0.42351934 -0.5474966 -0.67782784 0.15561382 -0.6837772 0.69409126 -0.2202606 0.11323363 0.43919563 0.21053205 -0.33682355 -0.52931696 -0.26147237 -0.007564506 0.31780055 0.25112465 0.13145988 -0.47348627 -0.47929928 -0.74872136 0.33843628 -0.05449417 0.5731211 -0.1391442 -0.322966 0.7009636 0.042263452 0.020722736 -0.5524505 -0.1805986 -0.10231565 0.089829594 -0.6571948 0.13517922 0.18527403 0.31206995 -0.97797555 0.5577177 -0.1309854 0.27845937 0.36433575 0.029397488 -0.15845798 0.50464 0.68137884 -0.533183 0.039648976 -0.8471507 0.5412721 0.48316935 -0.8846969 -0.32752347 -0.33720654 -0.1398218 -0.37748042 0.29448575 -0.20772551 -0.8014708 0.13162263 -0.5822143 -0.023798902 -0.7548526 -0.7789654 0.69441295 -0.54712236 0.057032928 0.65659237 -0.25163895 -0.56876355 -0.36329654 -0.5520489 0.7223617 0.7070894 -0.287576 0.037026115 0.48055497 -0.23713201 -0.3405493 0.5724344 0.67822653 -0.09807743 0.029324602 -0.6234085 -0.2528535 0.9053964 0.656292 0.13427073 0.6932955 0.13619241 0.10064954 0.3838378 -0.9325959 -1.0596538 -0.71926105 -0.6502941 -0.8842217 0.21945831 0.6450676 0.1473374 -0.551084 -0.53570426 0.4416579 0.6349626 0.50319463 0.28353277 0.15891024 -0.7036615 -0.96622884 0.9505587 0.5861403 0.76841396 -0.5093069 0.34548733 -1.0007608 -0.8482338 -0.26824486 0.030779801 0.09007001 0.4666785 -0.17851448 -0.7725394 -0.653216 -0.12634714 -0.4611924 0.31836295 0.29583108 0.96986896 0.3665947
('해서','Verb') -0.8513296 -0.7717782 0.6821389 0.8513477 0.48554838 0.55197924 -0.71205664 0.5365232 0.20369849 0.33303994 -0.54476523 0.819601 -0.046361107 0.7250539 -0.13898541 0.18593231 0.06159205 -0.3283884 -0.453953 0.9224274 -0.5058518 -0.001358263 -0.033573955 0.70446146 0.67668736 -0.614549 0.85606885 -0.00772688 -0.021393111 -1.1234305 -0.2420389 -0.4823796 -0.5811341 0.32405633 -0.62857956 0.8318814 0.30703837 -0.115790464 0.5407823 -0.81733227 -0.8140188 0.26461527 -0.23317733 -0.09814654 -0.12555441 0.7328471 -0.73653626 -0.44812545 0.5608456 -0.22516686 -0.020994533 0.037907362 -0.55684817 -0.7115557 -0.3045912 -0.14655916 -0.06654038 -0.54329735 -0.6983853 -0.31412163 -0.3408094 -0.32759324 -0.35403892 -0.34578085 0.58572286 0.21823744 -0.12275916 -0.14184527 -0.25371826 -0.33864817 0.43755862 0.14607689 -0.30701408 -0.6719454 0.007998581 0.3880333 -0.009779682 0.07086536 -0.100586995 -0.81176794 -0.2581274 0.62281877 -0.36695355 -0.5067771 -0.58272284 0.5586463 0.0659157 -0.9919642 -0.42106366 -0.4086601 0.76766706 0.4847597 0.65071225 -0.5406745 -0.5022233 -0.71504194 -0.42806634 0.700812 -0.20600167 -0.41642296 -0.63668245 -0.12568656 -0.5777199 -0.7184185 0.85500133 0.06428268 0.75306183 -0.45863283 1.1706105 -0.70402 -0.49283555 -0.6438515 -0.35954872 -0.09286297 -0.83129627 0.5110148 -0.6272415 0.31697676 -0.7292107 0.14166741 -0.14054847 0.6527242 -0.96942323 0.0031481087 0.40846956 0.08078571 -0.776992 0.23665428 0.92898184 0.37301996 -0.3366946 -0.5947069 0.7399828 0.58907676 0.3314287 0.5943126 0.6418444 -0.073972546 0.1321205 -0.46175304 0.08786197 -0.3124004 0.7391434 -0.37022227 0.48705104 -0.22281738 -0.25915572 0.41966587 1.2218945 -0.11352831
('잘','VerbPrefix') -0.19676837 -0.026595064 -0.5390147 -0.30256063 -0.77129495 0.042423222 0.5700904 -0.6188803 -0.6812862 -0.08709011 -0.07359836 0.34235957 0.34795314 0.7102051 -0.29108298 0.44265145 0.16399926 -0.3701999 -0.48510224 -0.12399204 0.8033102 -0.35600647 -0.5233886 -0.36388198 -0.78051746 -0.44708377 -0.51627165 -0.42305943 -0.30097306 -0.12589377 0.64972055 -0.30338213 -0.4618932 0.63072246 0.70295864 0.6944011 0.77769953 0.9636279 -0.25317663 -0.013796041 0.0698997 -0.34907237 -0.28269526 -0.2962687 0.2587633 0.0046233456 0.34642252 -0.3230934 0.5686583 -0.49019772 0.4652869 -0.5510987 -0.094421625 0.46230933 -0.3030641 0.45557216 -0.36019382 -0.04407752 -0.21210852 0.69351476 -0.365578 0.5416062 -0.09797868 -0.5719147 -0.37597564 0.23233846 -0.81169224 0.06302785 0.41717157 0.080515645 0.3166618 0.2004568 0.61085796 -0.11996643 0.7115579 0.55389816 0.87215066 0.4929002 -0.5533145 -0.67028594 -0.19146594 -0.03534661 -0.37988415 0.24492876 -0.4271587 0.11065817 0.14755172 -0.039460965 0.16403835 0.14768517 0.11157344 0.2516828 0.6660784 0.19700977 -0.16140145 0.28108147 0.567671 -0.036214087 -0.43689767 0.41844893 -0.65729356 -0.52324426 0.6340845 0.3618066 -0.22889802 0.26059663 0.14647447 -0.58686954 -0.16898912 0.8368928 0.29843146 0.80580235 -0.55987924 -0.9145808 -0.6349937 0.68612635 0.110281825 -0.35852772 -0.015231175 -0.40362558 -0.92738885 0.033806782 -0.40762556 0.28775087 -0.23008221 0.8841689 0.11527436 -1.0037106 -0.24447618 0.05783011 -0.5722306 0.30757767 -0.140778 0.5229208 0.3106438 -0.3804008 0.46097502 -0.31063035 -0.17397715 -0.3003401 -0.5258197 -0.36130905 -1.0440475 -0.47999707 -0.06095077 -0.74481267 0.34466323 0.11804069 -0.56825304 0.1824902
('번','Noun') 0.40374738 -0.76824903 0.25626898 0.9749753 -0.5713714 -0.36505893 -0.26539075 0.7265935 -0.13828184 0.2733998 1.0443788 -0.15057999 0.012172971 0.5790511 0.8315942 0.18588106 0.2762703 -0.7341966 0.6584583 -0.4358255 0.254114 -0.3137188 -0.2277156 0.27941245 -0.40498298 -0.19268826 -0.1734128 -0.72337294 0.9186813 -0.9768068 -0.7581736 -0.33386645 0.35822135 -0.023274409 0.46135753 -0.455631 -0.8204313 -0.33436698 -0.73937666 0.6457083 0.5653082 -0.27759385 -0.32513857 0.32595056 0.5895188 0.34932873 0.5780486 0.42262024 -0.49899614 0.34742275 -0.116083816 -0.30636075 0.14018697 -0.3954824 -0.66610074 0.5533484 0.38905743 0.8709213 0.26549312 -0.08395581 -0.05757081 0.1670814 0.7205313 0.23183142 -0.36152703 -0.6552433 -0.3478883 0.4964176 0.20811191 0.103196956 1.001422 0.034709085 0.80703324 -0.60582894 0.590741 0.4899726 0.77017725 0.039533675 -0.44869816 0.26048827 -0.084660724 0.47674927 -0.23427765 0.459029 -0.5770994 -0.0027490833 0.3149364 -0.8798336 0.39397132 -0.6523432 -0.33755082 0.9117718 -0.26725572 0.5351107 0.23715773 0.48644897 -0.5153124 0.03753362 0.2728453 0.8170515 -0.086927995 0.22797264 0.5332306 -0.531946 0.10273484 0.25006548 0.95544225 -0.20201755 -0.088011175 -0.2702406 -0.47327122 0.55545074 -0.09605584 -1.0114096 -0.24122158 -0.02147047 -0.6642032 0.35088667 0.46682638 -0.23024136 -0.2818015 0.38419685 -0.7869317 0.46320644 0.48542088 0.6859041 0.9238662 -0.48593563 -0.084159404 0.7624009 1.0924135 -0.94466203 0.18702143 -0.025789518 0.22455266 -1.0145291 -0.29738426 0.45157543 -0.32849076 -0.04528712 -0.36501908 0.99536866 -0.15505522 0.53079015 1.0938473 -0.7200565 0.68883294 -0.11645395 0.61804 -0.70506036
('질문','Noun') 0.34497187 0.2931227 0.35964173 0.21784924 0.5002817 -0.50171405 -0.56948143 0.014796356 -0.46593 0.6147057 -0.18650913 0.45640767 0.35167083 0.65876156 -0.709042 1.0233191 0.45407835 -0.752296 -0.16833267 0.7549334 -0.599401 0.16344891 -0.6638716 0.6339207 0.5534277 -0.45402706 -0.12932403 0.25420296 -0.11639626 0.0066984883 0.70613945 -0.38180494 -0.5501223 0.5781296 -0.819751 0.097340144 0.32227394 -0.2618704 0.72306985 0.13964243 -1.0747892 -0.14540033 -0.5005131 -0.3068807 0.16622716 -0.44151574 0.11065901 -0.5852486 0.33809286 -0.6333316 -0.1832802 -0.32507446 -0.14082955 0.12258606 0.24333286 0.3817121 -0.66032326 0.7293621 -0.71422964 0.36471397 0.9180967 -0.14912997 -0.5260888 -0.7380326 -0.5016493 0.21339503 -0.36751112 0.96644765 0.69223595 -0.4583773 -0.06419842 0.55886656 -0.5835369 -0.83564 -0.45987627 -0.592698 -0.17457582 -0.14117736 -0.44413558 0.80793023 0.0126281995 -0.45647904 1.0002062 -0.6352051 0.85151374 -0.4288751 -0.07851987 -0.39338678 0.74203056 -0.025047457 -0.7616351 0.39223972 0.67313236 0.31414363 -0.88664705 0.7121569 0.38907716 -0.7133251 0.84627277 -0.7000409 0.8516719 -0.8142607 0.7240749 -0.34326723 0.7025156 0.3576471 -0.2394457 0.10086089 -0.21373639 -0.8966276 -0.4057346 0.29835227 -0.65519553 -1.2789493 -1.0744826 -0.38742706 -0.26370436 -0.13253254 -0.1303849 -0.27615437 -0.90991354 -0.749489 0.1600045 0.95408493 -0.13112628 0.19504827 -0.75182563 0.47168556 -0.1792613 0.29795995 0.036662914 0.5615605 -0.66922903 -0.37348083 0.9081084 0.090128034 -0.48062828 0.31546718 -0.19774574 -0.77289903 0.8050411 -0.92518586 -0.5362901 -0.6361857 -0.5475378 -0.53272355 -0.45199075 0.20977633 1.0171173 -0.3601019
('한','Josa') 0.21433544 0.19301163 -0.47013712 -0.6453602 -0.88856405 -0.014412547 0.20387563 0.22810873 -0.5927781 0.48339838 -0.94566256 0.56080467 0.43224493 0.8673956 -0.9636027 0.4542134 -0.029281948 0.35818368 0.4519439 0.62318283 0.5359345 0.030917833 -0.20758443 0.25432995 0.7498781 0.87256795 0.305082 1.4366508 0.80091053 0.17458986 -0.08870897 0.78494024 -0.39475724 -0.1042546 -0.29655296 0.73915184 0.699016 -0.3144764 -0.19525744 0.8934803 -0.23951206 -0.14133714 0.37344208 -0.015763957 0.6562741 1.1660064 0.00095919205 0.8479362 0.42446128 0.19614893 0.069318555 -0.95071024 -0.42532972 -0.01213279 -0.20945865 0.009139934 0.4151024 -0.21286464 -0.35092416 0.47968966 0.7391243 -0.028500957 -0.083400406 0.13995786 0.64073133 0.04128043 0.44655904 0.4111283 0.23241316 0.33674082 1.0142779 -0.774307 0.74315804 0.33467305 0.38675734 -0.5235899 -0.80493104 0.033278517 -0.4267466 -0.24552554 0.0276992 -0.48582375 -0.45918474 -0.16459079 -0.8171895 -1.1419737 -0.6470279 -1.0558985 0.32140338 -0.27952272 0.44760597 0.71197987 -0.42382565 -0.31126624 0.811691 -0.59564346 -1.0099753 -0.09440463 -0.5718643 0.14842075 0.78347653 -0.9034795 -0.5369903 -0.80963993 -0.8460344 -0.890348 0.63850176 0.7418886 0.16002822 -0.7991613 0.4903633 0.27061096 -0.7743922 0.21005185 0.5429129 0.46015364 -0.13442205 0.3542099 0.5255234 -0.4541023 -0.243906 0.6325232 -0.5657886 -0.33398646 -0.43155336 -0.10194103 -0.02752698 -0.62116104 -0.12084839 0.5175053 0.1916373 0.68061906 -0.5741959 0.20344484 0.9243472 -0.7384141 -0.06854317 0.7845855 -0.18978846 -0.035646126 -0.18688537 -0.054262426 -0.09409876 0.117467284 0.835723 -0.26340526 -0.424098 0.7685028 0.58238167 0.56789905
('중간','Noun') -0.7309123 -0.6967441 0.13766764 0.94579256 0.6990535 0.15699804 1.2878169 0.692101 -0.10105653 0.21485507 0.59763813 1.0298322 -0.43631816 -0.10832846 0.67334265 -0.0646935 -0.4777592 -0.09355979 0.15614961 0.57964265 -0.108620614 -0.28278613 0.49831647 0.14534442 -0.5349133 0.35798228 0.46977344 0.36266637 0.5246315 -0.38487133 0.35539925 -0.20662849 0.30722654 -0.4507371 0.0015071797 0.31705183 -0.3169778 -0.8080784 1.0249784 0.27823094 -0.902882 -0.72390604 -0.87109447 0.62479967 -0.71252143 -0.54082894 -0.62118334 -0.19341733 -0.3230042 0.053259835 0.5131352 -0.4168553 -0.02308228 0.23462795 -0.1303127 -0.089317024 -0.44775507 0.43072236 -0.60326385 -0.15030503 0.5097881 -0.46256676 0.36391413 0.16546844 0.45465773 -0.8771738 0.30078295 -0.74001247 0.32719883 -1.3714011 0.13540782 -0.6779919 0.3947572 0.43891793 -0.3373129 -0.44507024 -0.82506967 0.5162908 -0.31138924 -0.6369788 -1.147752 0.48519447 0.5019245 0.14563261 0.44846147 0.059740145 0.6605788 -0.7036664 -0.24810058 -0.64872664 0.5581711 0.9675765 0.78591627 0.23006263 0.55604166 0.21908514 -0.213608 -0.13097326 0.3029108 -0.77879524 0.5276481 0.3483463 0.35557535 -0.03415419 0.49025446 -0.634923 0.8467711 0.3023632 0.041879013 -0.74638015 -0.62365454 0.8356921 0.27558967 -0.4169902 -0.54843223 0.0963364 -0.43971178 -0.21967283 -0.34984928 -0.4903205 -0.45759955 -0.2684136 -0.37113997 0.8286383 1.0047625 0.36094862 -0.31210142 -0.09586539 -0.16783038 0.025383845 0.35539776 0.067705154 0.14747638 1.2774796 0.39331743 -0.11406446 -0.84887135 0.3483287 0.012717325 -0.05628199 -1.0473201 0.15252708 -0.6467064 -0.11701858 -0.3624126 0.36173713 -0.30218375 0.19070075 -0.06471471 0.5376813
('합니다','Verb') -0.9023238 -0.099778324 -0.11380349 1.2161558 0.382719 -0.45614755 0.28697312 -0.11301749 -0.5236398 -0.121841356 0.22525115 0.49422842 0.690098 -0.63522923 -0.37645456 -0.37791926 0.0011253064 0.49797404 -0.5532582 -0.5878543 -0.05011511 -0.6565631 0.8475467 -0.95583665 0.27410066 0.00024404709 -0.64905083 -0.26638806 -0.46721688 -0.9127406 0.24592647 -0.55174255 0.3476852 0.092463374 -1.0264654 -0.36920872 -0.12769221 -0.4536924 0.6186738 0.3643357 -0.33449715 -0.06482624 -0.20669109 0.32598466 0.12488781 0.763291 -0.39500287 0.068617195 0.5282883 -1.0102533 0.4472328 0.82543534 -0.29189172 0.7838702 0.74001396 0.24119614 -0.6088269 -0.19341932 0.57287854 0.39135444 0.13675964 0.34787986 -0.8123304 -0.4237454 0.10097193 0.5085305 0.35679168 -0.24019797 0.56880933 0.31868342 0.06847814 -0.14375865 0.31632587 -0.52427924 0.7432437 -0.5437032 0.36661053 0.70007336 -0.26099452 -0.41264346 -0.113914244 -0.816036 -0.5543226 -0.7581678 -0.22173701 0.40679735 -0.07525819 0.46199992 0.7835092 0.2554745 0.1377742 -0.19475776 0.56950504 -0.62451965 -0.18031035 -0.31792048 0.6343641 0.69135696 -0.44835147 0.071387745 1.0108804 0.29648185 0.5854292 -0.35592973 -0.40999234 0.76408863 -0.06879642 -0.22616708 0.4789766 0.23879744 -0.64352036 0.06794767 0.2778971 -1.1819602 -0.19090755 -0.83518326 -0.39353293 -0.52788585 0.083640814 0.29953462 -0.042456694 0.9142196 -0.19571918 -0.28864565 -0.18986863 -0.042657748 0.6624081 0.5715415 0.5864956 -0.37622583 -0.44095927 -0.64283836 0.6324242 -0.101386175 0.7549202 0.026215948 -0.13660337 -0.46617448 -1.0481455 0.725968 -0.9339324 -0.62213796 -0.6453681 -0.7802934 -0.017090976 0.24883066 -0.28121772 -0.5411067 0.5438272 -0.2926343
('학점','Noun') -0.7894805 0.053183164 0.39090982 0.54119277 0.597705 0.6301384 -0.7500612 -0.4546664 0.3300024 0.101484045 -0.1213549 0.27760378 1.0505617 -0.15266545 -0.45348692 0.013347214 0.4502829 -0.7970979 0.35525948 -0.24809574 0.89361006 0.068424836 -0.6414907 -0.39046973 0.41139755 0.9420911 0.052938573 0.072840884 0.5197578 0.22227389 -0.51341593 0.6855327 0.18138918 -0.023072556 -0.87851906 -0.05303959 -0.7771485 -0.913252 -0.001214901 -0.4571723 0.22072522 -0.2612366 -0.34529826 0.08646055 -0.5951374 0.031744577 0.7923519 -0.36008865 0.7343482 -0.48490617 0.06881539 0.36891228 0.22758892 -0.29568097 0.21948232 0.010885645 0.6354118 -0.8571479 0.60133165 0.07610758 0.20923182 -0.7337077 0.47501725 -0.053814765 -0.38202393 0.33043936 -0.60898167 0.25581318 -0.24460857 -0.42517695 -0.284932 0.16141644 -0.68390155 -0.21337703 -0.096677005 0.2822018 0.46535555 -0.18350454 -0.79671085 -0.37315986 -0.32118845 -0.3319546 0.16570958 -0.49032632 0.52117735 -0.013082526 0.49344528 -0.33070344 -0.21570948 -0.28141877 -0.4184927 -0.12193501 -0.4772949 0.9444038 0.6127074 -0.60266745 -0.88788736 -0.21866602 -0.15825322 -0.68404037 0.22105204 -0.34326112 -0.6933225 -0.253478 -0.25972196 0.4843758 1.022797 1.1634394 0.3071421 -0.7152095 0.8658299 -0.48784372 -0.5181458 -0.98602456 0.5030354 0.60929674 0.8014011 0.51261795 -0.8217028 -0.77389574 0.20489602 -0.34444967 -0.51456 0.5110995 0.84346247 0.74788743 -0.28161645 0.5616034 0.39494586 -0.58903646 0.81322026 0.6847591 0.80267084 -0.035825815 0.099503696 0.27052456 -0.18067868 0.6199445 0.25291958 0.1904769 -0.1873692 -0.16429499 -0.38046452 0.6363735 -0.013153562 0.7126284 0.42621797 0.7324958 0.83950585 -0.23323807
('기','Modifier') -0.9705683 -0.7784478 0.21419 0.0011758766 -0.29412374 0.56933916 0.46162573 0.6709913 -0.25234637 -0.69965553 -0.42563325 0.4623094 0.4009024 0.012879075 0.66028386 -0.7432964 0.94287664 0.1958035 0.2175875 -0.0019149889 0.3501957 0.3172426 -0.13541198 0.42318398 0.3153793 0.44794157 0.28634346 -0.9124347 0.30100465 0.095672056 0.7309393 0.09818758 -0.6307612 0.34727418 -0.07321455 -0.5660325 0.3892292 -0.7211687 0.66719633 0.8074394 0.29191232 -0.8548898 -0.8343155 0.58895516 0.652355 0.40057138 1.0050037 0.94589275 0.063294776 0.06371043 0.56659 -0.37792382 -0.91958016 -0.4945919 -0.44148594 -0.49713835 -1.037959 0.98473334 -0.7415195 -0.22498688 0.39641434 0.582045 0.40931928 0.60370606 -0.122228004 0.085423194 0.64930123 -0.20264867 -0.7592597 0.40679392 0.41101584 0.43502778 0.45394996 0.712034 -0.52264637 0.5132455 -0.77871627 0.1514238 -0.715719 0.08689896 -0.4653514 0.6861416 -0.06633301 0.15736888 -0.3107972 -0.749381 0.8992072 -0.68873984 -0.4025228 -0.28397447 -0.8022038 0.48008344 1.013527 0.71438164 -0.5967871 -0.055100657 0.15081806 -0.4888351 0.28846282 0.40613845 0.6530092 -0.44805455 0.7037338 -0.7594977 0.8282073 0.7020439 -0.4563239 0.5757346 0.31031173 -0.013105779 -0.8937856 -0.84674424 0.16072913 0.035002977 0.6338969 0.27808136 0.043692593 0.8393084 0.49858892 0.4218635 -0.023661308 0.6212927 -0.6476993 0.03759284 -0.27913174 0.5403487 -0.54953617 0.8766936 0.0869965 0.67091924 -0.47617412 -0.10005558 -0.75406784 -0.322733 -0.3619582 -0.37605658 -0.7614943 -0.8022515 0.8872048 -0.014678146 -0.44344017 0.4801872 -0.90874964 -0.7064612 -0.8839083 -0.51326233 -0.79544896 0.16480872 -0.08688069 0.67667234
('성적','Noun') 0.38005683 -0.4846853 0.9511225 0.037442207 0.21480773 0.07513903 0.70923156 -0.9605778 0.1634234 0.16961049 -0.7605469 0.9424107 1.0538894 -0.36951548 0.9791516 -0.5772146 -0.16802727 -0.3586338 -0.08821943 -0.23923004 -0.22449017 -0.67361593 0.65974593 0.9872201 -0.3549292 0.015235283 -0.38488534 -0.11111932 0.6456038 -0.68660086 0.084041245 1.0225612 -0.9260577 0.6894903 -0.7630427 -0.34664026 0.42550302 -0.4841277 0.08195879 0.5152223 0.535265 0.13685265 0.8639664 0.15753552 0.027129741 -0.13710818 0.84830874 -0.75185305 -0.17386734 0.27898684 -0.8448732 -0.58061814 0.80839324 0.30794013 0.40725273 0.46108392 0.4933747 0.2996749 0.46993583 0.46046838 0.80922025 0.8228685 -0.3802913 -0.18181354 0.97780126 0.6358382 0.37306944 -0.7555377 -0.42649713 -0.5494775 0.65939426 -0.18795139 0.82246417 -0.3793097 0.06952308 -0.45333344 0.2111041 0.12544954 -0.3833951 -0.2831931 0.01792696 0.2450192 -0.013838813 -0.44367307 -0.8283544 -0.3373038 0.33895782 0.10345669 0.6130159 -0.21779966 -0.53815144 0.82823986 0.3889315 0.45326352 -0.8685308 -0.16518427 -0.7294652 0.77956074 -0.38073993 0.19312993 -0.45463684 0.27370816 0.6101007 -0.18673989 -0.08434816 0.41040623 1.2346213 -0.3326231 0.9225827 -0.3654532 -0.8335007 0.39247644 0.56912714 -1.1262738 -0.11360879 -0.5149486 -0.2984688 0.31945243 -0.2711108 0.064206235 -0.82453424 -0.5304888 0.43262863 -0.59615874 0.43357286 0.47230244 -0.09221707 -0.25408936 0.87945384 0.45918322 0.22896367 0.45870474 -0.07550986 -0.09258557 0.49759746 0.15464617 -0.8874716 -0.8119473 0.2558204 0.47360426 0.09297121 0.13347845 -0.5659463 -0.29019743 0.5449519 0.031416878 -0.51255673 0.32856283 0.27184752 -0.16182388
('할','Verb') -0.6173836 0.16609883 0.9995971 -0.047145274 -1.1241741 0.58803326 -0.7744015 0.44803396 0.54855776 -0.91278654 0.07132837 0.35015196 0.31441763 -0.08170544 0.70006955 0.7696164 0.27995327 -0.8684633 0.7698105 0.63691944 -0.6110925 0.29546225 0.59355205 0.32818067 0.52654713 0.88206667 -0.39437538 0.49570915 -0.112320304 -1.095385 0.070900284 0.2594654 0.08076553 -0.7764919 0.039466765 -0.6501676 0.28473815 -1.0960155 -0.11761292 -0.7194028 0.40125728 0.5184963 -0.2359296 -0.5963039 0.34404323 -0.411665 -0.1921995 -0.7069117 -0.61279464 -0.023818783 0.7879509 -0.2402251 0.6337617 -0.05090371 0.59005314 -0.4259122 0.126542 -0.55434847 -0.05614077 -0.18124755 -0.4135839 0.63231117 0.20045376 -0.5781831 -0.65762657 0.23255312 1.0523169 0.19973487 0.39859203 0.45866293 0.93552166 -0.60033137 0.17332572 0.6559617 0.35139045 0.65491813 0.6733469 -0.6688027 -0.82818276 -0.48275378 0.0022085449 -0.37568125 0.48914182 0.040245794 -1.0639273 0.7162263 -0.72663975 -0.7555468 0.0016122377 0.20202264 0.15756184 1.1855061 -0.39528695 0.6812521 0.8494898 0.51968205 0.76557225 0.3016012 -0.047760457 -0.6876118 0.4612743 0.30846423 0.1138495 -0.40082592 -0.09582724 -0.4552967 0.5560164 -0.3292873 -0.27857414 -0.25605506 0.12603153 -0.020020053 -0.3626606 -1.139278 -0.92389435 0.2411349 0.4390845 -0.8622699 0.6047878 -0.3542331 -0.79162323 -0.5907005 -0.12089648 0.29054347 0.62436646 -0.8626287 0.046927877 -2.4839537e-06 0.8851173 -0.9904488 0.45063335 -0.854712 0.45010656 0.6674767 0.97224104 -0.35295752 0.43606457 0.74793553 -0.07032122 0.23365636 -0.34944394 -1.0510039 -0.39117765 -0.97862196 0.2965659 0.5783107 0.32293594 0.7906997 0.27993125 0.5805836
('프로젝트','Noun') -0.18584625 -0.38122627 0.25909045 0.6935273 -0.40773943 0.3818923 0.30507705 -0.53557813 0.48013693 -0.8800535 -0.69748664 0.124709465 -0.06356054 0.27575135 -0.5441748 0.5398463 0.52830434 -0.377285 0.37621993 -0.033028793 -0.39458925 0.6036531 -0.4927643 0.6936526 -0.20569137 0.6231697 0.21170665 0.78538114 0.7499431 0.1571876 -0.4751697 0.21844873 -0.100732036 -0.21284944 0.36971268 0.49083927 -0.492221 0.2634653 -0.7824296 -0.28816974 -0.5467832 0.19964519 -0.081793025 -0.66643435 -0.08726041 -0.44615534 0.064824425 -0.429343 -0.42622513 -0.6693887 -0.73468626 0.25720003 -0.7376674 -0.6827682 -0.6852014 -0.026018135 -0.36081466 -0.68594193 0.41784823 -0.10436103 0.81308925 0.6602624 -0.11725595 -0.3352756 0.5451615 -0.5904006 0.80315614 0.6803424 -0.48004964 -0.59232306 -0.33964622 0.17016102 0.122133605 -0.33671767 0.22588465 0.16108774 -0.999179 -0.068550125 -0.42912933 -0.6098989 -1.0929128 -0.22763242 -0.02828843 -0.30349007 0.08747545 0.08611617 0.3663341 -0.8463586 0.8280102 0.14226037 0.19230267 -0.032403614 0.07543539 0.25267667 0.2537215 0.5726921 0.67183024 0.5550916 0.28996822 -0.40518728 0.5496853 -0.23729256 0.32818544 -0.6608059 -0.1616826 -0.014011431 0.79031575 1.0304903 0.1913204 0.836938 0.47701502 0.53519887 -0.55383426 -0.5249226 0.29105014 -0.28630197 0.6450402 0.48316804 0.34290576 -0.34754995 0.31664646 0.6630115 -0.38376546 0.5211034 0.6710739 -0.25567397 -0.72477376 -0.4713531 0.8907626 -0.63507795 0.694551 -0.70633054 -0.33797562 -0.5148049 0.5658574 -0.41496423 0.4260691 0.43253466 -0.2731154 -0.20217556 -0.2221061 -0.7563927 -0.613209 -0.26891816 -0.16901043 0.6435113 0.90178347 0.9163769 0.36193743 -0.1078238
('로드','Noun') 0.31347972 -0.27764052 0.7582888 0.53322464 -0.022030268 -0.690896 0.28371078 -0.28380975 -0.07191352 0.2916012 -0.57988244 0.3198186 -0.39550754 -0.7651671 -0.06408869 0.14722869 0.00069580605 -0.45589074 0.39034373 -0.27030602 -0.29131308 0.15536709 0.2689217 -0.31306455 0.67151874 -0.14818728 -0.020603377 -0.52389336 -0.08423116 0.5154146 0.35722992 -0.4132457 -0.4103015 -0.9146112 -1.0069507 0.6664157 -0.51062614 0.10391772 -0.5717787 0.03898864 0.0013043141 -0.35490474 0.5661518 -0.07464392 0.5524453 0.5310021 0.0017501151 -0.011531297 0.03554504 0.2923546 0.36639112 -0.02549796 0.579237 -0.9552269 0.7246103 0.5260041 0.23693581 -0.9121269 -0.43819946 -0.069264285 0.18201882 -0.95213366 0.92702246 -0.5539057 0.72988665 -0.6790326 0.019019466 0.66041946 0.4731423 -0.3468347 0.87419885 -0.34313145 0.37876385 0.81592804 1.0646248 0.4750844 -0.5733348 -0.47608414 -0.1878359 -0.32447267 0.20234163 0.10157826 0.49581742 0.63212514 -0.36728504 0.43734112 -0.10137121 -0.6561075 -0.13790119 -0.9244104 0.4347951 0.5950191 0.509494 -0.53746796 -0.44519222 -0.18528536 0.27909687 0.5767339 0.8490621 0.057745926 -0.113699 -0.45552954 0.058114123 -0.07953723 0.06426541 -0.44335496 -0.11644852 -0.15780243 0.94201684 0.07852498 -0.5531538 0.28806543 -0.10629777 0.33801767 -1.0472279 0.23459639 0.23220074 -0.66073406 -0.054333143 -0.21951209 -0.018513998 -0.3128496 0.14775215 -0.43370903 0.5076604 0.8289036 -0.30755982 -0.18153916 0.3907498 0.28429005 1.0266058 -0.5737727 0.3118258 0.21202736 0.83971107 0.040140104 -0.31199807 0.39793444 -0.09450589 0.16413169 -0.65730846 -0.22679397 0.07423527 0.20208734 -0.565293 -0.3807254 0.96415985 0.39746714 0.38735968 -0.23661226
('하나','Noun') -1.1235335 -0.53379565 -0.24231046 0.9331908 -0.8069873 -0.58550143 -0.2608309 0.59362155 0.094241485 -0.9266659 -0.29378116 -0.5337432 0.36411574 -0.35804483 0.762204 0.5621763 -0.09647882 -0.6747159 0.2904981 -0.42293853 0.20900932 -0.42999652 1.0155464 0.38092402 -0.43338293 0.47320023 -0.07128274 0.6674385 0.36799586 -0.1550226 -0.26853848 -0.2965323 0.886344 -1.0105953 0.37727612 -0.65239745 -0.9155718 -0.7762754 -0.120528586 0.6678749 0.26311642 0.29832458 0.24752414 -0.2781056 0.46886706 0.37382716 -0.14888617 0.52176285 -0.36279073 -0.6976049 -0.37357828 -0.0031831865 0.41130695 -0.9013662 0.82251483 0.51398796 -0.55207914 0.34566307 0.16824421 1.1819679 -0.5687074 -0.5958314 -0.22306629 0.03939061 0.5385628 0.6066379 0.33032587 -0.49861154 -0.28118417 -0.19806793 -0.565573 0.07521487 0.08234875 0.4772748 -0.44828236 0.5316162 -0.023765415 -0.13420857 0.36167854 0.03604027 -0.85233325 -0.62944025 -0.3900646 -0.09043661 0.029018492 0.016039578 0.18073273 -0.9773511 0.45672297 0.607503 -0.5798637 -0.36601585 0.006020842 -0.017427798 0.26117188 -0.3449564 -0.39226508 0.2927523 0.34923545 -0.5646291 -0.69708145 -0.35682666 -0.12394671 -0.2751109 -0.53396505 -0.8836491 -0.061812833 0.6926905 -0.00896013 -0.8398986 0.7994548 0.21641251 -1.0653175 -1.4515018 -0.27658826 -0.024552114 0.46720505 0.68176657 -0.46921936 -0.8323373 -0.07952859 -0.44763398 -0.4011663 0.9442919 0.9842023 -0.612244 0.4224496 0.6740613 0.5700741 0.43604404 0.86852986 0.7284104 0.0417399 0.4053924 0.22261764 -0.6056385 -0.22271226 -0.102010824 -0.41590902 0.77500373 0.410343 -0.43468958 -0.6639555 0.14124255 -0.39905328 -1.0099119 -0.034557097 0.08045844 0.69469845 0.4520876
('를','Noun') -0.85701215 0.6850543 0.93398136 0.14782274 0.20161687 -0.12781334 0.7174964 0.63302296 -0.7896147 0.053138744 -1.2790144e-05 0.9781398 -0.41019762 -0.05312413 -0.85373414 0.8118343 -0.058228344 -0.34825414 -0.69196266 -0.16796489 -0.28323838 0.122427344 0.37340912 -0.9850292 -0.36023852 0.49550432 0.42977226 0.65141803 0.773969 0.2816634 -0.41046685 0.7971901 -0.479077 -0.5859607 0.42910916 -0.7563114 -0.8787396 0.50286424 -0.30301422 -0.77499896 0.3912497 0.23918568 -0.30501354 -0.7650832 -0.5111647 -0.90555584 0.7206507 0.5321714 0.7319141 0.5067796 -0.23949434 -0.8260876 0.7263237 -0.17088845 0.33332226 -0.3958268 0.31064653 0.1939169 -0.06408975 0.5612576 0.5863174 0.100657046 1.0451256 -0.5555494 0.46981752 0.18486562 -0.27194944 -0.10064522 -0.9342526 0.23027137 -0.2835994 0.8231008 -0.37535533 0.17576616 0.8023368 0.551094 0.3907227 0.67982405 0.30582404 0.74721485 -1.0991677 0.16551867 -0.37564906 -0.5455395 0.5132337 -0.7013631 -0.8055771 -0.30592832 0.48061508 -0.204952 -0.48870555 0.7985733 0.79839194 -0.279434 0.00581411 0.85807264 0.30255577 -0.852898 -0.6678563 -0.03754411 0.07359648 0.50397575 0.35617602 0.6783569 0.28205556 -0.30003083 0.8374103 1.1454072 1.2581774 -0.78285426 -0.7443635 0.6005812 -0.32966283 -1.1742853 0.00026288 -0.66993034 -0.43353546 -0.44808444 0.27578378 0.66521156 -0.97168463 0.66744494 -1.0132053 -0.5097694 -0.9118338 0.36283767 -1.1208489 -0.13917506 0.4445634 -0.028861359 0.13452606 -0.4169942 -0.74151087 0.31092963 -0.6796178 0.514243 0.4249424 -0.30382293 0.076811865 -0.33968693 -0.75835365 0.31032616 0.04074787 0.37856594 0.78810817 0.06810002 0.32342288 0.2721792 0.15690371 0.15372871
('설명','Noun') 0.102406375 0.18375173 -0.72820276 0.15706103 -0.81859684 -0.092658594 0.36590335 -0.7949747 -0.60562193 -0.46260017 -0.7768791 0.040349413 0.3050778 0.1406314 -0.5722293 0.70581144 0.24528654 0.12362796 -0.32015598 0.055308595 0.07352548 -0.29846182 -0.4880136 0.024112925 -0.08462789 -0.6871009 0.6054237 0.18059653 -0.9256529 -1.0161593 -0.30686527 0.8118313 -0.062324982 0.45478547 -0.8907706 0.75610703 -0.6299983 -0.5944376 0.5202189 -0.29361188 0.24800047 0.47512043 -0.84144294 -0.82306975 0.73452234 0.18298604 -0.8376696 0.19631298 0.85246265 0.77692974 0.08527967 -0.54497737 0.39254186 -0.7963212 -0.42547885 -0.72481984 -0.8663116 0.47949874 0.7241219 1.0903335 0.06039591 -0.27415285 -0.07550289 -0.37418693 -0.111272484 0.6961636 -0.12624574 0.12551866 0.37730768 -0.95717573 1.0638963 0.40326414 0.421461 -0.6661468 0.024575701 -0.41792572 0.058220405 -0.11434061 0.3190204 0.5102274 -0.5658794 -0.6838049 0.63751805 0.5091122 0.5941986 -0.01694423 -0.6980334 -0.08961426 0.22484607 -0.4151576 -0.80585784 1.0730832 -0.54260844 -0.17051259 -0.7067051 -0.47913888 -0.71339893 0.15014756 -0.05014145 -0.58091897 0.5037626 -0.015119705 -0.42143154 -0.2997793 0.40622935 0.31847173 -0.3378172 0.68987375 -0.19219257 -0.8166939 0.004557216 0.6222136 -0.8775046 -0.3129636 -0.9590716 0.26650542 -0.26946574 -0.25051773 0.20104459 -0.17270035 0.4175118 -0.54675347 -0.09600894 0.5409927 0.22138116 0.79987395 -0.51675457 0.9306807 0.5756967 0.46614718 0.99345124 0.3757177 -0.69789577 -0.5616282 -0.15099046 -0.5758642 -0.39690354 0.45097682 0.6342559 -0.4886892 -0.13723826 -0.045921724 -0.6713668 -0.25623098 0.78345245 -0.5569054 0.6240071 0.37317434 1.0785271 -0.27886644
('에는','Josa') -0.7987718 -0.7855301 0.65658855 -0.5948673 0.5683945 -0.12868269 0.49438146 -0.22657879 0.52949715 0.6728942 -0.24144222 0.5370574 -0.57108974 0.7116495 0.9080883 -0.343937 -0.20272847 0.6390414 0.46552202 -0.4596632 -0.35208562 -0.5994513 0.67155755 0.8079855 -0.2447554 0.79055595 -0.8062336 0.93248564 -0.7693352 0.73484266 -0.44061044 0.12631547 0.088198714 -0.17602602 0.6677421 -0.43676013 -0.27819088 -0.74897254 -0.4237449 -0.15815368 -0.708344 0.6013202 0.15791385 -0.6399183 0.000429513 0.5440225 0.54726416 -0.54796004 -0.24206422 -0.787699 -0.83108085 0.9936932 -0.039059103 -0.70638686 0.5137231 -0.46772557 0.21247917 -0.31729507 -1.027045 0.88253456 -0.29120237 0.05199725 0.29399976 -0.78485626 -0.35019678 -0.6846151 0.5151696 -0.8655911 -0.5290716 0.55131227 -0.36291963 0.40817744 -0.78143436 0.14723362 -0.1210242 0.7666104 -0.5170977 0.7109546 -0.3298591 0.66080284 -0.56072384 -0.19000909 -0.032405708 0.6901497 0.5419497 0.086351775 0.28834358 0.6533741 -0.64721274 -0.3122651 -0.6109359 -0.034454096 -0.26780188 0.095324725 -0.34893838 0.036979966 -0.19163021 -0.6483211 -0.3766081 0.44009414 0.16791902 0.054069106 0.85791594 0.48752853 0.6293768 0.81129116 0.89048576 0.036002297 0.2878005 -0.7212236 0.17407674 -0.19716418 -0.2854047 -0.8553424 0.7499772 -0.45596984 -0.5204616 -0.113609515 -0.7995312 -0.95861316 0.39071774 0.06717869 -0.4501015 0.23186088 0.36948955 -0.4294665 0.35971162 -0.032445528 -0.37589255 -0.4730544 -0.47067788 -0.21495903 0.030650312 0.50644517 0.4769432 0.07875681 -1.0158631 -0.4560549 -0.5188312 0.54269135 0.100892365 0.6207785 -0.074621536 0.85186666 -0.88968873 -0.09163288 0.56501937 0.57836723 -0.53351223 -0.12595797
('2','Number') -0.042072967 0.6749003 0.9523871 -0.18174788 -0.03230878 0.050174497 0.688526 -0.8529272 -0.47281635 0.2813892 -0.45521608 -0.45645815 -0.3917149 -0.23236549 0.4413507 0.6317358 0.81762624 0.4372444 -0.7611471 -0.43489644 0.84474844 0.32841244 -0.45206028 0.01989017 -0.18590578 -0.6900379 0.61132276 -0.11136139 0.39446497 -0.7712638 0.004297706 0.49250105 0.3385991 0.46344495 0.3999491 -0.4687673 0.6158473 -0.3612035 -0.60879356 -0.20893942 -0.4389569 0.5588193 -0.5751357 -0.46494383 0.5014619 -0.68803227 -0.050399885 -0.48969096 0.4543244 -0.16757593 -0.34437352 0.86280704 0.37670296 -0.28887808 0.119425036 0.29657128 0.33321238 -0.6040131 0.2012227 1.0275867 -0.033558745 0.16267477 -0.058518786 -0.37447813 0.6104816 -0.48354697 0.63674784 -0.45181394 -0.45119613 0.21117644 0.1539515 0.40584254 0.66855437 0.03330519 -0.58745736 0.4641397 -1.0036563 -0.5177805 -0.6455593 -0.66445243 0.37332875 -0.93201876 0.39325833 0.38532087 0.04521047 -1.0635508 0.82477415 -0.12632903 -0.4850326 0.78238153 -0.46663937 0.7261456 0.31878707 -0.8747743 -0.39402568 -0.3886633 -0.5467268 -0.07496177 0.36055577 -0.0047978354 0.24093935 0.7974504 -0.42487323 -0.37000847 0.27063647 0.6542723 0.2550876 1.0214272 0.57056284 -0.43619472 -0.7472975 0.21578519 0.50003386 -1.2852811 -0.5638226 0.72060245 0.49089128 0.46777004 -0.6442087 0.10747297 -0.32039717 0.45507073 -0.816999 -0.26302996 -0.013682649 -0.84426796 0.485998 0.12399914 0.24090534 -0.94315946 0.6470439 0.09495338 0.106992766 0.6747792 1.1350152 -0.56841326 -0.069418095 -0.5249059 -0.14686668 0.690778 0.65841943 -0.5357434 -0.044204857 0.18091606 0.5420448 0.50825346 0.4340167 0.7205065 0.71253747 -0.37552005
