767 150
('개','Noun') -0.20253396 -0.26336354 0.8068207 0.09536716 0.2702693 -0.39693037 -0.28737596 -0.6085287 0.09021149 0.7017765 0.4773349 -0.14788932 -0.31154525 -0.31695166 0.1724638 0.3038745 -0.4513687 0.32146737 -0.79136443 0.5786382 -0.65190166 0.82342905 -0.8632446 -0.51208216 0.05783864 -0.3677938 -0.44075075 0.35479933 0.3044502 -0.24936335 -0.39301413 -0.70013857 -0.5515985 0.58221054 0.07425661 -0.841236 -0.7116391 0.70371586 0.12285884 -0.68166673 0.56104684 -0.892581 -0.30667454 0.10606101 -0.2433497 0.17166007 -0.027751211 -0.068011574 -0.028251166 0.28518882 -0.13007052 -0.42386374 -0.087094545 -0.6508177 0.37272403 0.27252853 0.7739599 0.34202886 0.45046985 -0.09564638 -0.25882494 -0.28306594 0.7801589 0.2630607 -0.61807525 0.40459582 -0.7696127 0.69741887 -0.18284403 -0.023650127 0.45097852 0.15099728 -0.6280149 0.49023613 -0.108557284 -0.6861799 0.09901239 0.55365527 0.08837759 -0.5014435 -0.0251143 -0.010409482 0.65968364 0.7506262 0.5200195 0.32685933 0.09136432 -0.44375226 0.78696215 0.2659062 -0.22434437 -0.62463915 0.06707944 0.48093832 -0.3106644 0.51015526 -0.29784837 0.13269402 -0.17013825 -0.67400175 0.58987975 -0.70254105 0.41522044 -0.6442388 0.15389344 0.44883153 -0.1597474 -0.69449455 -0.37048644 0.14947736 0.08842811 0.7078728 0.34698826 0.2309484 -0.33294263 -0.43529114 0.10242399 -0.5261804 -0.008709995 0.5288457 0.2610356 0.13616468 0.083691806 0.24201663 0.36188728 -0.8564072 0.65950507 -0.090115555 0.82233083 -0.6782245 -0.5698263 0.061354026 -0.16115831 0.8214414 0.54519683 -0.63992095 -0.22054414 -0.17859508 0.7294934 -0.7389179 -0.4752821 0.5460378 -0.57003427 -0.24693993 0.7648986 -0.17402948 -0.24745725 -0.16456059 0.24926601 0.08136464
('적','Suffix') -0.21519159 -0.1239182 1.0099373 -0.17177382 0.57499653 -0.5361639 -0.5231889 -0.23126623 0.68376184 -0.29821938 0.77744997 0.014732208 0.41213945 -0.53998786 0.5592099 -0.07994069 -0.11700019 -0.12583692 0.31124535 -0.117601596 0.30939743 0.7877514 -0.42873946 0.81047183 -0.7466758 -0.5077415 0.6650988 0.1957504 -0.43484113 -0.24862286 -0.83472884 -0.6604822 0.24135795 0.5720383 -0.47430298 -0.61429024 0.89442015 -1.043901 0.6768947 0.10532723 -0.5514295 -0.17889178 0.1842198 -0.68830085 0.13317825 -0.32357067 0.6493871 -0.16255 -0.43168652 0.7791749 -0.24996334 -0.8068002 0.9771851 0.32719922 0.73973924 -0.83498317 0.72335476 -0.319811 -0.3276303 -0.7461527 -0.3763424 0.11872878 0.37010813 0.7443624 0.5389552 -0.42784724 0.13614102 -0.3391971 0.72722083 -0.20524707 -0.5772816 0.048652556 0.48736033 0.4443641 -0.038099293 -0.041489378 0.18546824 0.30695856 0.5271982 -0.6504244 -0.36991733 0.01659141 0.9052951 -0.21362703 0.35930625 0.30003396 -0.23823643 -0.24461523 -0.9600027 -0.13209377 -0.46188053 0.15703875 0.44251174 -0.29275802 0.41176042 -0.76638156 -0.62320983 0.6148654 0.3664155 0.40438342 0.3468769 -0.94893324 -0.21404643 0.6681034 -0.52844155 -0.26758766 -0.49385667 0.7552259 0.75619656 -0.87094516 -0.1340989 -0.39165652 0.27473366 -0.67440027 0.44270408 0.42647433 0.009322671 -0.84145695 -0.2692319 -0.954471 0.60681784 0.02470755 0.3967886 0.6060044 0.05162234 -0.89778477 -0.9942642 -0.28529042 -0.7252827 -0.9655795 0.20285258 0.20961842 -0.38469473 -0.17221615 0.36416885 -0.11279122 -0.05835756 -0.46322942 -0.32594115 0.43025237 -0.74851733 0.99960077 0.10983526 -0.14081168 -0.3516121 -0.79826677 0.040773243 -0.61663675 -0.6057756 -0.33147147
('번','Noun') -0.10284267 -0.68465525 0.0013802319 0.39818573 -0.38978687 0.711109 0.24909624 -0.5419825 0.25719115 0.32591227 -0.21548006 0.40920594 -0.46987718 0.6950249 -0.13009521 -0.6244521 0.119449876 0.1476164 -0.65737075 -0.17192657 0.47579175 -0.7530094 0.0118489275 0.45473364 0.39295062 0.9573983 -0.27150187 -0.19349372 0.15518083 0.4818991 -0.7301068 -0.7643794 0.41442373 -0.5932259 0.56197757 -0.19808397 0.6023462 0.074881196 0.47434354 -0.11859274 -0.6844121 -0.3594396 -0.1824367 0.78960145 -0.41285568 -0.08586904 -0.8329858 0.6410543 0.25710696 0.98301065 -0.27856445 -0.022975395 0.7818219 0.64035225 -0.6957206 0.23126695 0.6513027 -0.25364745 -0.7960682 -0.6980115 -0.33676946 0.06206299 -0.09011195 -0.5494431 -0.9036774 0.19842786 -0.29086676 -0.051417507 -0.64948636 0.37543544 0.89361525 -0.56583136 -0.04786222 -0.6992971 -0.9299595 -0.8409717 0.77772945 -0.123380296 0.3433749 -0.5232998 -0.75658625 0.8405723 -0.72243303 -0.737984 -0.47612035 -0.8268083 -0.9945914 0.36847398 0.40363562 -0.43803164 0.67844856 0.9516001 -0.8068502 0.14877415 -0.2942858 -0.07053729 -0.23362185 0.70315766 -0.46634158 0.65045863 -0.5831814 -0.8179257 0.5133513 -0.6146204 0.34318554 -0.3505979 -0.5670669 0.26422888 0.7990185 0.20080346 0.77730095 0.17497994 -0.23625545 0.41557798 0.629973 0.1965809 0.07751163 -0.5940256 -0.67015773 0.32473904 -0.8384151 0.3276779 -0.6935117 -0.5398662 -0.45825458 0.6195663 0.095396005 -0.08556633 0.9784991 -0.6390055 -0.5557345 0.27973118 -0.67456067 0.85332173 0.60331744 0.28142232 -0.2089713 -0.5498548 -0.098424025 0.3252948 0.8661675 -0.2677285 0.07942812 -0.712558 -0.40375036 -0.8344811 -0.11634964 -0.49862552 0.44763163 -0.48417997
('2','Number') 0.20186698 0.79234123 0.40009815 0.13103987 -0.125862 -0.7031352 -1.046869 -0.23105259 0.60691243 -0.00037680173 0.8719225 -0.78007567 -0.601118 0.27406493 -0.83094335 0.5711497 -0.38495204 0.6279248 -0.7509495 -0.33634514 -0.44083077 0.23131974 -0.95358086 0.9475618 0.15895724 -0.15428783 0.6537384 0.2978994 0.44793752 0.6525588 0.19960092 -0.68603307 -0.552657 0.6043073 0.23083512 0.63570577 -0.1992454 0.28033304 -0.48132962 0.41844833 -0.82721764 -0.59962106 -0.035188235 0.05386757 -0.24704848 -0.617661 -0.38788998 0.06263312 0.59378505 -0.4871086 -0.12009121 -0.23745045 0.4028487 0.9687399 -0.42402288 -0.28933573 0.72141 -0.035046175 -0.04437721 0.019523561 0.40157625 0.8924839 0.6292646 -0.09018725 0.6392808 0.1021542 0.086427994 0.74277705 -0.4123703 -0.15090147 -0.075322405 0.46768618 0.07025174 -0.23844688 0.46482313 0.930477 0.9219686 -0.023515131 -0.77057624 0.18975899 -0.8127384 0.7168091 0.58385295 -0.9164708 -0.24148205 0.11057263 0.26021436 0.3023304 0.16371004 -0.031122526 0.5582003 0.40459365 -0.7430355 -0.07986343 -0.24125765 -0.59239596 0.017784808 0.1373538 -0.13741711 0.7648016 0.26631966 -0.020865219 0.0038029156 -0.87452835 -0.3570313 -0.5823925 0.72212946 1.0764692 0.9556053 0.7824058 -0.2719845 -0.73302233 0.77043945 -0.35837686 -0.21471931 0.67712593 0.29191974 -0.9213508 -0.7948397 -0.3700407 0.43816775 -0.6266563 0.73758775 0.5426358 0.9826885 -0.09969004 0.5076121 -1.0015466 0.24972467 -0.92180717 0.62595874 -0.02935824 0.4663696 0.7288546 0.32313076 -0.14457111 0.64344466 -0.29602268 1.0904638 -0.89659125 -0.64920586 -0.74429035 -0.6473521 0.38116494 1.0552409 -0.0215222 -0.021201964 0.70328665 0.762271 0.47268224
('수업','Noun') -0.8414057 -0.5022559 -0.72086376 0.89596426 0.68153113 0.23122627 0.030611824 0.38522825 -0.40446055 0.72153485 -0.63585943 -0.4929379 0.984649 0.838766 0.47290972 0.16912025 -0.08787278 -0.8104438 -0.8115751 -0.28778 0.451465 -0.4428951 -0.6490532 0.85693765 0.7480615 0.3315266 0.03267964 -1.0350322 -0.5520173 0.45909944 0.3746506 0.30359197 -0.29942867 -0.27826738 0.28198728 0.2920158 0.5321942 0.3866472 -0.024911195 0.5066658 -0.5873698 0.33215815 0.37156734 -0.70232296 -0.0744508 -0.3327363 -0.48970783 0.5297493 0.19532847 -0.011011196 0.021351546 0.16772763 0.34705257 0.035722274 0.013324254 0.55218226 0.9916493 0.0853545 -0.5632476 0.5514921 -0.41613343 -0.942956 -0.29301053 -0.08930077 -1.0214325 0.21058328 0.39155912 -0.8823282 0.70034915 -0.3234439 0.24523854 0.6620495 0.24892613 0.8580781 -0.49551463 0.063989714 -0.7510228 0.90267843 -0.5650731 0.09861642 -0.07752638 -0.5138571 -0.09146953 -0.3520742 -0.7770253 -0.14613317 0.5193631 -0.17288893 -0.47115895 -0.74702394 -0.39970824 0.24235833 -0.32277617 -0.30083597 -0.90397733 -0.88232744 -0.53859144 -0.14903763 0.8600505 0.33860752 -0.3404809 -0.5061822 -0.27647182 -0.7490726 -0.1037206 -0.74805987 -0.4964232 0.43055385 0.090925686 -0.41251007 0.12686256 0.08029689 -0.16710857 0.6563887 -0.5564829 -0.40867245 0.16762814 -1.199548 -0.1295353 -0.39775956 -0.46192098 -0.5449021 0.6672402 -0.08473389 0.8948254 0.07422174 -0.83351237 0.7168828 0.095612966 0.006048536 -0.09123883 -0.80398405 0.8243599 0.7316885 -0.5086098 0.64188135 -0.8015313 -1.0335425 0.5386538 -0.122758865 0.59650236 -0.7323648 0.7616291 0.67584455 0.2771101 0.017806772 -0.027890792 -0.66151494 0.3494968 0.8395625
('시험','Noun') 0.7948443 0.6524313 0.20278376 0.8261827 -0.20520876 0.3617419 0.21919906 -0.66301894 -0.12508753 0.82195944 0.025360238 -0.5471252 0.1627536 -0.6758216 0.46103612 -0.8106565 -0.52891535 0.43515047 -0.544546 -0.30343077 -0.41116574 0.17146933 -0.23521638 -0.8818721 -0.18018292 0.1635409 0.8366645 -0.89467865 -0.27782813 0.62841743 0.3533853 0.30235296 -0.41803047 0.3248227 -0.0008808131 -0.24973218 0.7672328 0.60999316 -0.19064748 -0.30657685 0.8768319 -0.4925595 -0.77742267 0.38627884 -0.6295872 -0.8908145 -0.72970015 0.13144667 -0.091903776 0.22108443 0.7809615 0.26561922 -0.2699751 -0.44667822 -0.7969742 -0.3382786 -0.511273 -0.2623112 0.54391253 -0.1554301 0.25299004 -0.78741986 -0.8511036 0.31295958 -0.9600114 -0.8130508 -0.5346607 -0.647167 -0.28689873 0.034964964 0.59795594 -0.85233575 -0.8284727 0.043209452 -0.836082 0.67625475 0.57347876 0.84741867 0.19577628 -0.25148997 0.6229969 -0.8897453 0.51829374 0.54981697 0.12848496 -0.13291857 0.34315294 0.42441526 -0.5577092 0.3390847 0.7325159 0.46468806 -0.42853484 0.5939245 -0.6079605 -0.39332375 -0.2839619 0.71682096 -0.1622147 0.82852775 -0.0475206 -1.036566 -0.61334336 -0.5592602 0.17226163 0.77748346 0.7251433 0.79895395 -0.38743025 0.2746566 -0.032944858 0.43563262 0.5559638 -0.32041746 0.8417063 -0.70140857 -0.42621073 0.6548944 -0.23955068 0.07691496 -0.7701679 -0.2135866 0.22774695 -0.07187253 -0.6144067 -0.8074 -0.4776207 -0.925404 0.5000738 0.809604 0.43157187 -0.79541653 -0.5093464 -0.14834425 0.8180173 -0.40503025 -0.74106497 -0.49293306 0.53320044 0.14567448 0.7245289 0.602408 -0.95292056 0.36311868 0.61045057 -0.20682621 0.6122366 0.27841967 -0.6049849 0.0053907703
('시간','Noun') -0.9053406 -0.48142052 0.84660864 0.054983824 0.0726325 -0.7251102 -0.7080486 0.1479374 0.9255505 -0.18694982 0.4889872 -0.5503893 -0.29590577 0.76687044 -0.11125485 0.2371231 0.6748868 0.42640328 -0.6189656 0.97560847 -0.7301593 -0.00716821 -0.16028854 -0.10326997 -0.1052381 0.60826534 0.13407749 0.46522865 0.6038898 1.0364479 -0.8187592 0.41335505 -0.22394946 -0.35593984 -0.59221333 0.8561164 0.009096207 -0.4318254 0.21164274 -0.36076334 0.47706395 0.631635 -0.89173925 0.8997905 0.49221364 -0.64013076 0.09171507 0.76625204 0.9182011 -0.77903455 -0.044190213 0.7516549 0.31870973 0.8602361 0.13921954 -0.60585666 -0.3551384 -0.7182556 -0.38496825 -0.21780166 0.51962626 -0.65603375 -0.70596826 1.1149725 -0.15197901 0.5646078 -0.733172 -0.27793157 0.25126874 0.44041115 -0.48602962 0.17826967 -0.66193366 0.5103755 -0.109441005 -0.47112727 0.030892577 -0.4322372 0.4265961 0.060952228 -0.873317 -0.4312737 -0.7789763 0.49714985 -0.33109027 0.24112372 -0.8459566 -0.42539632 0.39829913 0.15844347 0.22380261 0.20738329 0.25052187 -0.10073862 0.014828673 -0.069667526 0.31604144 -0.51066166 -0.078257844 -0.12710638 0.5286475 0.6816168 0.19129021 0.58742553 -0.24276946 0.58733714 -0.77868885 0.70670575 0.10839357 -0.55071265 -0.16926827 -1.0217209 -0.93280715 -0.056671962 0.2966409 0.94848263 -0.2004449 -0.069987334 0.18951426 -0.70570654 0.35651827 -0.8956411 0.8341312 0.5995954 0.055521566 0.2924589 -0.8335143 0.26436144 -0.01302549 0.39733547 0.69140303 -0.5136068 0.70456576 0.19207832 0.4063579 -0.5983201 0.16068661 -0.7005606 -0.010123573 -0.47501227 -0.65625787 0.15322495 -0.5313164 0.107921734 0.76106864 -0.6596982 0.31173077 0.22016856 0.6420157 -0.026481293
('문제','Noun') 0.71463424 -0.8282965 -0.87737024 -0.39086857 -0.68571407 -0.30378667 -0.7851646 0.6377141 -0.05175104 -0.2819587 -0.5874744 -0.30725935 0.8412652 0.9339379 -0.6689858 -0.95031625 0.5290432 -0.4880603 -0.45534965 0.6505452 0.8544549 0.28915867 -0.354076 -0.5909626 -0.73908305 -0.48832628 -0.15627384 -0.7436714 0.84044737 1.0553436 -0.76777804 1.0168267 0.6862683 0.7078011 -0.24863634 0.73374724 0.12764083 0.066771165 0.9814523 -0.20343778 -0.36901823 -0.551169 -0.8294889 0.8617361 0.42480877 -0.028228471 -0.7900378 -0.24716708 0.54776007 -0.32371512 -0.2461575 -0.24204424 -0.78200126 -0.110745676 0.10028296 0.7895785 1.203327 0.26946244 -0.43568376 0.16453606 -0.9382343 0.70286095 -0.07392202 0.887716 0.5286283 0.6243075 -0.10003398 0.5093377 -0.45603582 0.3041656 0.5962289 0.3451155 0.29867285 -0.8735786 0.7615516 0.892164 0.081308424 0.6372677 -0.36463848 -0.11026277 0.034819487 -0.7662027 0.261691 0.87850636 -1.0040933 -0.45512095 -0.46785098 0.42181286 -0.11336912 0.7326495 0.56071335 -0.49444965 -0.20776547 -0.004132819 0.12005721 -0.6272101 0.10369641 -0.15152553 1.0059525 -0.69811136 0.62690806 0.007973517 0.7116973 -0.4548539 -0.35200644 -0.51091135 0.35298163 0.29970637 -0.8936411 -0.2587131 -0.03519071 -0.864291 0.39612696 0.048819203 0.903331 -0.6627235 -0.34124702 -0.7922601 0.7453379 -0.36855593 0.72500587 -0.03735385 1.0077279 -0.024980493 -0.4199275 -0.24542025 -0.80646574 -0.46936098 0.6165282 0.2476372 -0.6091101 -0.3270199 -0.7167482 -0.7737597 0.9118793 0.08383841 0.52877057 -0.71582705 -0.12592289 0.26744673 -0.65689707 -0.576333 -0.17497294 -0.20214705 -0.3910593 -0.97078264 -0.7009211 -0.55969745 -0.04827718 0.3548647
('중간','Noun') -0.4935766 0.551732 0.45435232 0.98527795 -0.69082487 0.7525515 -0.4269555 -0.15120424 -0.31609643 0.36586398 0.6764774 0.9001712 -0.6534446 -0.22653116 -0.92788583 -0.6544163 -0.35037476 -0.7118878 -0.635455 1.0518496 0.56984234 -0.33746475 -0.9567368 0.06623752 -0.33777422 0.68570423 -0.3090375 -0.78423184 -0.91763777 -0.34710804 -0.24489397 -0.9945251 0.037703026 0.66627365 -0.8502815 -0.44916576 -0.41970074 -0.048376616 0.38504905 -0.05490554 -0.92869806 -0.62392837 -1.0708108 -0.19268471 -0.37867203 -0.40307868 -0.46719402 0.8453656 -0.53862965 0.82268023 -0.7693478 -0.6623535 0.7870171 -0.81983155 -0.16518523 -0.2981963 0.31932512 0.087117486 0.04206928 0.48499817 -0.9830962 0.18922411 -0.9176893 0.33440742 -0.29301593 -0.045248706 0.6198401 0.39307806 -0.33925244 -0.16998954 0.5685249 -0.5234051 -0.49422258 0.4881171 -0.001872802 0.6627264 -0.15222763 0.014717345 -0.30238166 0.565502 -0.7142586 0.30017713 -0.09759233 0.056915425 -0.5053743 0.4363115 -0.014201313 0.45093265 0.12271851 0.8259291 -0.15840177 -0.8881461 -0.0800011 0.06594031 0.56922567 0.7650019 0.093835235 -0.08794969 -0.06899551 0.9664129 -0.21615654 -1.0265946 -0.6935938 -0.89844644 0.98866886 -0.47700462 -0.80966043 0.2906922 -0.3637036 0.004354357 0.62611055 -0.29253507 -0.24330455 0.36793718 0.88396317 0.6981316 0.58329815 -0.2656316 0.6327286 0.73417264 -0.32507053 -0.5382977 0.01690061 0.047617458 1.0755903 -0.10429944 -0.12109056 -1.0776614 1.1429806 -0.045530077 -0.35467345 -0.14253567 -0.8928153 -0.18705499 0.792475 -0.5292178 0.70890117 -0.25050005 -0.72988755 0.88437855 0.67605853 -0.38857004 0.77841365 -0.5945728 0.9945529 -0.4225596 -0.13992734 -0.2461003 0.27157977 0.15348157
('3','Number') 0.3770399 -0.20745873 -0.12658958 0.85930705 -0.29892042 -0.6057398 0.03131093 -0.5342088 -0.29496405 -0.10146202 0.6003922 0.60981 0.8874364 0.7522902 -0.9002226 -0.8123083 -0.8565287 -0.9985734 -0.5786313 0.79016554 0.7914126 -0.5333617 0.069108285 -0.87426853 -0.42752707 0.9856559 -0.5746503 0.35663658 0.071412235 -0.72293454 0.24716026 0.0366707 -0.5243532 -0.19186094 0.80677205 0.83374304 -0.610752 -0.18358964 0.8442826 0.86384094 0.32522643 -0.4641107 -0.49644816 0.56400645 0.717567 0.19021522 0.13994 0.8923091 0.6244022 -0.7844215 0.6568149 0.17262979 -0.7117364 0.5117669 0.53317297 -0.7770971 0.6390493 -0.67117625 0.8769978 0.63329685 0.46729755 -0.16057938 0.6923549 -0.48459995 0.56208354 0.6293865 -0.6299662 -0.93315387 -0.4731972 -0.09855624 -0.22210038 0.29333663 -0.7127103 -0.51830655 -0.04949072 -0.3755658 -0.21304595 0.57402503 0.73345494 0.60672 0.4783218 0.055573605 0.062010936 0.65257734 -0.5161121 0.25262493 0.5527979 -0.6852293 0.3820618 -0.5409308 -1.0555618 -0.14069179 -0.13318098 0.667076 -0.9350039 -0.948563 -0.46242628 0.01634076 0.47117886 -0.56852967 0.7246018 -0.77294475 -0.26548815 0.02332363 0.45692623 0.75663084 0.4313913 0.53235114 0.26932383 0.7389984 0.26253954 0.4301447 0.11654815 -0.524176 -0.50106096 0.57394266 0.029529966 -0.5762031 -0.6995701 -0.6382259 -0.014229412 0.5944746 -0.35892215 -0.82639146 -0.73266697 -0.6857948 0.6075644 -0.30971715 0.66499525 0.13663357 -0.4113362 -0.8576092 -0.78283507 -0.36790588 0.7403186 0.5975515 -0.80711216 -0.009324981 0.76206106 0.21111213 0.2729612 0.26856795 -0.91307104 -0.2831025 0.6283884 0.10096223 0.24530701 0.49997783 -0.77148104 0.7548422
('학기','Noun') -0.7054021 -0.69042903 0.98210895 -0.2311909 0.2618841 -0.8647869 -0.797613 -0.34642673 -0.17376913 -0.38537014 -0.31685272 -0.4327769 0.29381952 0.5073246 0.11934348 0.21868622 -0.78386724 0.19511957 -0.5015111 0.957323 -0.48163998 -0.3836754 -0.8004137 -0.031333923 0.7365865 0.5201859 -0.2701362 0.11576913 -0.1529554 0.38366067 -0.21064761 0.6252831 0.5855092 -0.5599315 -0.57398075 -0.71031547 0.70517695 0.22242671 0.9651487 0.7738302 -0.14926976 0.23338915 -0.037922386 -0.50717574 -0.23420486 -0.72746843 -0.69515103 -0.7277679 0.7659506 0.55716807 0.9203137 -0.909902 0.6220683 0.2855035 0.5867498 0.70079166 -0.37640896 0.08752949 0.51187015 -0.33080757 -0.7200124 -0.35745925 -0.35902074 0.88580465 -0.24374801 1.0607626 -0.27218825 -0.24489184 -0.3005103 0.49150178 -0.0015778099 -0.7515979 0.11382699 -0.28043976 -0.63398194 -0.8625851 -0.3256834 -0.07317749 1.3323615 0.52978826 0.15476018 -0.39101902 0.09782095 -0.37577656 0.18602577 -0.2653152 0.5722029 0.6172777 -0.87861603 0.123466074 0.20828216 0.22560504 -0.67134863 0.2784591 -0.16592835 0.5431264 0.49685308 -0.038600437 0.69010085 -0.19482875 0.54133475 0.5961966 0.3100002 -1.0707192 -0.2742974 -0.59287953 -0.7310132 0.47675526 -0.7050622 -0.18131965 0.20248711 -0.46474573 -0.8720231 0.46180207 0.37040848 -0.31969124 -0.91005903 0.14967638 -0.91559076 0.8443781 -0.33550102 -0.3462645 -0.12369427 -0.7616378 0.23031862 0.2837499 0.42057782 -0.12392419 0.32971978 0.27981293 -0.51982737 0.7049925 0.5254682 0.6529925 1.080182 -1.1665417 0.46396428 -0.5950863 0.77830595 -0.7878335 0.8647809 0.5212828 0.60668695 0.7381741 -0.42622125 -1.0396103 -0.37525004 -0.16149779 -0.8014342 0.07949736
('4','Number') -0.879056 0.7946052 -0.2739646 -0.44697836 0.6045731 0.0076702144 -0.6273846 -0.10357326 -0.013698852 -0.26892528 -0.5832191 0.81209856 0.12019053 0.66231066 0.69159174 -0.7079749 0.3916142 -0.49058098 0.17363371 0.41210124 -0.31873706 -0.6952012 -0.20874663 0.4376205 0.4269463 -0.7506317 -0.42718166 0.47061646 -0.028409733 0.48990944 -0.9151133 0.5420348 -0.3217836 -0.4403907 0.35568282 0.2537374 0.0656308 -0.33804205 0.87212723 0.44472644 -0.15006085 0.06352199 -0.23654796 0.9632193 -0.018306697 0.0031843411 0.1883834 -0.518461 -0.39405107 -0.40736192 -0.2769708 0.45517796 -0.647024 0.98835605 -0.27048722 0.11575029 -0.28499404 -0.33482742 0.7504655 -0.74140763 -0.80901635 -0.66565007 -0.84573215 -0.29409108 0.31765604 -0.1003782 -0.34845817 0.7983217 -0.018785922 0.71431124 0.8317618 -0.43380696 -0.6669141 -0.09051615 0.022663932 -0.07051656 -0.17141944 0.56131667 0.8627454 0.88149875 -0.033191655 -0.8746638 0.8423676 -0.5924388 -0.6347497 0.70175767 0.5534593 -1.0789902 0.61090773 0.20724101 0.79898363 -0.857848 -0.055402145 -0.55694354 0.09800095 -0.6702492 1.0286926 1.131905 -0.44613978 -0.3947141 0.95271516 -1.0492395 -0.4797365 0.0618462 0.14140922 0.7126775 -0.0030349072 -0.32919332 0.3224662 0.27399272 0.48969403 -0.7821506 0.2889016 -0.7191001 0.015451097 -0.6422193 0.6616303 0.016125169 -1.1101238 -0.8938577 0.9391878 -0.5529922 -0.07743115 -0.31033927 -0.113180764 -0.75135875 -1.2780257 -1.3023801 -0.018974155 -0.005500877 -0.41060832 0.24560198 0.6824519 0.17424124 -0.20121233 -0.24643473 -0.884402 -1.4904193 0.1147339 -0.33728164 0.9659677 -0.37545696 -1.2419395 -0.84767824 0.74004465 -0.80094266 -1.0248461 0.90476304 0.37970045 -0.32224706
('이','Determiner') -0.5906061 0.67761093 0.5560923 0.71856236 0.72716844 0.22898796 -0.6455642 -0.5959334 0.421558 0.027916363 -0.44024855 0.70783585 0.31528276 -0.20735432 -0.1080303 0.6061314 -0.033609968 0.6946232 -0.98650885 -0.12741722 0.067468084 0.05461478 -0.4570772 0.3349896 0.2510614 0.22457331 -0.00479493 -0.43508795 1.0160171 0.20609948 0.066254094 0.63738763 0.06670789 0.51820576 0.19897924 -0.8393508 -0.2499177 0.22545278 0.802977 0.30056578 -0.044460107 0.39535064 0.6943452 0.64013505 -1.0270748 0.5325505 0.25735614 0.040366992 0.28450087 0.42094943 -0.37745726 0.549198 0.9040672 0.0069752 -0.5442417 -0.20731659 -0.077157415 0.6597255 -0.40216327 -0.1419435 -1.0000198 0.4209803 -0.46310264 0.4848457 -0.8947365 0.118989974 -0.67142147 -0.04990284 -0.44146636 -0.8457977 -0.72686094 0.3439745 0.788114 0.4080709 0.9545682 -0.37571564 0.9454966 -0.6758057 -0.31213352 -0.26144993 -0.31157732 0.07682893 0.46273065 0.20145941 -0.11548223 0.1064961 -0.29823685 -0.61962664 -0.33501154 0.8084647 0.30983582 -0.4726496 0.01653142 0.09300244 -0.9213024 -0.47939867 0.68042487 -0.19271792 0.4070708 -0.8561104 0.5375774 0.14592826 0.071309544 0.41557157 0.18856663 0.5257506 -0.09203253 0.87210906 0.27557644 -0.6794957 -0.8789616 -0.9466894 -0.42647615 0.3558389 -0.034666583 0.1323047 0.041228324 -0.096634544 0.2883181 -0.3906508 -0.4994969 0.38834506 -0.39156196 -0.39000195 0.21196137 -0.55331725 -0.8168375 -0.047189824 0.3838637 -0.667989 0.4841275 -0.724975 0.36099324 -0.99814034 -0.6936571 -1.0879066 -0.0011965081 -0.40087834 -0.04892269 -0.33773482 0.5265422 0.23870197 0.27475682 -0.28060618 0.14665776 0.10966183 0.24852826 -0.32693166 -0.25349373 0.6841001
('과','Josa') 0.057747897 0.6285242 0.8271262 0.5341134 0.56863475 -0.23686679 -0.94735354 -0.5381528 -0.34389684 0.122557364 0.9417236 0.6344676 0.03672072 -0.74923337 0.49158785 0.66707706 -0.061539445 0.9134749 -0.45476776 0.2040473 0.35088506 -0.6285254 0.6979527 -0.7735251 -0.32758272 -0.03195922 -0.08028143 0.26343107 0.15876007 -0.7194456 -0.7277462 -0.98927397 -0.11143397 -0.30148143 -0.11030403 -0.20175612 0.61216336 -0.9206947 0.57811195 -0.42965984 0.0867058 0.59051526 0.5891173 0.4897716 -0.19941132 0.6293522 0.36171272 -0.9187473 0.4865069 -0.05920597 -0.5994909 -0.098733075 -0.33072516 0.3229366 0.02289806 0.7998878 -0.11479345 -0.98096704 -0.25808305 -0.53577626 0.4364407 0.18883692 0.75639313 -0.5235478 -0.2501024 -0.8690714 -0.77979094 0.34967247 0.32231554 0.920528 -0.7940602 0.27976596 -0.7529328 0.038914353 -0.09845909 0.2002012 -0.4428691 0.54313767 -0.1438639 -0.85924363 1.0489867 0.5127993 -0.7847484 0.83309454 -0.83589816 -0.5995952 0.22714312 0.42524633 0.3114181 -0.001110303 0.8629584 0.38140053 -0.6482583 0.013233658 0.5871495 0.8684228 0.33812284 -0.3993204 -0.22797135 0.5506226 -0.4536282 -0.8898685 -0.16028361 0.76527566 0.5532548 0.018730732 0.83342195 0.84391695 -0.6099959 -0.22926351 -0.7225555 -0.23738682 -0.9077911 0.30872682 0.021696422 0.63492554 0.81391895 0.027426722 -0.99400085 -0.2582618 0.71414614 -0.55692464 -0.78569704 0.4373583 0.1161545 0.13542536 -0.56138706 -0.8799009 0.16448584 -1.0132804 -0.8346494 -0.58919543 0.16164003 -0.9438294 0.91705894 -0.91055816 0.57870555 -0.57357085 -0.45193964 0.6365267 0.059744406 0.40713492 -0.9537639 0.7409772 -0.82186323 0.6487914 -0.5673944 -0.5000579 0.52040315 0.46531305
('1','Number') -0.992599 -0.7955447 0.93285197 1.0916568 -0.37942052 -0.33514938 0.24321914 0.012537429 0.9371916 0.5280639 -0.11893 0.24106377 0.22715075 -0.68958956 -0.47868553 0.3391132 -0.64181656 0.14569224 -0.76423043 0.14171909 -0.7815021 0.6856345 0.38277137 -0.8025303 -0.56197137 -0.49613625 0.19046304 -1.2455381 -0.58574814 0.3095575 0.013253713 -0.1791229 0.6432442 -0.16917118 -0.6126945 -0.54075164 -0.51216483 0.3950139 0.96986914 -0.39869422 -0.10098815 0.18684295 -0.18116415 -0.6213896 0.102864064 -0.76853126 -0.056702867 0.1961615 -0.18443508 0.038268607 0.8498026 0.46853 -0.15226714 0.39424765 0.03516681 -0.26506844 0.5837861 -0.70780003 -0.38496333 0.64495146 0.38994965 -0.49198562 -0.41970244 0.35960296 0.6651606 -0.36542243 -0.97509605 0.80790967 0.42689914 -0.5244187 -0.6940783 -0.685714 0.7207274 0.6050887 0.019227978 -0.69016546 0.8681223 0.1602186 -0.4999391 1.1046137 0.32620132 -0.051058725 0.20753962 -0.7852318 -0.44592667 -0.16810185 1.0057667 0.11031799 -0.42832235 -0.82518065 -0.42155382 -0.008126428 -0.40857854 -0.4277057 -0.56253874 -0.6957716 0.8069923 -0.019111456 -0.18679778 -0.2777688 0.8006456 0.39778772 0.47306168 -0.1758227 0.114328705 -0.5805962 0.9593476 -0.16541958 -0.07405928 -0.34149778 0.0028338872 -0.14815289 -0.61640733 0.8658165 -0.062158458 1.1196592 -0.49982223 -1.0852556 -0.46534485 -0.6380608 -0.6595282 -1.0987072 0.76523995 -0.3356861 1.2093785 0.56745285 -0.29564956 0.44125617 1.3526722 0.50422 0.20978095 -0.48059872 0.64373314 -0.61981934 -0.17268868 -0.99396056 -0.5937849 -0.10552799 0.43527275 -0.9227398 -0.7200718 -0.025239164 0.517666 -0.77877724 0.2613921 -0.045589726 0.89169866 -0.960093 0.7298463 0.38325226
('말','Noun') -1.0153428 -0.8343865 -0.55028737 0.0962717 0.3435866 -0.13728411 -0.2349522 0.5343089 0.29669753 -0.63984686 -0.6061554 0.6246723 0.57113844 0.033667885 -0.00073130487 0.27787724 0.09364315 -0.65882486 -1.0170279 0.8855978 -0.8001263 0.5929226 -0.07990907 -0.296007 -0.102364995 0.72586733 0.8393154 -0.9682698 -0.57197064 0.24589193 0.60750425 0.2782649 -0.47224063 0.95257765 -0.14975488 0.7989238 0.21986285 0.4560645 0.20346706 0.43461335 -0.6795124 0.3357351 0.5984151 -0.11292623 -1.0155766 -0.36086637 -0.68946725 0.80096245 0.7011821 0.63634926 -0.6057028 0.23208627 -0.7071216 -0.5745924 -0.41354698 -0.3991868 0.43289757 0.13923922 -0.6334364 0.35241845 0.26054272 0.2740861 0.85069805 0.3831113 -0.6968569 0.76503855 -0.2936034 -0.3278942 -0.49873167 0.12544282 -0.44568068 0.38508052 0.6511903 0.23073833 0.34728795 0.24702151 -0.55569094 -0.5915071 -0.38343605 0.60633326 -0.79253113 0.8587769 0.73557717 0.64198506 0.4802605 -0.6214597 -0.1925731 -0.75131774 0.110918984 -0.81326425 -0.23666896 0.5336968 -0.5865938 0.3406089 -0.06254251 -0.8959999 -0.101969525 -0.15909053 -0.30132735 0.2265585 0.6495986 -0.5543363 0.6364005 -0.00082743866 0.82288736 -0.015202031 0.020582924 1.0299066 -0.16965066 -0.17813684 -0.36974517 -0.9919599 -0.40769222 0.2614062 0.1710389 -0.33159602 0.031001545 -0.271244 -0.02519623 -0.76777244 0.8643434 -0.4527657 -0.53720284 -0.49311227 1.0741334 -0.33608085 -0.65400594 -0.40537065 0.83716 0.13010766 0.7783254 0.17618763 0.02315926 -0.59944344 1.2418513 -0.32651684 0.59255195 -0.99388015 -0.64717966 -0.05888707 0.377104 0.008914662 -0.94012105 0.09207299 1.0499817 -0.02409978 -0.058779124 0.108236134 -0.6469876 0.97647834
('5','Number') 0.62741053 0.66063744 -0.11743344 -0.19477785 -0.5191873 -0.7737321 0.047879435 -0.5891656 0.8372297 0.17610887 0.34408066 1.0699538 0.05862776 0.30007488 0.10753445 -0.80750024 -0.4261873 -0.25919184 -0.64560306 -0.6382539 0.27457952 0.3116078 0.16068326 0.7361662 0.36840576 -0.36273715 0.10138501 -0.7850885 -0.4409938 0.09756996 0.5403213 -0.26728016 -0.5863244 0.3205404 -0.49769434 0.18004337 -0.437289 -0.084664464 -0.11846171 -0.23379363 0.6767144 -0.079516135 0.7830931 0.8292352 -0.73183 0.40668002 0.33601105 -0.02408067 0.19629446 -0.4396979 -0.43204856 0.26787385 0.4364502 0.4172348 -0.1473618 -0.11216044 -0.5568996 -0.9143474 -0.96479344 -0.603596 -0.946595 0.44955274 -0.94751406 0.8710888 -0.22043917 -0.772072 0.8317212 0.37769157 0.266003 -0.892907 0.985026 -0.8121066 0.5923289 0.552156 0.01689533 -0.16216613 0.82671106 -0.0904035 -0.3697326 0.8500362 -0.14886145 -0.5311318 -0.654683 -0.93721384 -0.89110786 -0.4772785 -0.070070446 -0.5142294 -0.05446186 -0.51881266 -0.27457967 0.27593812 -0.40653318 -0.017381152 -0.06338014 -0.9726047 0.53534275 -0.5945266 0.4991789 -0.048981976 0.9609593 0.029514397 0.82070565 0.055443857 0.79499507 -0.70595604 0.69704884 0.917992 -0.3056917 0.11297149 0.33815634 -0.7795794 -0.5691478 0.13418303 0.25670633 -0.17011957 -0.7056972 -1.105661 0.3098178 0.1155781 0.32213402 0.29527506 1.0205683 -0.9563957 0.5001857 0.7061409 -1.0997974 -1.0426015 -0.2207142 -0.28404963 -0.9877011 -0.8972157 0.2588954 0.57295 0.86541694 0.18306254 -0.5472055 0.53812677 0.58444214 -0.00041774768 0.22123435 0.42396623 -0.65681255 -0.42749596 -0.7637544 -0.31224853 -0.49523574 -0.32466152 0.5352457 0.15396355
('구조','Noun') -0.09473055 0.06219597 -0.69327736 0.29852435 -0.78523123 -0.8139745 0.36034325 0.5166849 0.4726456 0.75351024 0.5568423 0.11813078 0.60662395 -0.2852602 -0.66072035 0.6005757 0.023152903 -0.58908534 0.07988881 0.077649474 0.537214 -0.29965284 -0.1524767 0.34715885 -0.39205256 0.62160015 -0.7119377 -0.2169197 0.75648206 1.0097536 0.03867719 0.6866555 -0.96535003 0.7206891 0.16924572 -0.85334796 -0.22253469 -1.0386027 0.9692416 -0.0638421 -0.120971784 -0.6877605 0.32014015 -0.09195525 -0.15900119 0.53874147 -0.037918746 1.0272036 -0.662847 0.53982234 -0.4393158 -0.052855626 -0.7707011 -0.7190384 -0.67153156 -0.21539122 0.24550368 0.89497924 0.0153095275 0.21418701 -0.83363193 -0.03391841 -0.3746759 -0.61986285 -0.7932488 0.67943484 0.3454497 -0.85415095 -0.6731588 0.6866129 0.54698396 0.14003162 -0.19292292 -0.6713429 -0.39240384 0.16573587 -0.6923023 -0.46490917 0.6475948 0.01766998 -0.041807707 0.93474406 0.5544544 -0.8182555 -0.7735589 0.29302585 0.37697986 -0.91277796 -0.055088688 -0.9720168 -0.4007515 0.47805187 -0.23166612 -0.24755082 -0.7130347 0.46925604 0.674281 -0.524326 1.072377 -0.074958034 0.42586008 0.19382918 -0.61668867 0.8069533 0.44584894 -0.6682478 0.7710601 -0.02437048 0.7609682 0.83171403 -0.30862674 -0.18221387 0.9652946 -0.50461507 0.029825822 -0.7822538 -0.00059766776 -1.0674326 -0.25679293 -0.39542702 -0.5728899 0.378519 -0.5383888 -1.0301337 0.60719854 0.624117 -0.8086233 -0.897574 0.42461738 0.15667477 -0.048697084 -0.79222226 -0.5251039 -0.36540455 -0.24275908 0.5010465 0.87689614 -0.39716807 0.68819916 -0.7743085 0.10219519 0.73411566 0.33295172 0.135022 0.91996145 -0.9356792 -0.64619464 -0.5256922 0.66239715 -0.33419478
('6','Number') 0.060646277 0.10514985 -0.77913696 0.74086165 0.44493192 0.105717964 0.46046346 -0.9047809 0.57882124 -0.7893215 -0.3189635 -0.30239022 0.80410755 -0.33386788 0.123597234 -0.40329573 0.17531745 0.3738198 0.28700224 -0.28033763 0.36378455 0.51874006 -0.6267402 0.0027760796 -0.47209513 0.63812643 0.926801 0.20655464 0.39905587 0.9903153 -0.16863124 0.52266955 -0.9399491 -0.5452586 0.036414307 -0.8005907 -0.8570143 -0.3720176 0.22265352 -0.5235851 -0.54412264 -0.64909893 -0.18902463 0.732523 0.35082397 -0.8590155 -0.25640777 -0.39484194 0.16345231 0.10501784 -0.30701265 0.35308534 -0.83670586 -0.8188536 0.06367953 -0.3788653 0.34235808 -0.7117367 -0.77186084 -0.5426169 -0.8272454 -0.46621153 -0.39147803 0.17848441 0.23426008 0.8396415 0.23278624 0.2811633 -0.22873044 -0.16306649 0.6605493 -0.5547898 -0.31453848 0.13254134 1.0172943 0.6889677 -0.1437544 -0.55344003 1.1666234 0.22826084 0.7364591 -0.049233608 -0.12926032 0.28242233 -0.2197286 0.58018667 0.3197314 -0.78353715 0.7253503 0.15845041 -0.18962254 0.5046459 0.34079707 -0.67406225 -0.14963661 0.804228 0.33254105 -0.20671785 0.09841318 -0.7526519 0.41644397 0.2176739 -0.4076039 -0.94747406 0.6922711 -0.17066446 -0.3130638 0.9369429 0.8487512 0.50612074 0.8877103 -0.6892337 -0.3475918 -0.5795893 -0.31142983 0.872526 0.6243824 -0.09151553 -0.30481076 -0.8030369 0.32583478 -0.18279848 0.51543653 -0.47785395 -0.38508955 0.7694316 -1.1269702 0.33986405 -0.18276139 -0.3110113 -0.9208058 0.6817942 -0.9481004 -0.58848757 -0.3957584 -0.7412975 0.5433464 -0.79422355 -0.4148151 -0.27944317 -0.7817022 0.58520174 0.36669528 0.5347499 0.23254062 -0.09633794 -0.06594048 0.724327 1.0499302 0.73889273
('10','Number') -0.8374394 -0.33978626 -0.0471337 -0.32810417 0.9660645 -0.8506675 0.07722569 -0.75623095 -0.9175116 -0.58583146 0.8049415 0.27183384 -0.6615731 -0.23082063 0.12155845 -1.0876913 0.3505959 -0.101065636 0.06764336 1.1255697 0.8381059 -0.4869973 -0.3768269 0.38666102 0.2745625 0.81974626 -0.17566574 -1.0784181 -1.0156591 -0.1596258 0.33170965 0.23579396 -0.45242116 0.6020978 -0.0642771 -0.35516965 0.4249666 -0.118145935 0.83741915 0.3919145 0.9032592 0.4997115 -0.24585663 -0.6078784 0.6617324 0.35297358 -0.8497547 -0.7635436 -0.23841849 -0.46506488 1.0510193 0.61235005 0.13311484 0.1135468 -0.5278963 0.3575595 0.35315505 -0.4392717 0.2964353 -0.5930459 0.32755306 -0.34967417 0.59161 0.21520488 -0.69668585 -0.11462309 0.3498135 -0.8735775 -0.8324721 -0.7789794 0.6399125 -0.66024077 -0.0056127547 -0.22177106 0.7695411 0.32102334 0.8873245 -0.067030884 1.2042832 1.2379537 -0.9639252 0.24258326 -0.7638825 -0.8284271 -0.1531215 -0.8117062 0.28666586 0.5883788 -0.04654136 -0.78578794 -0.6017245 -0.1972591 -0.8173116 0.5102231 0.26052526 -0.27339202 -0.59810185 -0.34512302 -0.18210797 0.049993698 0.3120903 -0.4282628 0.27056527 0.5667801 0.05108984 -0.27498555 -0.2630235 1.2617894 -0.41154173 0.5594357 -0.75717586 -0.56003916 0.22095212 0.9283422 -0.21545036 -0.10078149 -0.640367 -0.94536906 -0.74204457 0.6481957 0.69593275 0.030253978 -0.71985924 -1.0546675 -0.22923703 -0.44669002 0.5396361 0.4132088 -0.00021119567 -0.059926964 -0.78125346 -0.94965 -0.5850386 0.26313215 0.077303186 -0.46557596 0.2269872 -0.000871966 1.0699824 -1.0176953 -0.46722832 -0.24597673 -0.11364472 0.14873621 0.6908597 -1.0116423 0.8279854 0.6299701 0.030029705 -0.64505327
('명','Noun') -0.10369829 -0.5061765 0.503612 0.82267785 0.67184585 0.20646673 -0.7024539 -0.74287474 0.967848 0.40358895 -0.104600884 -0.025686638 1.1468796 0.5647667 -0.50685745 -0.94909525 -0.07399388 -0.059611294 -0.8005934 0.22517215 0.63856363 0.7753581 -0.8947572 -0.62444586 -0.012465751 0.35614285 0.37799498 -0.86305815 -0.4028474 0.15002944 -0.9449057 -0.61937106 0.74688315 -0.34399766 0.0966492 0.07701098 -0.44581348 -0.69278365 0.059291717 -0.8016886 -0.9512861 -0.9323953 -0.020309499 -0.06387816 -0.47010195 -0.7939716 0.4731434 0.13886438 0.27896154 -0.5332309 -0.50391316 -0.2922658 0.62067074 0.0150106745 -0.46972632 0.61189777 -0.3540222 0.3716677 -0.6323726 0.6610075 -0.94816554 0.7262354 -0.52816445 0.7879938 0.6086994 0.7976462 0.068000235 0.13768937 0.9291144 -0.5968143 -0.34268308 -0.47855115 -0.38141838 -0.93903553 -0.027895285 -0.79740435 0.49173844 0.48656365 -0.34905186 -0.005320045 0.21984698 -0.83394974 -0.60866916 -0.65977395 -1.0297015 0.94641477 1.0788761 -0.7456136 -0.80489147 -0.2380816 0.6892644 0.94716513 -0.5239973 0.03771392 0.53457093 -0.17445993 -0.26128727 -0.7753364 0.10502596 0.35995522 -0.18403645 -0.5052627 -0.14574216 0.6760242 0.3334547 0.9079763 -0.36528325 0.6225407 0.24851209 -0.61599404 0.11431091 -0.45992312 0.13974059 0.44981748 0.20751368 0.73491853 -0.04299166 -0.15549448 0.14004652 -0.12993865 0.13180698 -0.4150187 -0.10545747 0.12154763 0.4824611 0.35874224 -0.0056257104 -0.5395322 0.5494084 0.4589158 0.09121118 -0.007729142 0.6372121 0.65823114 -0.06730635 -0.2999184 -0.2186398 0.12374348 0.24231526 -0.38421726 0.8179572 0.40183395 0.1538306 -0.30353892 -0.36477533 0.54723954 -0.3019083 0.5061155 -0.4748129 -0.2574742
('것','Noun') 0.46322268 0.3624222 0.07099475 -0.14625973 0.4844861 0.155401 0.29502976 0.43344092 -0.3684035 0.09205008 -0.7944958 0.61662465 -0.110880286 0.5546074 -0.019410865 0.8553793 0.08197037 -0.6190155 -0.108116426 -0.13451926 0.36845118 -0.5647689 0.7766304 -0.32018405 0.4570151 -0.0072295973 -0.6991719 -0.19333471 -0.12139391 0.6332338 -0.3128452 0.08962198 0.6016966 0.82040614 0.28219464 0.21068735 -0.68670374 -0.76511216 -0.01347235 0.74117494 0.23134935 -0.6646147 -0.2853444 0.43716905 0.4443625 -0.18543893 -0.5861416 -0.8084926 -0.6299171 -0.4827811 1.0522481 0.21323742 -0.11497252 -0.38493603 -0.22501345 0.21599378 0.64900553 0.0076676398 0.077997185 0.9300597 0.01671002 -0.7960823 -0.5022851 -0.39939922 -0.8073486 1.0006022 -0.30959722 -0.6247685 -0.093238726 0.89134526 0.7292645 0.29836392 -0.8187637 1.1301011 0.42272255 0.976373 0.04292392 -0.5886046 -0.3920645 0.18530041 0.2518705 -0.56109166 -0.6386335 0.4562399 -0.31797126 0.9824635 -0.14035508 -0.137 -0.5826127 0.010537362 0.884326 0.39953345 0.67833817 0.9009189 0.41021076 0.7185838 -0.2128315 -0.447408 -0.14970453 0.7850819 0.949176 0.17692263 -0.5093382 -0.3293088 0.6744485 0.071606785 -0.22872062 0.57842517 -0.56754076 -0.9075507 -0.31038827 0.4542113 -0.82408977 -0.42877474 0.49658355 0.6458 -0.79714584 0.3318686 -0.049490783 -0.806057 0.47241443 0.5687669 -0.14398795 -0.39904332 0.85388964 -0.24649094 0.5922458 -0.16261758 0.2965536 -0.38259986 0.9200647 0.51436526 -0.86877215 0.55616295 -0.72646666 -0.8515174 -0.1987035 0.19263527 0.10795194 -0.123900965 -0.26760298 0.8047222 -0.92512566 0.05344217 0.7958954 -0.16280675 0.13935111 -0.7970156 0.07350457 -0.8533445
('연습','Noun') 0.36442804 0.9477262 1.0870906 0.93685025 0.46535486 -0.4875066 0.6879419 -0.37603968 -0.92405677 0.117373385 -0.2718618 -0.87999576 0.72533184 -0.61389935 0.2692229 0.48351967 0.30850706 0.9295756 -0.39632577 -0.30156392 0.6882616 -0.78814125 -0.11189866 0.47419426 0.19875786 0.91232365 -0.44868928 -0.26881114 0.515372 0.12289757 0.5535125 0.07554017 -1.0357162 -0.5270932 0.6963901 0.6287932 0.16145612 -0.7214629 -0.68696505 -0.9227346 0.7282707 -0.32408243 0.055636816 0.0033218497 0.36766666 0.50504714 -0.028142573 1.0145576 0.29389277 -0.47697285 1.0355262 0.7968774 0.74115324 0.80838025 -0.3373583 0.7769464 -0.20882629 0.38661924 0.30625433 -0.8253258 0.45051396 0.5635689 -0.5538161 -0.20321152 0.82453996 0.6901584 -0.12984617 -0.45326763 -0.5855702 -0.99826795 -0.18701547 -0.26926768 -0.44436628 0.7101256 0.5213435 -0.38257027 -0.029682575 0.9264084 0.4362063 0.02416595 -0.0033732338 -0.25971043 0.314763 -0.27485716 -1.0097275 -0.777639 0.29858217 0.07550739 -0.6170961 0.31130433 -0.0038606282 0.059472904 -0.68397343 1.1463562 0.40216994 0.43222687 -0.11421682 0.6194452 0.15053271 -0.6678811 -0.27832815 0.81683403 1.0164775 -0.43988928 0.15969573 -0.08926932 -0.45204645 1.1131107 -0.5413619 -0.48605883 0.453692 -0.30691984 -0.79569286 -0.22888573 0.08402955 -0.44710857 0.2933325 0.65310466 -0.12670165 -0.81288075 0.9628956 -0.61391395 0.15992065 -0.6556268 0.7896462 0.48900425 -0.29357752 -0.45530307 1.1858935 0.47912303 0.39948922 0.079522654 -0.16627161 0.90303546 1.0895776 -0.9138762 -0.8939508 -0.12910241 0.5195045 0.08855677 -0.2853323 0.15771508 0.45224538 -0.32793814 0.04299571 -0.00066113606 -0.63056415 0.56250316 0.50524324 -0.7364845
('타','Noun') 0.88694155 -0.81887305 0.5664802 0.15884258 0.2911804 0.40956935 -0.48081398 -0.27125558 -0.6045285 0.98369294 0.58812815 0.87346 0.60093445 0.950348 -0.78925335 -1.0752523 -0.3014723 0.840903 0.05143714 -0.4647895 -0.43371928 -0.238932 0.6935436 0.7583945 -0.824035 -0.42806736 0.40229115 -1.041015 -0.69360983 0.08544802 0.24337278 0.31478918 0.77458036 -0.19430365 0.72561383 -0.79369557 0.4268876 -0.9629042 -0.35873473 -0.18839484 0.32200754 -0.51128423 -0.7402758 1.0352366 -0.35722816 0.43157408 0.060950026 0.63036704 0.049782075 -0.15859164 0.0007201249 -0.24177189 0.617412 -0.39339644 0.22238308 -0.758889 -0.589999 0.17160575 0.638627 0.15018186 -1.0628239 0.15016334 0.7190272 0.87321365 0.18994953 0.15646169 -0.98047966 -0.52480316 -0.4826043 -0.0029045953 0.007490467 -0.53491163 -0.63062674 -0.45367256 -0.5068478 0.5489304 -0.56592935 0.20371784 0.63526666 -0.050606053 -0.7655061 -0.5057269 0.48823023 -0.42498857 -0.2989536 0.05721434 -0.94327784 -0.18171002 0.7627803 -0.5419965 0.5423126 0.37065306 -1.1462485 0.56424797 -0.5186871 -0.6573912 0.9005539 -0.63567555 0.45798895 0.90893424 0.15167354 0.7973985 0.5403937 -0.4723769 0.75004774 -0.23001193 0.35360187 1.0526382 -0.11919719 0.3126688 0.6901106 -0.6742946 -0.17874 -0.586384 0.2848412 0.7265503 -0.6573553 -1.1716467 -0.42804027 0.9195092 -0.6760475 0.88135475 0.39202946 0.6515463 0.23384403 0.8260113 -0.7899938 -0.5579281 -0.34504038 -0.7477231 -0.4723998 -0.2559238 0.54407686 -0.41701666 0.90739584 -0.57613283 0.6076726 -0.76983917 0.80603075 -0.50440377 0.28109622 -0.66974324 -0.8892114 0.6674594 -0.37251022 0.69500047 0.8280563 0.063907035 0.14743578 -0.5429202
('학년','Noun') -0.13272096 0.018891227 0.35862184 0.7199289 0.037640885 0.5176429 0.51662016 -0.093183875 0.88201344 -0.106916904 0.4529003 0.59261096 -0.32445493 0.33128747 0.33076525 -0.7945217 0.0516497 -0.48149872 -0.53684616 -0.41390336 -0.22170308 0.10304644 0.2835688 0.014404868 0.0001088985 0.7962864 0.9195097 0.24838173 -0.8694857 -0.5274099 0.12002877 -0.1377825 0.3173677 0.56002164 0.7406625 -0.8270866 0.8477057 -0.92481357 1.0016018 -0.47907162 -0.4652255 -0.12102876 -0.00033512758 0.6909223 0.6162384 0.16949366 -0.7483883 0.86786866 0.7654187 -0.12897044 0.39569595 0.9993593 -0.76021516 -0.17006665 0.84900546 -0.30757418 0.62498564 0.7185398 -0.4352507 -0.76716936 0.3455536 -0.6527991 0.6777955 0.013343819 -0.23196368 -0.14298902 0.5763467 0.414698 0.10619316 0.16133508 0.4867332 -0.9069281 0.97147846 0.09830455 0.7354701 0.3942788 -0.23125766 -0.49641913 0.7628874 -0.01348264 0.5922169 -0.43993193 0.5915611 0.7295595 -0.65627223 -0.16118643 0.9591098 0.91793925 -0.08103224 0.8264887 0.66991407 -0.027959496 0.55339205 -0.5656271 -0.055465955 -0.28893116 -0.91579884 0.90796405 0.6296176 0.30409077 0.5197266 -1.0150805 -0.8228358 -0.25833583 -0.7231751 0.029338045 0.041442793 -0.21885851 -0.7614732 -0.66382265 -0.31125414 0.85496247 0.2566653 0.43435195 0.5307311 0.5418853 0.45871338 -0.805694 -0.2954151 0.79839295 0.12900098 -0.21103114 0.87483084 -0.14965564 0.4689682 -0.6494751 -0.24692473 -0.2974816 0.704862 -0.17750834 0.5370509 -0.38722914 -0.5119223 -0.34595844 0.874792 0.1440217 -0.49826887 0.14681147 1.0467752 -0.28035316 0.71492726 -0.72923213 -0.24604575 -0.91626465 0.7394099 -0.3043924 0.2715483 0.13766119 -0.019713841 0.90688294
('생','Noun') 0.22210476 -0.78479135 -0.77132154 0.16916275 0.24686377 -0.37077475 -0.73392963 -0.6046463 -0.18408962 0.35061502 0.16724636 -0.38951692 0.74618566 0.05224117 0.36512864 0.25038284 0.9822384 -0.022466345 -0.6206513 -0.27348018 -0.97345996 -0.4029881 0.45653814 -0.3051611 0.13513781 0.5057576 1.2367443 -0.72806746 0.7944604 -0.30122694 0.0009952905 -0.13070415 -0.08310034 -0.6268024 0.070690006 0.5726952 -0.8921953 0.051828478 0.049149197 -0.38615876 -0.29597038 -0.28754935 0.55580705 0.26741067 -0.041146703 -0.48655933 0.11502835 0.48393562 -0.1138805 -0.34208918 -0.13953578 0.455274 0.5700378 0.06781528 0.75877154 -0.5523372 0.29191518 -0.76916295 0.51377606 -0.47137654 -0.08800737 -0.80856824 0.17614836 -0.075377814 -0.5335469 0.047128312 -0.3027803 -0.3549001 0.48068064 0.19871695 0.066597566 0.14117877 -0.49214453 0.1922614 0.36242086 0.35140166 0.016719416 0.7423737 0.48056668 -0.25431988 0.34339622 0.90088195 0.85331357 0.59086037 -0.23459968 -0.27999336 -0.52657175 -0.9937067 0.008287949 0.568821 -0.60230124 0.21525773 0.4475154 0.90475446 0.2596569 0.06758625 0.6468135 0.96791095 0.43739545 0.089132845 0.4842396 0.22421391 0.11674473 0.77392125 0.8637664 -0.29127967 0.10712683 0.49670932 0.25799778 -0.49648768 0.1873687 -0.9555767 0.3420986 1.0038071 0.7324229 0.8738396 0.46544096 -0.5648857 -0.968905 0.081391156 0.26990005 0.62415504 -0.62733805 -0.4661536 1.0153077 0.9592149 0.11052333 0.07476405 0.39934653 0.34759971 -0.77034706 0.6078337 0.3071672 0.57628983 -0.0064472766 0.07011927 0.3560496 -0.9795707 1.0692891 0.41988486 0.00037705898 0.26409322 0.13658983 -0.2751128 0.33265403 -0.5753008 -0.30160856 0.67127216 0.019709526 -0.806353
('플','Exclamation') -0.6669248 -0.5186677 -0.8640263 0.41803458 0.26014432 0.5041849 0.9525473 -0.36863455 0.61613417 0.25687763 -0.7982471 -0.29212373 -0.86573184 0.112832814 0.2211816 -1.091869 0.4286651 0.5707249 0.51602983 -0.6313081 0.26824364 0.4825826 -1.0649204 0.56117654 -0.38313672 0.22025734 0.546317 -0.43629107 -0.23632348 0.6865276 0.5959504 -0.47746086 0.58807385 0.28502733 -0.81997365 0.076818615 -0.87622714 0.07646784 0.25171325 -0.64309514 0.3771207 -0.21577564 0.8965784 0.40114468 0.23120017 -0.80654085 -0.12470113 0.044406958 0.026729608 0.6995767 0.08161229 -0.09333869 0.785875 0.33588246 0.41450042 -0.19575472 1.047472 -0.63484955 0.40231705 0.23918459 0.87008446 -0.9320008 0.515189 1.1259722 -0.16116053 1.2113224 0.35754657 0.27716106 0.5091056 -0.2171902 0.14982635 -1.2502122 -0.26126868 -0.8700505 0.9512739 0.7611836 0.95935935 0.37972793 1.0524364 1.1357121 0.35879183 0.9202493 0.3158005 -0.04213307 -0.7126579 -0.77214986 -0.34653232 0.28417104 -0.25168318 -0.7834045 0.7794835 -0.24398288 -0.47782487 0.35697883 -0.35722995 0.4128044 0.13058682 0.14107932 0.35251147 -0.8760947 -0.41104934 -0.04430046 0.2809742 -0.59753144 0.44703585 -0.033862937 -0.55432624 -0.48748204 1.0088273 0.021290373 -0.4032207 -0.6585674 0.9176863 -0.46344942 -0.62111986 -0.6329833 -0.29480976 -1.1555127 0.21468562 0.089148484 0.545173 0.34628582 -0.48068646 -0.3321383 -0.6707696 0.70579284 -0.86111456 0.12505545 0.03646967 0.4262588 -0.063302256 -0.2543003 0.48961985 0.4181592 0.39642087 -0.8260509 0.33559197 -1.0580512 -0.8106436 0.3178242 -0.31273216 -0.41060257 -0.6419806 -0.323585 -0.6352442 -0.58017385 -0.80877924 0.5684412 -0.6874118 0.41810334
('학점','Noun') 0.44970518 -0.08260076 0.18249562 -0.5557203 -0.10493544 -0.8298524 -0.30487457 -0.90545243 -0.29863858 0.49677134 -0.12718856 -0.9805426 0.79547775 0.43514854 0.045343705 -0.41455385 -0.38686037 -0.5883966 0.7219611 1.0255357 -0.7776664 -0.5991697 0.7247473 -0.070460014 -0.648798 0.44781575 -0.4971808 -0.3490802 -0.120773636 0.21341425 0.5401363 -0.122347414 -0.6307112 -0.4362165 0.03294842 -0.58495677 0.08644568 0.51133984 0.032595098 -0.6552358 -0.45311043 0.2467948 0.20855689 0.50820196 0.061516408 -0.21968287 0.59975415 0.9019639 0.7305361 0.6883565 -0.28392485 0.8516148 -0.2206948 -0.25128615 0.86146206 0.9204254 0.7996726 -0.56912315 -0.4316077 -0.07569994 0.5170039 -0.46426508 0.38817668 0.5818962 -0.66531384 1.241196 0.77809584 -0.039762642 0.83579063 -0.042867698 -0.06469862 0.008575024 0.042316835 -0.26702112 0.69848317 0.6891804 1.0135188 0.0569195 0.71176124 1.0616574 -0.76538116 -0.757561 0.3919867 0.9645324 -0.9586343 -0.21731557 -0.34487957 -0.5940276 -0.9395993 -0.3191297 0.7201798 0.25745103 -0.14389774 -0.043796245 0.021118712 0.65398765 0.803479 -0.29340887 0.2405478 0.84594846 0.019393308 -0.37213698 -0.47177184 0.07031487 0.6736127 0.89023066 0.8180762 1.2107898 -0.8361071 0.67026573 1.0951165 0.80125356 0.42038924 -0.32927456 -0.6489295 0.6088823 0.002338461 0.517788 -0.6444283 -0.3537015 -0.76995283 0.5500418 0.28434002 -0.6045955 0.33385962 -0.49692246 -0.9173724 -0.8646828 -0.11907114 -0.91994125 -0.6739697 -1.0237857 -0.20270026 -0.0064598923 0.8027163 -0.96823996 -0.8225652 0.3703855 0.3643763 -0.7722415 -0.13983613 0.6291854 0.37806445 -0.3932014 -0.73546094 -0.9289908 0.89664924 -0.42544267 1.0488245 -0.9254328
('강의','Noun') 0.46461836 -0.25579745 0.4329937 -0.5861996 -0.5067667 -0.1321593 -0.8087302 -0.1090409 0.025982374 -0.5123851 0.03442931 -0.5304 0.3554575 0.74127877 0.50810206 -0.76504534 -0.15662074 -0.96804607 -0.30366597 1.1410977 0.530616 -1.0134013 -0.7823379 0.9099769 0.09105774 -0.5575686 0.6812918 -0.021034718 -0.7279928 -0.6366051 0.26775414 -0.6883449 -0.034073822 -0.121188544 -0.26629394 0.7549443 -0.59356713 0.92544883 0.23932454 0.69332504 0.8498023 -0.04038629 0.04948304 0.4324091 0.69292086 0.08062547 -0.05233116 0.82087445 -0.35037747 -0.008922728 -0.05817259 0.9315329 -0.7433167 -0.63882667 -0.0031245488 0.2345285 -0.13569683 -0.6843319 -0.7373186 1.1021729 -0.24599807 0.35750297 0.52579725 0.8957871 0.76122844 1.0159674 -0.77561235 0.47470763 0.96602136 -0.10292091 1.2122735 -0.028365543 0.5501596 0.336886 -0.26717415 -0.1804887 0.46687585 0.28728718 -0.3354933 0.04908285 -0.53633714 0.9622021 0.19756667 -0.95954657 -1.1830335 0.68833613 -0.20984383 -0.9672206 -0.63050914 0.52806973 1.0900052 0.17514233 0.19350328 1.0939637 0.32136533 -0.013957145 -0.67472726 0.8633277 0.066996925 -0.5864282 1.194118 -0.52719796 0.93377876 0.4834753 -0.6518179 -0.10388265 0.14351623 -0.027354779 -0.00043174066 -0.63343245 0.36249286 -0.92235106 -0.26504233 -0.29380128 0.93478715 -0.12607609 0.10750466 -0.42988446 -0.94045234 -0.16940862 0.16439913 0.29211184 0.50180656 0.2787451 -0.26782092 0.56777936 -0.2531412 -1.1449763 0.27517942 -0.34120983 0.36486667 0.3114224 -0.30806336 -0.60121244 0.20117539 -0.66352624 -0.8452127 -0.6321696 0.3156569 -0.7452592 0.69597363 0.12155602 0.36080712 -0.7268543 -0.009700028 0.15928133 0.07140446 0.51169753 -0.17520809 -0.42102674
('내용','Noun') -0.373615 0.18008652 -0.4681088 0.53346866 -0.42112234 0.62464345 0.65845084 0.8147172 0.6220956 0.9694529 -0.024183005 -0.048973765 1.0308834 -0.021937896 0.41507804 -0.9807319 -0.91647875 -0.5187253 -1.1282194 0.7891465 -0.08223057 0.26246154 0.23363084 0.4185101 0.58526945 0.46057424 -0.20184802 -1.1811845 -0.2650114 -0.40096304 -0.87290066 -0.24697009 -0.07581745 -0.38519043 0.55024576 -0.5532629 0.0851323 -0.9722971 -0.3559007 -0.18736076 0.7873095 0.91539323 0.17051616 0.35484722 0.44403476 0.0206066 0.60316557 0.80491006 -0.46315795 -0.73855126 0.6493662 0.5296218 -0.057497647 0.68179065 0.7128403 0.07168002 1.1906235 -0.56919825 -0.36365592 0.38671982 0.57088256 -0.35175154 0.10296854 0.7625738 0.7992421 0.26213986 -0.36108938 0.4591088 -0.68956417 -0.8895673 -0.68127996 -0.053112477 -0.3977237 0.7161796 0.6433365 -0.82245386 -0.5736391 0.08784118 0.029081104 0.53059345 -0.83183473 -0.11810487 -0.19314492 0.5194961 -0.59222376 0.78312 -0.06942363 0.7807238 0.671164 -0.38644263 0.5626861 0.34745616 -0.59899735 -0.10128345 0.20802188 -0.6471397 0.49867356 -0.16259408 -0.5300078 0.6408686 0.006699699 -0.4424754 0.42442584 0.41507918 0.19530597 -0.036562145 -0.1849311 -0.18851301 -0.33524376 0.15977961 -0.11390944 0.6374929 0.7564086 -0.040051304 0.6597146 0.23506527 -0.4051105 0.2503277 -0.5440768 0.022911206 0.7964641 -0.14691038 -0.36686525 -0.80854744 0.52966845 0.13377874 -0.9387077 0.1476396 -0.07686642 -0.582987 -0.47661278 -0.37918645 0.14670037 -0.48099992 0.5737918 -0.17856267 -0.8056668 -0.9915048 -0.4659535 0.241232 -0.47959068 -0.3273763 -0.6145264 -0.24597508 -0.14621152 0.38873476 0.7057716 0.51346993 -0.34426475 -0.8611621
('때','Noun') -0.7843319 -0.8125043 -0.23108947 -0.16144477 0.6655643 0.08652258 0.53222936 -0.36388677 0.5500664 0.6892319 0.21478869 0.8114908 -0.24312587 -0.41864383 -0.4820758 -0.41199577 -0.7398516 -0.086710066 0.4676197 0.92475086 -0.56841576 -0.94074416 -0.961514 -0.6512688 0.6534704 -0.84221417 -0.45028394 -0.15911447 0.35390654 0.89929134 -0.030992981 0.5451193 -0.1147712 0.4067447 -0.96231925 0.5401359 -0.4213615 -0.042774696 0.95909196 -0.18606222 0.8058405 0.7243204 -0.400268 0.75071126 -0.41842103 -0.752487 -0.50136465 0.51530296 0.7930052 -0.16551015 -0.31830165 -0.60313994 -0.9550798 -0.16260487 0.22223409 0.54610205 0.9768076 -0.4179471 0.41564813 0.9877395 -0.45511627 0.42008913 0.0029906682 1.1420865 0.37840155 0.99336445 -0.9495756 0.49843 0.23640305 0.7596188 0.80455667 -0.9247815 -0.3285945 -0.5085891 -0.5227946 -0.18614176 0.46173462 -0.44338855 -0.10878923 0.63021666 0.5151944 -0.6464221 0.09899374 -0.010720518 0.43897137 -0.42125043 0.56230843 -0.84303695 0.88852316 -0.46126366 0.8965314 0.6921944 -0.7327036 -0.35937142 0.114192344 0.17701249 -0.6319248 0.21936925 0.8829698 0.47725093 0.1554075 -0.96542656 -0.02348426 0.52190244 -0.75404745 0.30008548 -0.008751988 0.44401628 -0.052550215 -0.92922366 1.083627 -0.10313564 1.1037754 0.24237706 -0.78538233 0.79896957 -0.44634137 0.54359853 0.091603726 -0.5058353 -0.5731651 0.0671098 -0.545825 0.21602502 -0.34355414 0.46699166 0.6686556 -0.68864363 1.0825996 0.21454197 -0.39420173 0.323702 -0.229457 0.7530682 -0.07588817 -0.05895199 -0.9960594 0.014566205 0.830381 0.5191382 -0.058371045 0.50516105 0.13111824 0.0044045355 1.2143548 0.5277968 0.6900157 0.39805844 0.4662315 0.9699433
('정도','Noun') 0.9356002 -0.1093385 0.32871425 0.3306765 0.7579564 0.8087641 0.6346288 0.77546835 -0.010746535 -0.7351303 -0.29109037 -0.74775004 -0.043827467 0.95275813 -0.71851426 -0.31087035 -0.97118074 -0.94330674 -0.3989562 0.70090914 -0.30736783 0.38954303 -0.2564222 0.62683374 -0.66736066 -0.41151297 0.30025983 -1.0113504 -0.9816749 0.6411463 -0.28065795 0.31316584 -0.5686351 0.48591092 0.88578707 0.5633501 -0.2996529 -0.47651073 0.76090336 -0.8217583 0.020871432 0.28663465 -0.5408447 0.22210616 -0.9545486 -0.5228639 -0.25624982 0.28077856 -0.58292615 0.6446255 0.9237433 0.8459505 -0.6547207 0.18537702 0.82160276 -0.6642026 0.30370384 -0.95878035 0.7817975 -0.17873909 0.7190196 -0.38951057 0.38692892 -0.61062723 -0.5664892 0.805301 -0.6948249 0.92557734 0.5106043 -0.096209936 0.026922308 0.33624557 -0.11325846 -0.8759466 0.40057096 -0.34632504 0.24665156 -0.51184386 -0.06359151 0.61657685 -0.64423007 -0.8164928 0.57092696 0.37772244 -0.18152161 -0.98475134 0.17620796 0.77425784 0.4922009 -0.86890405 -0.6518033 0.7512829 0.031419035 -0.28082734 0.6579924 0.35133803 0.9308744 0.21237798 -0.04001493 0.18255508 0.6367917 -0.83091295 0.08779655 -0.8930846 -0.8210552 0.52805495 0.45707524 0.9049185 -0.52443016 -0.41924834 -0.2798325 -0.084415205 -0.32081535 0.9672948 0.1570481 0.12859671 -0.8392375 -0.42017117 -0.72204995 -0.3284765 0.834857 0.42133066 -0.7692495 -0.33072364 0.9363944 0.8392192 -0.26663756 -0.82121027 -0.43622035 0.02665882 -0.5638093 -0.9051501 -0.49116698 -0.15720177 0.5271222 -0.5879649 -0.8930828 0.11836071 0.8618521 0.60400516 -0.07309393 -0.45453516 0.52074856 0.90796876 0.037814893 0.6253376 -0.29809183 -0.6463231 -0.7364097 0.9407088
('기','Modifier') -0.1426083 0.8970626 -0.69707936 -0.319845 -0.27794206 -0.7081421 -0.92894566 -0.17785215 0.18781579 -0.47165847 0.65992844 0.046655502 -0.26723987 0.5424491 -0.6469839 -0.7252167 -0.12019384 0.47613293 0.76359797 -0.6307232 -0.45975354 0.15770127 -0.007784777 -0.13033232 0.6316033 0.32865036 0.376193 0.8636084 0.74512166 0.55054194 -0.41253313 -0.5818681 -0.4686288 -0.45492658 -0.1091328 -0.25747916 0.5319451 -0.47991621 0.16689987 -0.86407864 -0.39630044 -0.3072999 -0.83804214 -0.039224792 -0.88652295 1.0671602 0.8140637 -0.7649019 0.6482331 0.16643482 0.9462286 0.03833596 -0.70641595 -0.55111825 0.86534536 0.5800197 0.53311676 0.66112685 -0.23363705 -0.13501029 0.4993793 -0.35564923 -0.2553168 -0.12241788 -0.86375433 0.4530571 -0.035605595 0.66588825 -0.52822715 0.61836517 -0.28183746 -0.072778724 0.74354035 0.6040304 0.20310721 0.5169324 -0.16898015 0.08793677 0.56839997 0.5997674 -0.38832754 -0.77251565 0.26234725 -0.16345794 0.17590757 -0.2008407 -0.076710515 0.6432207 0.453815 1.0343446 -0.3116888 0.05603468 -0.43218467 0.4677074 0.4443921 0.34378618 0.42374682 -0.6814913 0.2894389 -0.030225705 -0.1795278 0.73683894 0.0996339 0.500616 -0.5611948 -0.3238566 0.08451791 0.80586976 0.4007107 0.68552154 -0.08214684 0.94507575 0.9525262 0.60472244 0.2668135 0.39027634 -0.7647132 0.15210275 0.23027992 -0.49096757 0.45896512 0.6745899 0.05507056 -0.05704322 0.5186409 -0.12849155 -0.562164 0.41536292 0.6876326 0.058723196 -0.8318923 0.37345958 0.5514655 -0.23370883 -0.34241095 0.7727181 -0.6790884 -0.052529626 0.5746169 -0.47044548 0.13500609 0.61719835 0.3173875 0.7381641 -0.67491454 -0.099111125 0.28025085 -0.18400449 0.57395893 -0.76475
('거','Noun') -0.90574753 -0.15246715 0.031429328 0.655728 -0.31294352 0.007862108 0.5637957 0.0788021 0.06003209 1.0341387 -0.40733278 0.79401064 0.6740728 -0.6095624 -0.8483834 0.026037658 0.4177999 -0.7242172 0.48230767 0.61503166 0.45002484 -0.9020248 -0.8219075 0.27266818 0.2712774 0.99086773 0.7158402 0.43864056 -0.273418 0.18774116 -0.92730844 0.8142752 0.73165244 -0.4656102 -0.5579404 -0.32617858 -0.8332984 -0.5227921 0.28478745 -0.6838429 -0.077731065 -0.94422156 -0.7396985 1.0329739 0.17229445 0.16406517 -0.8361032 0.46946833 -0.5751943 0.66496956 -0.48344582 -0.28420442 0.4334361 -0.5338866 -0.012220403 -0.0618301 0.44074604 0.09504051 -0.2905238 -0.330577 0.20552815 -0.8498 0.766001 -0.18226568 0.5752318 0.5902967 0.6315482 -0.22725022 -0.83351827 0.6945287 0.59994304 -0.17668599 0.16889155 0.77156496 -0.24339193 -0.12894773 0.22734775 -0.4879464 0.40976906 -0.5597767 0.08069872 0.45489287 -0.624353 -0.0038329465 -0.61269665 0.65486383 0.925131 -0.7321961 -0.21694295 -0.70668364 -0.27210027 -0.5831311 -0.5791771 0.22603774 0.021020222 -0.7788175 0.85904986 -0.10207513 1.068819 0.046667848 -0.33566666 -0.48307857 0.9912755 0.22425036 0.62246555 0.72014326 -0.7074136 -0.1812892 -0.30341735 -0.19545136 0.25031543 0.5855095 0.7316551 0.874024 0.28811383 0.56099457 0.6027286 -0.5179003 -0.35988516 0.20891318 0.3990268 0.6906636 -0.011831367 0.15591642 0.8205851 0.30487934 -0.6152208 -0.6635823 -0.42554814 -0.54140025 0.9567636 -0.7720782 0.8508968 -0.079748966 1.0821524 -0.4268395 0.31684175 -0.20057848 -0.6435838 0.83835465 0.6956691 0.5140624 -0.48350346 -0.27793464 0.28788158 -0.042608466 0.14391436 0.6359938 0.3255878 -0.15252568
('공부','Noun') 0.29621446 0.65431094 -0.57613635 0.9138416 0.39083502 0.057396125 0.60225123 -0.6217042 0.6750226 0.47515863 0.5892418 -0.22659773 -0.48926044 -0.63988143 0.35167608 0.17256325 0.3047128 0.5684643 0.007261156 -0.67786044 0.4476115 0.2546842 -1.1081837 -0.43947667 -0.07951205 -0.27525762 0.15186241 -0.4048111 -0.3157275 0.815738 -0.92643654 -0.69175285 0.369524 -0.66328853 -0.37041312 -0.43931934 0.1713113 -0.09753575 -0.6461267 -0.9482187 -0.836838 0.12761895 -0.03179414 0.58727354 -1.0369667 0.7469453 -0.31843543 1.0840104 0.20022048 -0.61663896 1.0271783 -0.124639876 -0.08996345 0.30106762 -0.57336926 -0.115551166 0.9067917 -0.18720251 1.0158529 0.39009416 -0.14340991 0.034668446 -0.10132121 -0.6518753 -0.92882013 -0.52652 0.5921567 -0.8506961 0.09445402 0.15451229 0.778245 -0.05262572 0.1937642 -0.47250408 -0.3249481 -0.25196716 -0.7262882 0.77761054 -0.56835955 1.1884165 -0.4133981 0.76854175 -0.8955707 -0.6373608 0.3146628 0.17401169 0.47236508 -0.77462405 -0.42583036 -0.7887844 0.6134997 -0.4649102 -0.8110647 0.82624537 0.42577085 -0.8261178 0.4458574 0.12727979 -0.5729528 0.8797397 0.54159003 -0.5020925 0.9812409 0.61000454 -0.0011326835 -0.88156575 -0.683793 0.5766582 -0.4178328 -0.21580495 0.60003066 -0.8298119 0.061958827 0.25170317 0.5378408 0.57599115 -0.39086625 -1.0750048 0.32373288 -0.46267802 0.91831297 0.5988064 0.9929675 -0.78567797 0.6499846 0.48833025 0.42452502 -1.0390626 1.0289831 0.29223636 0.6567468 -0.17149757 0.096772864 0.07158634 -0.1354503 -0.91816956 0.047775388 -0.26466894 -0.3108717 -0.06273205 0.1624659 0.49135643 -0.23867868 -0.33474904 0.5275964 -0.2849882 -0.24698515 -0.3118883 0.007585939 -0.41868368
('설명','Noun') -0.26424485 0.25785053 0.91442925 0.34560466 -0.49757403 -0.93190295 -0.0029815848 -0.53162193 0.21927181 0.98107594 -0.5529858 0.950971 0.63648444 0.8293968 0.5167978 -0.75909084 0.73383474 -0.3158609 -0.95649076 0.19194977 -0.1645934 -0.29652354 -0.23528093 0.70849705 -0.17033222 0.96845776 0.10065538 -0.028022075 -0.5217639 0.36181584 0.21605128 -0.739972 0.41571385 -0.681361 -0.008092109 -0.91680866 0.5787779 -0.91017395 -0.041933373 -0.6280319 0.13232931 0.6942421 -1.1994003 0.91504234 -0.6140643 -0.9386544 -0.5739846 0.9131948 -0.25376445 0.4652087 0.6617502 -0.34086555 -0.2622734 0.4242433 0.4765085 0.002583665 0.41378015 0.18252146 0.74023205 0.016623942 -0.5770707 -0.5046366 -0.8450263 0.072437346 -0.3959135 -0.0055920403 -0.67823046 -0.05556899 0.58421415 0.50451726 -0.5032529 0.6351728 -0.20403703 0.5290431 -0.44808415 0.742683 0.2925581 0.7210263 -0.38957316 -0.12581205 -0.6825389 -0.5889067 0.38010114 0.7280479 -1.0014573 -0.48848817 0.3089406 0.7497964 -0.8103167 0.22770427 0.010995808 -0.17905633 -0.4246362 -0.7301886 -0.08099284 -0.5294447 0.33343607 0.18003154 -0.2804402 -0.5256583 0.539043 0.35440388 -0.48873398 0.12167332 0.56310725 0.8292551 -0.75197244 1.113123 0.6080096 -0.34636605 1.097579 -0.47547284 -0.22258517 0.64063406 0.20076753 0.07135081 0.40936586 0.17374934 0.32143718 0.37369555 -0.40427607 -0.22821504 -0.5766071 -0.25262854 0.06438181 0.32107908 -0.02362888 0.0969545 -0.3149737 -0.16539976 -0.7105655 0.32012334 0.3350033 0.5158872 1.0556297 -1.1037264 -0.9626061 -0.29352176 -0.03390083 -0.7138034 0.43619618 1.0312027 -0.053235576 -0.14972927 0.6604419 -1.0759271 -0.07831369 -0.8243121 -0.69129974 -0.85137683
('전산','Noun') 0.24739279 0.28274578 -0.055171914 -0.6431871 -0.7139589 0.55445445 0.6770236 -0.5772465 -0.7719877 0.006724527 -0.20592298 0.35503143 -0.4623008 -0.41323856 0.6887376 -0.19972278 -0.1329764 0.4662559 -0.7917168 0.8232352 0.4219375 -0.619345 -0.27424368 -0.63969123 0.40684763 0.14318298 1.0803746 0.48783594 0.6351934 0.8225014 -1.0650612 -0.34274024 -0.6837488 0.49673697 0.53132004 -0.111751445 -0.0038457536 -0.6436226 0.6227538 -0.15847273 -0.73364466 0.64066243 -0.12465055 0.87622577 -0.48191985 -0.7890718 -1.0980834 -0.034285314 -0.19811621 0.21229638 -0.31566888 0.3540655 -0.19012144 -0.047647208 0.6935921 0.4096621 1.1447192 0.6153614 0.8588544 0.29809117 0.7882157 0.33197048 0.39728215 0.45368242 -0.8020855 0.08665471 0.3883943 0.59663284 0.23354252 0.30130893 0.2693667 -0.65009266 0.13422357 0.7217175 -0.28418037 -0.34826413 1.0191026 -0.42734128 0.7679273 -0.060156193 0.30514315 -0.42898458 -0.9582817 -0.106436506 -0.46630886 0.6495399 -0.49307021 -0.6991066 0.57894146 -0.012830078 -0.28415155 0.5997853 -0.27663 1.1825272 -0.39137003 -0.5718112 0.17257707 -0.52526236 -0.539295 -0.5586575 0.07655393 -1.0408494 -0.8028929 0.08130892 -0.91277826 -0.19575973 -0.057325933 0.49176276 0.7795909 0.50849265 -0.5507706 -0.10843434 0.14168516 0.30373502 -0.002351263 0.39141747 0.5888413 -0.4347048 -0.11226573 0.3249409 0.78821045 -0.09089784 0.5905632 -1.1648707 0.7352866 0.61659503 0.33404115 -0.09475592 0.84761274 -1.2966912 -0.17755054 -0.27596843 -0.8304205 0.5121271 -0.03976288 0.23389614 0.6215068 -0.84384763 0.05659557 -0.45357433 -0.07336916 -0.52728164 -1.0902361 0.03720496 -0.50108415 -0.3855771 -0.8579076 -0.1638333 -0.121741965 0.41694915
('조교','Noun') -0.26163566 0.08766421 -0.29399422 -0.49298257 0.5878842 -0.73337126 0.46181387 0.617915 -0.833418 0.82486653 0.37490454 -0.20199133 0.18267924 0.20758359 -0.49696746 -0.15615453 0.38498136 0.40541223 0.43070656 0.40583664 -0.062254474 -0.2074035 -0.6338453 -0.740018 0.79991305 0.5716528 0.6829604 0.24887426 -0.6977114 1.0420476 -0.6216994 0.5207152 -0.8186877 0.31030783 -0.77663237 -0.34734723 0.26797286 0.6360722 1.0010217 -0.22440855 0.6025769 0.21308653 0.39861116 -0.12834918 0.80928534 -0.41573963 -0.70255923 0.36764854 -0.19889873 -0.37719104 -0.20463234 -1.0323294 0.41134435 -0.8061738 -0.07431002 0.37482288 0.7673301 -0.44298238 -0.78615737 -0.6675608 -0.33236733 -0.02857289 -0.110988535 0.8542384 0.27059373 -0.17549011 -0.24892893 -0.726069 0.21520372 -0.34725642 0.9593393 0.2548115 -0.9437174 0.5969076 0.47821787 0.90623057 0.25239685 0.66634387 0.6755674 0.37963513 0.38124803 0.6889298 -0.31547642 -0.4219959 -0.7152197 -0.051230047 0.35951546 -0.26061454 -1.0010977 -0.12671876 -0.13938193 0.002767945 -0.04504982 0.16432185 -1.0957152 0.42075372 0.02480979 -0.35643056 -0.1886533 0.8766588 0.062993705 -0.97127885 0.48164508 -1.0624018 -0.7083726 -0.18138233 0.083055995 -0.60578376 -0.5656497 0.32526594 1.0127231 0.7039668 -0.66409034 0.55034804 0.9579439 -0.18315573 -0.48362496 -1.0564888 0.41555813 -0.3034949 -0.08474395 0.19601983 -0.67425644 -0.42260438 -0.07340105 -0.37806633 0.31578115 -1.0630414 -0.4902597 -0.9986867 -0.12240438 -0.43702254 0.5782521 0.037744258 -0.17779815 -1.134127 -0.5837797 -0.17544056 0.27133355 -0.72164106 -0.8585245 0.43721327 -0.37492675 0.77968526 0.14019726 -0.29474238 -0.29027385 0.54979706 0.7509831 -0.34108287
('점','Noun') -0.32613835 0.6264584 -0.8419428 0.76499087 0.6920096 0.47642025 0.19662187 0.6310923 -0.6066427 0.6254351 0.94157815 0.7994298 -0.6359803 0.7093181 0.6759611 -0.7068906 0.443081 -0.92659193 -0.12729459 -0.5782192 0.5471444 0.24963158 -0.44654113 0.19593622 0.64501816 0.6556509 -0.77845377 -0.65951705 -1.0251305 0.72994775 -1.0392146 -0.65311635 -0.752196 0.09987436 -0.61205584 -0.6652178 0.33987987 0.4409285 -0.6904879 0.7450029 0.65751314 0.22916912 -0.92787224 -0.2144469 -0.3707494 0.44225904 0.60042024 -0.12839466 0.15433528 0.47441295 0.7935084 0.4955375 -0.5331426 0.5849572 -0.7496768 -0.092136174 -0.5068272 -0.3440689 -0.11162619 0.3575717 -0.67498493 -0.31881118 -1.0400451 0.57747215 0.5592663 0.865152 -0.31127664 -0.5650481 0.90989727 -0.08023844 -0.37832636 0.60971344 -0.63013756 -0.8140112 0.443143 0.81154346 -0.56010085 -0.49105075 0.48815235 0.91876966 -0.23590419 0.00967515 -0.8599119 0.8994068 -1.1647868 0.7628223 0.83843386 0.017255578 0.2315616 -0.7530225 0.88108087 0.25014105 -0.79200935 0.7424054 0.066580206 -0.107069604 0.14369945 0.9658958 -0.60474235 -0.22841686 0.05737864 -0.5193739 0.34125462 -0.25997287 0.5264666 0.38383484 -0.8698367 0.56880623 -0.59423846 0.43744114 -0.62522423 -0.61153775 0.5820669 0.6941321 0.10011836 0.5343219 -0.59989893 -0.37510052 0.46581075 0.53102493 0.5277238 -0.9333253 -0.37996557 0.16866852 1.0869007 -0.1864104 0.4484791 0.5865399 0.98287815 0.2917396 0.63861156 0.6051355 0.51537454 0.8706636 0.86976326 0.61591685 -0.2773476 -1.1376939 -0.08425268 0.61264044 -0.66820496 0.032511104 -0.78541744 -0.78677255 -0.40549222 0.7260209 0.32701463 0.8214022 -0.32476282 -0.39338824
('출석','Noun') 0.12676065 0.8094628 -0.30061984 -0.4680974 0.77127343 -0.823197 -0.054707646 -0.8997269 -0.57332873 -0.31917548 0.79632425 -0.4112506 0.9942168 0.4505272 0.25919673 -0.3816422 0.51131636 0.3541552 -0.515916 0.84309924 0.48776084 0.21985188 0.33727995 0.53667134 -0.6510002 -0.4714573 0.30178222 0.6616115 -0.57918847 0.5901564 -0.64379275 0.41114724 -0.3128079 0.85874677 0.573425 0.94397926 -0.15796112 0.5132876 0.55508536 -0.5177565 0.26771095 -0.91429126 -0.2621462 -0.7388554 0.06724583 -0.9182177 -0.3109582 -0.20605788 -0.44991818 -0.38664365 0.4262502 -0.14145033 0.70141834 -0.3824661 0.16989318 -0.29299414 -0.25679806 0.42943305 0.2855504 0.46881375 0.07035248 0.1625747 -0.8990266 0.96004015 -0.6700201 0.8535756 0.013593957 -0.94009984 0.6864272 0.13741857 0.38926506 -1.0702813 -0.12922053 0.7849576 0.827359 0.14051975 0.7787929 -0.26951265 0.37009373 -0.41053778 -0.39035866 0.6546148 0.6867862 0.042256765 -0.09165384 0.65463907 0.3556928 0.75546074 -0.6566026 -0.22656596 0.26389292 0.43643928 0.7643141 0.88177633 0.3699009 0.58957833 0.31199044 -0.43353406 -0.34563413 0.20296279 1.0317385 -0.39412585 0.44881704 -0.2557957 -0.45856965 0.717132 -0.36261186 -0.24279058 -0.2815652 -0.0042853453 0.37259397 -0.093079254 -0.7722604 -0.6057824 1.088728 0.42455208 -0.8426463 0.11037377 0.012375258 -0.27074626 0.43578887 -0.9643391 0.4275355 -0.46906292 0.3498629 0.7238406 -0.9230526 -1.08052 0.4834877 -0.9544936 0.31147525 0.29859027 0.627586 -0.60123074 -0.6342149 -1.1865368 -0.7490895 -0.011579882 -0.08030176 -0.70749134 0.8239222 -0.3991635 0.47041523 0.3242363 -0.19197024 0.7041903 -0.23943147 -0.5463532 -0.527628 0.7173922
('코딩','Noun') -0.1902407 -0.048064586 0.05077022 -0.6015156 0.53261757 0.01793218 0.15757178 0.39759102 0.06319817 0.881382 0.674465 0.36160758 -0.5546665 -0.18024856 -0.3739835 0.050872337 0.079974286 0.4739524 -0.24387893 0.42570266 0.78857714 0.3036242 -0.5768147 0.035012748 -0.34874806 -0.26015764 0.5341171 -0.7523401 -0.8713994 -0.15083283 -1.0226295 -0.5942532 0.2821014 0.36322203 0.82905257 0.19223231 -0.31599167 0.4976032 -0.6519273 0.4089016 -0.4440267 -0.17011853 0.24698505 0.37864274 -0.18470345 0.7840605 -0.44237843 0.69801426 -0.28424603 0.6494347 1.0858475 -0.7779923 -0.65357655 0.83631736 0.4890066 -0.3425964 -0.15062524 -0.20627844 -0.51491576 -0.05637585 -0.9070553 0.57005376 0.6190138 -0.009069866 -0.318671 0.87067705 -0.292249 -0.39560294 0.044696603 0.5876674 -0.33289012 0.049349524 -0.14378522 0.2887944 -0.5130197 -0.71162933 -0.3078891 0.57529044 0.0809108 0.32163575 0.6700787 -0.8534111 0.894511 -0.8301477 -0.42209134 0.051563047 0.97761875 0.7337738 0.34730333 0.8623325 0.5558836 0.70892954 -1.0638905 0.5109111 0.21364409 -0.9262117 0.9038007 0.019800968 -0.03717556 0.44489872 1.1400937 -1.0066345 0.016512288 0.44137672 0.77840775 -0.60225624 0.82629263 0.41085565 0.19456854 -0.58012617 1.0458889 0.51751375 0.14879005 0.4466649 -0.6497937 0.71657526 0.67900276 -1.1632162 0.22503103 0.65383023 0.056567047 0.15477403 0.3428294 0.056453977 0.33565682 -0.8892703 -0.7549322 0.15722938 0.2717315 -0.0287028 -0.25278553 0.00291937 0.037352376 0.00010177874 1.0539169 -1.1610807 0.13782813 0.18934904 0.22528663 0.8239825 -0.3156957 -0.08756584 -1.0901169 0.5292749 -0.044503182 0.579857 -0.77987236 0.10171279 -0.44858113 -0.4073429
('주','Noun') 0.22943191 -0.84361523 0.036890373 0.6642693 1.1918827 -0.6444629 0.9557982 -0.8895508 -0.7155058 -0.37944165 0.93398094 -0.17183036 -0.57536274 -0.53592646 0.12623197 -0.30904433 -0.32734075 -0.55171436 0.59988505 1.3231696 -0.027467404 -0.5996868 -0.30683154 -0.568432 -0.1345222 -0.54454505 -0.097772926 -1.0142367 -0.8874782 -0.43793938 -0.030800335 -0.6480175 -0.8621017 -0.08192554 0.7269003 0.55942947 -0.8147386 0.3544738 -0.26586974 -0.010600575 -0.7131501 -0.5399625 0.05195249 -0.2187781 -0.33731946 -0.25624484 -0.5598111 0.42105418 0.68823904 0.7262058 0.81608367 0.32957217 -0.68650174 -0.24126132 0.57961816 0.9905169 -0.51306754 0.4773252 -0.4840236 -0.19563892 0.7272821 -1.0563977 -0.46002555 0.81627357 0.5939697 -0.016198784 -0.8930503 0.8155433 0.73361886 0.19650218 0.1691451 -0.07753718 0.7389825 -0.14385399 0.8362474 -0.5888395 -0.3647006 0.46158546 0.121422276 1.2993324 0.7693362 -0.5833169 0.21666296 0.040602285 0.13253117 0.55816525 -0.64320856 0.70682114 0.8140121 -0.18402253 0.9077334 0.2873404 -0.6399004 0.9954914 -1.06588 -0.3128049 -0.5057393 1.1088454 0.18585312 -0.6700654 0.5193209 -0.8242869 -0.46133488 0.49722427 -0.8071786 0.6639189 0.4933907 0.82061386 -0.02038861 -0.99736345 0.3391897 0.8785724 -0.42180985 -0.58529687 -0.40400323 0.35960045 0.28060856 -0.2720297 -0.122053325 -0.07578114 -0.4740343 0.80001074 0.20015141 0.47851342 -0.39816958 -0.0037155773 -0.5124032 -0.25008348 -0.2702232 -0.93627334 0.46509716 0.29062822 0.7066154 -0.80379707 1.287284 -1.2694731 0.39943004 -0.8124459 0.25871846 -0.17635024 -0.2624036 1.0069709 -0.17057481 0.61295605 0.458593 0.65837157 0.5402397 0.7992669 0.39391315 0.87914324
('개인','Noun') 0.23011532 0.49964842 -0.4853865 0.5393366 -0.30805683 -0.59606296 0.91896075 -0.067678645 0.017089235 0.8566174 0.62212956 -0.57057744 -0.19350474 0.5277202 -0.90511537 0.7844475 0.29749057 -0.06276287 -0.85670847 0.6287025 0.15162526 0.19467856 0.65980494 0.41193736 -0.028339744 -0.08146521 -0.41678283 0.3848117 0.5755019 0.24379832 0.4092495 -0.59246194 -0.9442418 0.9071144 0.49798483 0.03077433 -0.29135153 -0.13238536 0.030212842 0.48309898 -0.041557908 0.49526745 0.111992344 1.0184699 -0.5908035 0.56508994 -0.38762724 0.5133591 0.5605106 0.8773045 -0.5984405 0.11802605 -0.81694144 0.2752756 0.08736744 0.2536028 -0.41522813 -0.86397606 0.23764521 -0.88006926 0.49641392 -0.7994827 -0.11939933 0.5917866 -0.3197497 0.5938352 0.68426126 0.016575731 0.91397107 0.48511195 1.078241 0.20514305 0.33458775 -0.8353352 -0.29094717 -0.23956257 0.7213746 0.52243686 0.6801622 -0.024043076 -0.9994405 0.25364354 0.17901061 -0.798294 -0.7786134 -0.53126365 0.8987797 0.1410051 -0.585223 0.77480245 -0.25446182 0.18240488 -1.1572297 0.34199804 -0.011961443 -0.9262 -0.57316756 1.2459793 0.32027555 0.3609051 -0.775964 -0.480772 0.15089816 0.419377 0.26555657 -0.46130776 0.2878542 0.72032017 0.8011276 0.026032886 -0.7268469 -0.2622446 0.7895145 0.47210288 -0.20783697 -0.20065932 0.28519496 -0.6821022 0.7526882 0.89872545 -0.8333842 -0.28090832 -0.1272054 -1.1460481 -0.35239747 -0.7272159 -0.7176582 0.0779733 0.5245032 -0.42552617 -0.6190544 0.27577505 -0.9929746 -0.6736555 1.2033631 -0.74735624 -0.24562785 0.46622756 0.011839978 -0.014523534 0.32992655 0.7587102 -0.17540014 0.86813104 -0.5428391 -0.07092409 0.47906208 -0.5071069 0.69984335 0.055160988
('랩','Noun') -0.4613906 0.0134951705 1.0399843 -0.58736193 -0.022324381 0.6694451 0.33082196 -0.341743 0.59082615 0.75479496 -0.56160593 -0.75653213 0.95592135 -0.54863995 -0.30186087 0.28960124 0.4798803 0.62308633 0.48357368 -0.13056003 -0.89790744 0.05418622 -0.37356302 -0.010520969 0.12966742 -0.31681398 -0.55465543 0.4574224 0.11469762 0.65620124 0.37352967 -0.39180642 0.056117814 0.114097565 0.040025547 0.51268184 -0.22507353 0.3355048 -0.15669858 0.5199229 -0.93089104 -0.8700189 -0.8909573 0.9845529 0.0811266 -0.87981147 -1.0509709 0.42664364 0.2894892 0.5009803 -0.5081402 0.7228344 0.91362315 -0.66051376 -0.42617458 -0.42869276 0.99059606 -0.3617774 0.89614254 0.9252297 0.8164551 0.048976857 -0.6132905 1.0967722 -0.23713528 -0.3615655 -0.2748932 0.83310246 0.77206445 -0.6533682 1.0731187 -0.55865866 0.90057695 -0.4043471 -0.031784434 -0.5488053 -0.64395314 -0.61518186 0.40663436 -0.5818116 -0.94229996 0.34923744 0.1600875 -0.71515477 -0.0072341966 -0.3956014 0.6148522 0.28432804 0.34801137 -0.66495097 0.736646 -0.5848579 -0.96834713 1.1530024 -0.6323665 -0.8426836 0.51013565 0.6946659 0.3078969 0.6915014 0.91115266 -0.7682436 0.14574091 0.2832531 -0.12820868 -0.02602696 0.2667138 0.62489593 1.0155009 0.6757117 0.6995327 -0.96936053 0.8431608 -0.16160801 1.1022635 0.539056 -0.18089518 0.0024668048 -0.77584356 -0.11004651 -0.30754268 -0.5735181 0.06494466 -0.8117442 -0.29924178 0.79568607 0.7489691 -1.228809 -0.22842245 -0.6466977 -1.0389155 -0.9282551 -0.64552605 0.58688724 -0.040930398 0.28212434 -0.9297218 -0.47757125 0.5147917 -0.22998306 0.6305751 0.4042895 -0.8584685 0.12353877 -0.006364573 -0.068975694 0.84853154 -0.41828802 0.74478966 0.86084634
('이번','Noun') -1.039302 -0.38712597 -0.040641688 0.9234247 0.14843068 0.86450094 -0.45278612 0.48130515 0.47409075 0.8056022 0.46622118 -0.4167379 0.9281022 -0.11568771 -0.5163486 0.088034235 -0.53126234 -0.6831594 0.64980334 1.1762915 0.5834381 0.8884363 -0.35456282 -0.81861746 0.49233523 0.46767697 -0.49082187 -0.12063569 0.5545255 0.21587375 0.16600113 -0.061175603 -0.18209897 -0.30212736 0.6457652 -0.79819286 1.0561274 -0.6590211 0.84121966 -0.28335658 0.54862744 -0.47531813 0.350437 0.7726563 -0.9631495 -0.6272454 -0.5467165 0.5593031 -0.22214848 -0.7083281 0.2163193 -0.59033805 -0.8036369 0.9080395 1.0620716 -0.065089025 -0.005400572 0.76210177 0.6905849 0.8630879 0.64867765 -0.15196545 -0.73709 0.81034076 0.46760362 -0.34932503 -1.0068904 0.22057542 0.08167229 0.3040226 -0.2903845 -0.86598796 -0.86842495 -0.05820762 0.4332058 0.7837293 0.44274032 -0.42174652 1.0004702 0.48293266 0.045196988 -0.63195217 -0.70021796 -0.52780944 0.40519142 0.62959343 0.71142846 -0.3623686 -0.81631476 -0.3178202 -0.5822332 1.057748 -0.488198 -0.03410952 -0.9412662 0.5417484 0.22441353 -0.21317835 -0.70840186 0.6445489 0.96750253 -0.69750506 0.89490205 -0.996792 -0.053480145 -0.4273484 -0.756158 1.25415 -0.2244367 0.85569274 -0.12768976 -0.58111066 0.6219177 0.49984303 0.23358859 -0.091034085 0.07204128 0.31125164 0.7972627 0.6579013 -0.3748778 -0.48138565 0.45099548 -0.96302986 -0.085080676 -0.30356652 -0.004004497 -0.512688 -0.16741598 -0.019152485 0.3893605 -0.22896118 -0.78469855 -0.16876644 -0.66782516 0.062902294 -0.62096626 0.36001322 0.14779961 -0.96712124 -0.16061856 0.80538785 -0.3807802 0.29178482 0.030778075 0.85062563 0.33946288 0.43008596 0.102732226 -0.24838805
('수학','Noun') -0.48632768 -0.7019481 0.52736866 0.7480904 0.71083266 0.7291997 -0.0139491325 0.2320146 -0.7326791 -0.48370144 -0.3815866 0.03319371 0.26974455 0.07880516 0.14499924 -0.5069258 0.030788738 0.069513775 -0.5435482 -0.21027878 0.5927473 -0.094218716 -0.8134449 0.8056015 0.98143566 0.3438451 0.061595906 0.4165822 -0.9594556 -0.2598332 -1.185625 0.54475105 -0.79205436 -0.109887764 0.18387297 -0.88034254 -0.69051814 0.65450144 -0.45362243 -0.308013 -0.39519498 -0.15928888 0.34910274 0.6066283 -0.78659487 -0.3646776 -0.18022321 0.925035 -0.28345865 -0.42397293 0.39920485 0.1632713 0.6619359 0.1658938 0.36325324 -0.8338831 0.07263335 0.0313079 -0.5097682 -0.45637834 0.48854396 0.57619315 0.21220045 0.70629 -0.8733963 0.8354051 0.014293992 -0.038448274 0.73185897 0.2289023 0.72237986 0.096372195 -0.082815155 -0.016631607 0.90893924 -0.6776083 -0.503461 0.6491534 0.45032892 0.35156414 -0.03673295 0.84714866 0.8308077 -0.66587615 -0.17265645 0.6509471 -0.67697287 0.10558419 -1.0977724 0.044933166 -0.7240009 0.33792788 0.61050457 -0.24564071 -0.375191 -0.9918879 0.1978636 -0.12121686 0.3050382 0.16223644 0.58811575 0.5941147 0.95119786 0.80260545 -0.8252577 0.42818916 -0.8914635 0.79688966 -0.6958116 0.9376023 1.0579549 0.13782042 0.053005755 -0.6071287 0.5734333 1.0037378 -0.5663608 -0.6515145 -1.0997378 0.54702485 0.73208195 -0.26150095 -0.35154706 -0.1656828 0.6885062 -0.31844133 0.09776004 -0.6552154 1.0181632 -0.21973094 -0.27951473 0.72904974 -0.0022085817 0.32763934 -0.37599954 -0.7283944 0.7094224 0.3385309 0.2650508 0.118967354 0.31652218 0.29536203 0.58931017 0.6904042 0.14847715 -0.9051609 -0.29575127 -0.026040178 0.721044 0.08977747
('반','Noun') -0.7479806 0.21412638 -0.25078484 0.71848947 0.56533825 -0.5828854 0.05899593 -0.9978306 0.9418044 0.98406297 0.954387 -0.8138952 0.033302225 0.17506425 -0.5735535 0.09529592 -0.30256453 -0.0364821 -0.13456742 -0.1809344 -0.06016128 0.4449374 -0.86554724 -0.64078647 -0.8344947 -0.5860513 0.104065485 -1.1369514 0.36998436 0.3860763 -0.47982076 -0.25066194 -0.041075423 -0.7753392 -0.74727243 -0.083657324 -0.03405915 -0.5868429 -0.5020465 -0.8768594 0.17259946 0.64489675 -0.90681124 -0.28172526 -0.15337642 0.35580707 0.7706503 -0.33969945 0.060434744 0.9217603 0.5461861 -0.74460375 -0.46910217 0.39595732 0.24743022 -0.6229122 0.36956397 -0.46133113 -0.47776455 0.44820005 -0.61010236 -0.83230233 0.6316405 1.0497049 -0.16134365 -0.4467555 -0.21552311 -0.80054015 -0.109306656 0.62162983 0.48252204 -0.51111454 0.5109278 -0.7921865 0.70340145 0.4852348 -0.1550757 0.05875321 0.52593786 0.68960834 -1.0104088 0.22411068 -0.030534895 -0.10654185 0.69479316 0.6896022 0.07374628 -0.65568256 -0.535771 0.37489858 0.63980097 -0.422044 -0.051001135 -0.006184536 0.16275004 0.15369956 -0.6767486 1.1210328 -0.14849135 0.060015086 0.65887165 0.35610086 -0.120111465 0.25935128 0.160523 0.2537437 0.7562826 -0.50246316 0.100182 0.71102035 0.933058 -0.9487277 -0.061324745 -0.077609636 -0.2615865 -0.43168375 -0.32613558 -0.93911844 0.20836091 -0.09824298 -0.43637118 0.71415305 0.9972857 0.324547 -0.23653878 -0.73388517 0.11355787 0.10759359 1.0320811 -0.36191592 -0.47846913 -0.6915035 -0.8162577 -0.17807268 1.172576 0.52866304 -0.40208942 0.35775256 -0.043488022 0.4049306 -0.33683506 -0.5090165 -0.009267857 0.75130343 1.180817 0.64604443 -0.07884538 -0.5291498 -0.40609044 0.5198404
('이산','Noun') -0.0650066 -0.6031103 0.6199245 0.84795403 0.21543694 0.13726076 0.47681522 -0.44676226 0.3569003 -0.2550409 0.1860959 -0.6286707 -0.46427748 -0.1234855 -0.5290065 -0.5685858 -1.2596358 0.45156476 -0.40700343 -0.39134988 -1.0906539 0.8040051 -0.9372614 -0.5836216 -0.21386047 0.7022673 -0.5500123 0.61326146 0.13789783 0.3205459 -0.019435098 0.4927402 -0.9747754 0.71417654 -0.8120524 -0.4176897 1.0079952 -0.6631085 -0.43322012 0.110788815 -0.38205403 -0.3793378 0.49536103 0.72409403 0.653713 0.5260159 -1.1460159 -0.050633125 -0.15918943 0.9230466 0.42675665 0.8693827 0.4683389 0.87828994 1.0508184 0.86863065 -0.39473838 0.40463224 -0.074290626 -0.4743539 0.44983855 -0.7230408 -0.25523043 -0.17306957 0.6924454 0.26347774 0.88242614 0.80875874 0.52370137 0.1901059 -0.36674267 -0.27139708 -0.2807367 0.8080667 0.052118566 -0.12762558 0.4404463 0.9453677 1.3666182 0.86590266 0.6259539 -0.563056 0.7244494 0.71029663 -0.70566183 -0.47941914 -0.12668543 0.6153032 -0.45055214 -0.74948114 -0.023641068 -0.3433452 -0.46347928 -0.55642384 -1.1114438 -0.30079576 0.5885032 1.0909785 0.74065095 -0.7450055 -0.07522631 -0.43364167 0.4226103 0.66732144 -0.31431335 -0.2415799 0.07518384 1.1590804 -0.46803448 -0.17863694 -0.63452256 -0.12840514 -0.34937948 -0.29939026 0.23253594 0.82264733 0.11007689 0.24300855 0.12154454 0.41279212 -0.098745726 -0.6400645 -0.4667996 -0.26235497 0.46182808 -0.6261242 -0.42248774 -1.145621 0.9665526 -0.48268536 -0.95212215 -0.8190837 0.97754306 -0.08513787 -0.5664199 -0.5126809 -0.8057589 0.09621898 0.07972588 -0.812539 0.5361051 0.012363736 0.12984933 -0.75754416 0.19466408 0.1831893 0.14820449 -0.83281595 0.54681355 -0.61803895
('제','Noun') -0.3298646 -0.79371583 -0.7952228 -0.18761939 1.1364625 0.4050368 -0.61620927 0.06403584 0.8342835 0.9296422 0.8636546 0.7635837 -0.22635345 0.822476 0.12304073 -0.750484 0.4622281 -0.8191578 0.14281495 1.1067994 0.667163 0.54923695 -0.9111412 0.31369898 0.20695789 -0.57117075 -0.8069443 0.4158103 0.01549997 0.26220542 0.051660784 0.62308395 0.62134 0.0010890057 -0.2635762 0.90393895 -0.5554912 0.42956087 -0.27758744 -0.9826252 0.5674346 0.6102284 0.07243115 0.11307592 0.88845176 0.11961958 -0.48597062 -0.18364576 0.2084884 0.9056761 -0.53735745 -0.043858375 0.8154547 -0.8817246 -0.67317617 0.3205432 -0.2744299 0.49407515 -0.9210377 1.0724207 -0.94259346 -0.011543725 -0.2647251 -0.647682 -0.19994654 0.46180117 0.4525565 -0.42474067 0.8865252 0.026647637 0.22103322 -1.1477826 0.9833917 -0.53489965 0.3309608 0.6541056 -0.6479772 0.087220535 0.7564165 0.10536122 -0.97219497 -0.06758617 -0.81081563 0.60983527 -0.99592507 0.4376494 0.44359025 -0.6287049 0.4924783 -0.22488299 0.8005115 0.9989198 -0.35853568 -0.6258682 -1.1006615 -1.0656112 1.1038772 -0.049762443 -0.12767881 -0.10754243 0.9919263 0.34494698 -0.7491181 -0.84611875 -0.6121207 -0.21059175 0.61534625 1.2175181 -0.52887136 0.35335052 -0.4524182 0.8301555 -0.8936428 -0.053091485 0.03126018 0.3443137 -0.10693894 -0.21276107 0.8446135 -0.072441705 0.50780755 0.73895335 0.32305402 0.24612105 -0.23666802 -0.014240938 0.03144392 0.06428001 0.75879127 -1.034247 0.32845744 0.92473215 0.0333959 -0.05043638 -0.27640915 0.5799183 -0.49514276 -0.5854388 0.3751599 -0.24102455 1.0708845 1.0301182 -0.60922855 0.4955931 1.0188752 -0.7852401 -0.8341136 0.753451 0.9388234 -0.0580883
('7','Number') -0.050456274 -0.35397887 0.60069114 -0.63743776 0.6679061 -0.7300415 -0.69238836 -1.048748 0.22953638 1.0181599 -0.050846625 0.4078797 -0.16370305 -0.8901471 0.6537726 -0.07366877 0.7836552 0.5680952 -0.14864148 -0.6070333 0.62977445 -0.1723889 -1.1709698 0.73588365 0.8483209 -0.66141874 0.23252586 0.43277478 0.1711433 0.2467692 -0.7896863 -0.7177751 -0.1275041 0.5750926 -0.292791 0.68645805 0.65320617 0.7205393 0.41437715 0.53649485 0.6187923 0.3346735 -0.014521996 0.5032591 -0.9890941 0.58038116 -0.26377255 0.6019093 0.16069902 -0.4426372 1.0635498 -0.15598455 0.41140312 0.98714024 0.39100495 -0.25716794 -0.5513046 -0.055825192 0.5388676 -0.4826997 -0.68360716 -1.0822539 0.019756429 0.84002674 -0.7947812 0.043719478 0.06566026 0.53453696 -0.3753535 -0.673915 0.81789285 -0.33532277 0.0646556 -0.8014867 0.35988787 -0.33637583 0.3121114 -0.049389422 0.20410004 0.42574826 -0.8718806 0.82254964 -0.55266625 -0.6557487 0.027756382 0.0380541 0.9825104 -0.6049615 0.720361 0.5099907 -0.4489945 0.10698355 -1.0121669 0.000593054 0.4430142 0.67807716 -0.05850143 0.5214773 -0.06101468 0.07093651 0.27535304 -0.07389602 0.7142916 -0.7460906 -0.68802047 -0.16640843 0.3163887 0.41046777 0.37714708 -0.48432034 0.18701735 0.38429055 0.17409456 -0.6606968 -0.19195515 -0.42854178 -0.18537468 0.2145463 0.41546118 0.91277075 -0.38458884 -0.88850045 0.9400237 -0.6146457 -0.5371168 0.42273185 -0.6724171 -1.2959018 1.0887007 -0.7710968 0.9240307 -0.2557122 -0.10289707 -0.8418423 1.1114008 0.401916 0.33365393 -0.69589907 -0.6368963 -0.7813819 -0.38282293 -0.70497286 -0.7448412 -0.41152456 0.7644 0.40886953 -0.6196098 0.44511685 0.9288984 -0.66167474
('100','Number') -0.9355233 0.052712858 0.23952004 0.13090105 0.7530898 0.58788216 -0.41585892 0.6653312 -0.77223635 0.75138897 0.7209363 -0.9031351 -0.5163127 -0.41236308 -0.9052975 -0.015048709 0.6305192 0.06463833 -0.09829951 0.73160726 -0.04692483 0.34436843 -0.7498153 0.4533858 0.42745143 -0.28655002 0.66936034 -1.08192 0.77715164 0.5428133 -1.1369805 -0.13367718 -0.4920433 -0.78788674 -0.047925416 -0.1110462 0.96582997 -0.24921045 -0.5272758 -0.40827674 0.15444396 0.34294358 -0.4542432 -0.12132037 -0.44504067 0.6030368 -0.21315202 -0.63830274 0.39462298 0.84227043 -0.070814565 -0.26220182 -0.2169803 0.72261864 0.9529887 0.30774072 0.78364354 -0.025698578 -0.012811702 -0.6167112 0.7081768 -1.0759333 0.7604956 0.83169043 0.49530858 0.45423314 0.20814738 -0.4299708 -0.15591961 -0.053602926 -0.89513546 -0.73688376 0.48891836 -0.045109604 -0.117682934 0.24463995 -0.21815857 -0.41435686 1.0528785 -0.22851345 0.7655366 -0.27433303 -0.93876743 0.86945504 0.11704969 0.57231367 -0.037014484 0.28607935 0.39658558 0.6978944 -0.28138247 -0.29793817 0.47054046 0.8020692 -0.26031387 0.51463497 -0.29719147 0.52983785 -0.0026081027 0.07221516 0.7861475 0.050027777 -0.008188691 0.5254838 0.94453657 -0.4131001 -0.14778915 0.4181346 0.50459677 -0.7089481 0.99438053 -0.5988366 0.08636272 -0.16836165 0.91821015 0.21890992 0.5546365 -0.051401466 -0.025966568 0.68453985 0.5584006 0.12353391 -0.034290377 -0.07684163 0.2771463 -0.59269255 0.47817987 -0.24270491 0.6984178 -0.47250682 -0.7657978 0.3888155 0.32093352 -0.08629313 0.5204141 0.21001397 0.9305443 -0.2472418 0.12325049 -0.49591458 -0.31074914 0.036399372 0.64163506 0.5250924 -0.38769677 -0.7702305 -0.19455636 0.81024706 -0.69958764 -0.026878845
('기간','Noun') -0.38416314 0.76229465 1.0290524 -0.61389875 0.92758733 -0.08942168 -0.5504686 0.82128835 0.8972627 0.21893491 -0.28476954 -0.30197284 0.8018146 0.8364387 0.48745793 0.38018918 -0.5266771 -0.034938663 -0.31940234 -0.5962679 0.18591781 0.45458084 0.06955502 0.26140425 0.79074943 -0.6642001 0.8177702 -0.7231832 0.06380613 0.12657493 0.60245705 -0.28121972 0.02308634 -0.3152686 0.39175332 0.1297512 -0.6460774 -0.013439608 0.6164894 -1.0796084 0.40839332 -0.5671034 -0.83344746 0.88266015 0.03153971 0.652238 -1.2039378 0.83109295 0.6976584 -0.09061873 0.6111468 0.95002615 -0.079643115 -0.22468746 -0.09806832 0.41530687 -0.58450186 -0.053851653 -0.78679526 1.0683037 -1.1122737 -0.6084363 0.11822821 0.84345394 0.24168777 0.2493403 0.4996795 0.4400822 -0.27485293 -0.21010067 0.07365566 0.3004109 -0.557359 -0.5149903 -0.20028561 -0.64085305 -0.38105077 -0.725384 0.2238167 0.06703263 0.32488817 0.33794394 -0.5252541 1.0203143 -0.9014547 0.8375162 -0.20853193 0.39699596 -0.8197384 -0.104442246 -0.7941745 0.54266083 -0.40658754 -0.46603125 -1.0325406 -1.0920981 0.7305983 0.6693738 -0.46224388 0.37995583 -0.32865202 0.14223126 -0.18264759 0.4816444 0.99571216 0.29746318 -0.6816295 -0.016215712 1.0901375 -0.3992236 0.70680773 0.34556812 0.6829926 0.539221 -0.12290616 -0.53707284 -0.011589014 -0.53749436 -0.98117703 0.15258995 -0.15462805 0.048078645 -0.08091752 -0.99193627 0.5862106 -0.07955554 0.72859323 -0.24208081 -0.03818607 0.39764345 0.025324602 -0.22862673 0.40347975 -0.6896351 0.59025127 -1.1031295 0.26974463 -0.7700875 -0.31166574 0.636219 -0.41902348 -0.7440224 -0.21311288 -0.47752783 0.30743137 0.5260845 -0.43542778 -0.5021645 1.0100454 -0.5692145
('동안','Noun') -0.7995994 0.6057129 0.1911739 0.5319702 0.6498705 -0.06309995 -0.61201376 0.4104354 0.5970111 0.9353256 -0.85447747 -0.9604756 0.48909232 0.85739905 -0.22790839 0.32531193 -0.76722765 -0.33270866 -0.5837382 -0.21924704 -0.8401273 0.70259243 0.17474778 0.05821432 0.74000305 -0.005166294 -0.26702914 0.55611086 0.88042545 -0.00760203 0.03205384 0.04945347 -0.88757616 0.13683973 -0.71001196 0.44933236 -0.26676226 0.44617414 -0.8405726 -0.61837894 -0.9866698 -0.61889553 0.09114226 0.5540621 0.6743818 0.8044479 0.31382596 0.6143828 -0.029820047 -0.275388 0.6267438 0.70310664 0.21737222 0.5318835 0.4268073 0.57384694 0.19242778 -1.03556 0.50886065 -0.5414782 -0.6131308 0.42959982 0.9709223 0.6790099 0.783063 0.7269587 -0.6818711 -0.23562014 -0.60690844 -0.74984413 -0.29583424 0.2891058 -0.6596113 -0.5521856 0.18152471 0.29464573 0.29547715 -0.7507556 -0.7389403 0.75726205 -0.46401584 -0.4388194 0.58515185 0.16208847 -1.076481 0.13428389 0.48786086 -0.12537119 0.1850456 0.441158 -0.20604205 0.5318575 -0.20839156 0.14571905 0.40640578 -0.5245597 0.9774242 -0.23890424 -0.42479217 0.25629294 -0.33206666 -0.38120872 0.7842941 -0.46795228 0.89935046 -0.197989 0.79264677 1.1173106 -0.35797542 0.34991276 0.058565572 0.71640563 0.33079335 -0.075849816 -0.20141302 0.043675188 0.6773653 -0.5260553 0.10118203 -0.040935684 0.54252625 0.47080168 0.9549178 -0.008013167 0.9783296 0.416288 -0.124741055 -0.8342043 -0.33887088 -1.0246911 0.15386705 -0.103577375 -0.7328269 0.3981534 0.5193836 -0.46714234 0.95751905 -0.8246327 0.2987154 -0.5231715 0.4767734 -0.23181015 0.43414292 0.90754944 1.072206 0.11145027 -0.28090876 0.8390369 -0.30601215 0.37700096
('손','Noun') -0.3946299 -0.63276374 0.9581797 -0.2818167 -0.5329289 0.2546193 0.90981597 0.6475518 -0.3452077 1.1423072 -0.25897342 -0.5328084 0.5337435 0.6764709 -0.698509 -0.7018104 0.32152697 0.27143395 0.14568882 -0.39860484 0.12182487 -0.90391916 -1.1468651 -0.0921165 0.27616635 0.5118951 1.0881444 -0.37372506 -0.11504519 0.81948423 0.37048018 -0.03691361 -0.7701688 -0.068067476 -0.46112645 0.970322 -0.899897 0.22254835 -0.08812284 -0.24929589 0.55131584 0.31452763 0.5043537 0.53077006 -0.3434037 -0.059672628 0.22321391 -0.6696484 0.10875317 -0.028624918 -0.63073105 -0.102908716 -0.15777144 -0.82141554 -0.006969672 -0.48638842 0.8474587 -0.64036834 0.3316186 0.43277308 0.3721478 -0.05609593 -0.024952378 0.97338796 0.45962977 0.12045136 0.16428724 0.3186446 0.8517388 -0.44482028 1.1734363 0.5289405 -0.89665806 -0.8118165 0.39417747 0.07260353 0.74535996 0.6648322 0.8895788 0.45805556 0.8498954 -0.09037622 -0.91840655 0.12939222 0.059140205 -0.09845349 -0.76874125 -0.34446132 -0.83092004 -0.938309 0.8738148 0.6003004 -0.4841967 -0.40674698 -0.60501987 0.5838009 -0.48168555 0.4365587 -0.75286984 -0.2286932 1.1843865 -0.71115834 0.38590607 -0.3512926 -0.27755094 0.9783372 -0.2941142 0.8546387 -0.6801701 -0.8469535 -0.510488 -0.7847903 0.9677022 0.96181154 0.5172156 -0.66169506 -0.22198822 -0.9174643 0.72825605 -0.07512047 -0.32410046 0.29618806 0.6759395 -0.904962 0.8350809 0.32861227 -0.88884264 -0.03746939 0.43408814 -0.26990405 -0.9408491 0.79033417 -0.8443642 -0.7067142 0.14473557 -0.46370855 0.04099033 0.5095474 -0.14431651 0.50429016 -0.0149034895 -0.3202116 0.29404742 -0.8992635 0.8625312 -0.2495026 -0.53712726 0.3040641 -0.6807824 0.21201065
('체크','Noun') -0.168243 -0.17022556 -0.70479256 0.3245187 0.5203653 -0.9550906 0.16474572 0.3451003 -0.45765844 0.88895667 -0.19968116 0.18315443 -0.45840964 0.2626176 -0.015797812 0.69040185 -0.6697797 0.098414145 -0.014509385 0.3842809 -0.49979272 -0.28954685 0.12954023 0.27412707 0.95090276 0.97212476 0.444656 -0.28514603 -0.05047555 -0.029297628 -0.8358482 -0.6086368 0.08059674 0.748319 -0.8989 -0.10812748 -0.050797816 -0.3697731 0.6588772 0.51853585 -0.015853053 -0.078691185 -0.83286464 0.5621687 0.04206623 -0.5162399 0.35916674 -0.016470248 0.30847383 0.4109162 0.847363 -0.5023649 0.7488073 0.7661602 0.2715714 0.41782534 -0.499978 -0.7341006 0.45346048 0.8454573 -0.7724543 0.514598 0.7648965 0.37688547 0.75682145 -0.5016287 -1.0664276 -0.0840862 -0.25946558 -0.57597464 0.20748116 0.573353 0.2627206 -0.56322414 0.70457566 0.7900159 -0.6765929 -0.018331222 0.8456046 -0.042494103 0.89348865 0.27792603 -0.3934466 0.69482285 -0.31460366 0.08660602 -0.17722371 0.09063254 -0.5669015 0.8955104 0.9292609 0.30477768 -0.5245222 0.4152498 0.7283837 0.6582336 -0.08639208 0.7657555 0.5074039 0.57772285 0.26348382 0.81458336 -0.28004533 -0.056882374 0.6866746 0.6905824 -0.5182127 1.1045479 0.7190184 0.46941894 0.15619598 -0.47975728 -0.67490506 0.8577301 0.25025365 -0.83618236 0.4579699 -0.8356852 0.46929935 -0.41838175 0.9089465 0.31547353 -0.60957706 0.6378417 -0.065204054 -0.22143066 -0.17084682 -1.1152308 -0.12515952 -0.7926788 0.31715897 0.1273478 -0.75858945 -0.99693334 0.33506975 0.32955694 -0.73187786 -0.84636414 -0.7558287 0.6365851 -0.8342775 -0.3931073 0.24842145 0.10027123 0.9602004 -0.16452795 0.9116404 -0.47681975 0.7613445 0.38783988
('교','Noun') -0.8509006 0.8735385 0.19356406 -0.11442441 -0.65576947 0.86166847 -0.32381722 0.0031359792 -0.278089 -0.4987695 0.002715724 0.6568554 0.43704402 0.8571792 0.5050238 -0.9188614 0.7654041 -0.780063 -0.6598257 0.50206894 -0.68923646 -0.6912828 -0.2663873 -0.6691512 -0.67478025 0.75438726 0.012769041 -0.9742987 -0.19614702 0.197498 -0.9927742 0.16644834 -0.25476682 0.82999516 0.207175 -0.4701621 0.88136286 -0.0012684831 0.86560905 0.13300526 -0.8183544 0.26167282 0.70858 -0.018643416 -0.7832253 -0.8091697 0.35016668 -0.43435797 -0.79884934 0.60984993 -0.61717683 0.47371164 -0.65742606 0.810242 0.8052293 0.16735642 0.4989692 -0.9520244 -0.07120036 -0.7392342 0.599254 -0.7399363 0.6572951 0.015396697 -0.3843945 -0.010778801 0.5529432 -0.5741245 -0.099826165 0.18669987 0.51031995 -0.5678522 -0.3250242 0.12179611 0.6236425 0.41551125 0.7660944 0.6304556 0.024408782 -0.32654095 -0.021684585 -0.16293524 0.70173854 0.70850897 -0.21382822 -0.0111878095 -0.1918276 0.6728589 0.1940285 -0.8124846 0.54332775 0.58900094 -0.49093452 -0.395388 -0.72723305 -0.27189603 -0.14834571 -0.6029276 -0.11061248 0.058581013 0.96381444 0.5787395 -0.57522535 0.5109545 0.83739287 0.33167988 -0.40051934 1.202287 0.9257023 0.4799613 0.61113507 0.15671651 0.9824857 0.9091204 0.6736374 -0.27304175 0.36880234 -0.0382268 0.5894993 0.60800564 -0.60937864 -0.7204233 0.4824317 -0.43248957 1.1950386 0.8124011 -0.10302163 0.2263775 0.5080551 -0.6333991 -0.094040625 -0.8546744 -0.60729 0.9084871 0.8929478 -0.63769984 -0.23471686 -0.50489944 0.9300213 0.24564523 -0.44854715 -0.5579473 -0.858222 -0.7800881 0.80853647 -1.0515286 -0.629336 0.51778644 -0.13657948 -0.22464006
('학부','Noun') 0.5246713 -0.66435105 0.25655 0.62523097 -0.046488754 -0.9720389 -0.724393 0.57282627 -0.0020687827 -0.035376996 0.11272258 -0.18200344 0.6544613 -0.2619674 -0.035078727 0.16371371 -0.36398935 -0.19407676 0.12041673 0.20633167 0.22935385 1.0229836 -1.076706 0.020694999 0.5619381 -0.44175297 0.8121482 -1.1254725 -0.58676165 -0.57166743 0.22522014 -0.5352646 -0.26096055 0.26695508 -0.51170504 0.40156713 -0.6504667 -0.0744457 1.0602937 0.14258803 0.9726296 -0.6516712 0.08622784 -0.6416127 -0.9117853 -0.4812709 -0.59607404 0.06663175 0.6862365 0.3827741 0.753879 -0.13637501 -0.3153795 0.602335 1.0836185 0.0105979275 -0.5590159 0.13130175 0.1558052 1.0073295 -0.33844164 0.31666204 0.38544136 0.4461306 0.738671 0.35781184 0.5941746 0.52330494 0.5348236 -0.13205962 0.26559964 -0.95748466 -0.7956867 -0.6375425 -0.79879564 0.68102944 -0.026927933 -0.39369813 0.17145292 1.1874329 -0.64023525 -0.19895644 -0.9472848 0.51167965 0.5653614 0.34906256 0.057653904 0.36989704 -0.90049595 0.087270856 -0.71360683 0.10707423 -0.57814443 1.0298731 -0.8864566 -1.1327207 -0.1438985 1.1750832 0.67410743 0.547078 0.47532314 -0.7411685 0.8626753 0.5453348 0.6918875 -0.62894017 0.32829607 -0.18339278 -0.24991778 0.09360499 0.36877757 -0.41495854 -0.5812272 -0.24324168 0.7574616 0.63640946 -0.43338948 -1.1837237 -0.28895304 -0.40509012 0.6013905 -0.4881278 0.59795475 -0.51542085 0.8214742 -0.1650187 0.2855308 0.112283334 0.6662495 -0.32217002 0.61791414 0.32876822 0.31541923 -0.1048754 0.49428394 0.34088528 -0.04414751 -0.1405327 0.008606514 0.1453553 0.8620512 -0.67729044 0.14057462 -0.642402 -0.6199607 0.25338814 -0.7280604 0.11799315 -0.5475145 0.70373505
('기초','Noun') 0.16385256 0.19905166 0.5209107 -0.27469566 -0.09194155 0.86950755 0.6348192 -0.15719599 0.07737795 0.69293875 -0.04800563 -0.48458108 0.31835207 0.618312 0.018860444 -1.1176118 0.09673908 -0.9620429 0.63770574 -0.53072625 0.055690315 -0.60172755 0.117617406 -0.40867418 -0.17619371 -0.49859014 0.4246839 -0.39089778 0.044082426 0.9447277 -0.24662802 0.53773206 0.6252202 1.0250733 0.93191683 0.8057595 -0.023183843 0.3077171 -0.25537232 0.80455774 0.05336662 0.8787173 -1.0485669 0.67220557 0.04698286 0.21219818 0.29787293 -0.68419176 -0.11738768 -0.7174302 0.72518945 -0.516719 0.66916454 -0.28906074 0.081142135 0.5330644 -0.494255 -0.53490335 -0.91685814 1.0568124 -0.25817537 0.20388408 -0.121080555 -0.052731816 -1.049335 1.4372346 -1.1308987 0.24939996 -0.36787066 0.12395857 1.2191885 0.5794965 -0.6341888 0.52842593 0.5742829 0.790862 -0.65044194 0.8761855 -0.30456161 1.2110972 -0.97159404 0.64873356 -0.39023235 -0.67463183 0.17312764 -0.37857774 -0.056794684 0.11998677 0.09364633 -0.46798563 0.5974148 -0.8020496 -0.36307642 0.56278163 0.31831673 -1.0954262 0.6324959 0.31722942 -0.29152107 0.3681773 -0.2253506 -0.12226373 -0.45009878 0.6038783 -0.22463255 0.63308495 0.41468883 1.0398043 -0.3702415 -0.89365554 0.5988704 -0.05213806 -0.72639096 -0.36210606 1.0098598 -0.72365034 0.84198207 -0.9407984 -0.3092225 0.9749401 0.8789974 0.41088915 0.43343025 -0.06403719 0.52291906 0.8618417 -0.26811814 -0.17255837 0.262817 0.059755117 0.17128202 0.38345978 -0.59166634 -0.41960153 -0.104679875 -1.259389 -0.12527661 -0.5675906 0.37028974 0.0475666 -0.62481403 -0.7156493 -1.0070171 -0.041662462 -0.14962919 -0.77517974 0.07570139 -0.7041049 0.46046224 -0.07871334
('토스','Noun') 0.70792025 -0.0030763834 0.31370822 0.19091797 0.14428525 0.1303351 -0.7744776 -0.07680776 0.35363024 0.9086097 0.6983458 0.12386197 -0.4728106 0.22149526 0.47999063 -0.6694834 0.4480642 -0.8459945 0.022713572 0.6711936 0.626761 0.867657 0.40765208 0.31093228 -0.7162278 0.6473038 0.6959098 -0.45011166 -0.3572367 0.56743544 0.30578598 0.088281825 0.44153312 -0.45521864 -0.15243706 0.50541365 0.405191 0.15915628 -0.63541335 -0.9855772 0.093491256 0.95297164 0.7302167 0.8172306 0.7070572 -0.4227395 0.40707198 -0.18895231 0.3696309 -0.18255895 0.070559904 -0.5702341 -0.15246153 -0.55646014 0.4445154 0.40974665 -0.6621226 0.17378652 -0.9380392 0.46835417 0.7182196 0.8909233 0.8459831 0.08296191 -1.1325964 0.55401295 -0.37768808 -0.45844272 0.96999747 -0.5679531 1.0620437 0.12094135 0.81380635 -0.16004987 0.22156486 -0.48955667 -0.079564124 0.92043686 0.13732135 0.23038322 0.6500781 -0.026688611 -0.18580286 -0.6690126 -0.73375714 0.15679304 0.7068255 -0.2259828 -0.04524004 0.2985629 0.20143694 0.71545094 0.09097645 0.48952976 0.32196596 0.34667918 -0.72925913 0.2385539 -0.13971624 0.24947284 0.81202954 -0.41465926 0.3131963 -0.7928884 -0.5679767 0.18232276 -0.23660588 -0.15475243 0.4982678 0.71582586 0.94675934 -0.693517 -0.3062991 -0.27040562 -0.76238984 0.0044430164 -0.28183538 -0.46779114 0.12794848 -0.84406066 -0.02959059 0.108993396 -1.0177104 -0.1514541 -0.18140307 0.7938532 -0.9626182 -1.0409063 0.8459214 -0.3266821 0.2661466 -0.9959752 0.7854642 -0.6995154 0.6498592 -0.470521 -0.6782405 -0.3532631 0.18816318 -0.5835185 0.9482115 0.06645329 0.3699731 0.7919198 0.47370392 -0.88897634 0.7278921 0.5445872 0.850155 -0.773514
